svm_type c_svc
kernel_type rbf
gamma 10.0
nr_class 5
total_sv 4967
rho 0.4529229050812045 0.46694560669456064 0.06871345029239766 -0.6106194690265486 0.017783781639462173 -0.3965509583279043 -0.8331292623508922 -0.4114331723027375 -0.8384897745149449 -0.6519774011299435
label 3 1 2 4 5
nr_sv 637 1692 1753 731 154
SV
1.4521484375 1.466796875 1.068359375 0.388671875 1:42.0 2:42.0 3:1.0 4:1.0 5:0.0 6:5.2619047 7:1.4 8:5.2619047 9:2.1666667 10:1.6904762 11:1.0476191 12:0.5 13:4607556.0 14:2589064.0 15:2563358.0 16:1408012.6 17:1152420.6 18:0.025649318 19:0.010453639 20:0.004954535 21:0.00250578 22:0.0011207436 23:0.0 24:0.0 25:0.04761905 26:0.8333333 27:0.024390243 28:0.0 29:0.048780486 30:0.46341464 31:0.0 32:0.0 33:0.0 34:0.125 35:0.93333334 36:0.57894737 37:0.125 38:1401361.5 39:0.0 40:0.0 41:1.0 42:1.0 43:0.0 44:0.0 45:0.0 46:0.0 47:0.0 48:0.0 49:0.0 50:0.0 51:3.0 52:2.0 53:0.023809524 54:0.0 55:0.0 56:0.0 57:0.16666667 58:0.14285715 59:1.1666666 
1.4521484375 1.466796875 1.068359375 0.388671875 1:50.0 2:46.0 3:1.0869565 4:0.92 5:0.08 6:3.64 7:1.483871 8:5.26 9:2.3 10:1.86 11:1.16 12:0.64 13:2804838.8 14:1532497.1 15:1500540.5 16:846995.06 17:547381.5 18:0.017236095 19:0.008858777 20:0.008113109 21:0.004101154 22:6.52067E-4 23:0.0 24:0.0 25:0.06 26:0.94 27:0.06122449 28:0.020408163 29:0.040816326 30:0.67346936 31:0.0 32:0.020833334 33:0.041666668 34:0.3125 35:1.0 36:0.8095238 37:0.37209302 38:813404.6 39:0.0 40:0.0 41:0.0 42:0.0 43:0.0 44:0.0 45:0.0 46:0.0 47:0.0 48:0.0 49:0.0 50:0.0 51:2.0 52:2.0 53:0.0 54:0.12 55:0.13043478 56:0.0 57:0.4 58:0.4347826 59:0.92 
1.4521484375 1.466796875 1.068359375 0.388671875 1:50.0 2:48.0 3:1.0416666 4:0.96 5:0.04 6:3.72 7:1.2631578 8:6.16 9:2.62 10:1.82 11:1.12 12:0.58 13:5316324.5 14:2999444.2 15:2783915.8 16:1617245.6 17:1223572.1 18:0.011158353 19:0.0058367597 20:0.0029442718 21:0.0019068064 22:5.9442315E-5 23:0.0 24:0.0 25:0.0 26:1.0 27:0.08163265 28:0.0 29:0.06122449 30:0.7346939 31:0.041666668 32:0.083333336 33:0.041666668 34:0.35416666 35:1.0 36:0.877551 37:0.5208333 38:1594271.5 39:0.0 40:0.0 41:0.0 42:0.0 43:0.0 44:0.0 45:0.0 46:0.0 47:0.0 48:0.0 49:0.0 50:0.0 51:3.0 52:3.0 53:0.0 54:0.08 55:0.083333336 56:0.0 57:0.26 58:0.27083334 59:0.9599999 
1.4521484375 1.466796875 1.068359375 0.388671875 1:43.0 2:44.0 3:0.97727275 4:1.0232558 5:0.023255814 6:4.5116277 7:1.2222222 8:7.2093024 9:2.5348837 10:1.744186 11:1.0 12:0.55813956 13:6750939.0 14:3748974.2 15:3301514.0 16:1933679.5 17:1522654.0 18:0.05013593 19:0.01899132 20:0.014447693 21:0.004399174 22:1.4154354E-5 23:0.023255814 24:0.0 25:0.046511628 26:0.9302326 27:0.0 28:0.0 29:0.0952381 30:0.6666667 31:0.0 32:0.048780486 33:0.048780486 34:0.19512194 35:1.0 36:0.75 37:0.275 38:1918008.8 39:0.0 40:0.0 41:0.0 42:0.0 43:0.0 44:0.0 45:0.0 46:0.0 47:0.0 48:0.0 49:0.0 50:0.0 51:3.0 52:3.0 53:0.0 54:0.046511628 55:0.045454547 56:0.0 57:0.20930232 58:0.20454545 59:1.0232558 
1.4521484375 1.466796875 1.068359375 0.388671875 1:43.0 2:43.0 3:1.0 4:1.0 5:0.0 6:5.3488374 7:1.34375 8:6.3255816 9:2.1162791 10:1.7209302 11:1.1395348 12:0.5116279 13:7872288.5 14:3124931.2 15:3082863.0 16:2213488.5 17:880045.3 18:0.10896369 19:0.03142999 20:0.028025446 21:0.022956971 22:0.015255084 23:0.0 24:0.023255814 25:0.093023255 26:0.8372093 27:0.04761905 28:0.071428575 29:0.16666667 30:0.42857143 31:0.048780486 32:0.0 33:0.0 34:0.2195122 35:0.9375 36:0.70731705 37:0.2682927 38:2212675.2 39:0.0 40:0.0 41:0.0 42:0.0 43:0.0 44:0.0 45:0.0 46:0.0 47:0.0 48:0.0 49:0.0 50:0.0 51:9.0 52:9.0 53:0.0 54:0.0 55:0.0 56:0.0 57:0.20930232 58:0.20930232 59:1.0 
1.4521484375 1.466796875 1.068359375 0.388671875 1:36.0 2:38.0 3:0.94736844 4:1.0555556 5:0.055555556 6:5.3055553 7:1.2666667 8:6.638889 9:3.0277777 10:2.0555556 11:1.1111112 12:0.5833333 13:3524829.2 14:2230941.5 15:1864464.6 16:1013518.7 17:906759.3 18:0.020363195 19:0.011613534 20:0.009316035 21:0.003198862 22:8.275356E-4 23:0.0 24:0.0 25:0.027777778 26:0.9722222 27:0.08571429 28:0.0 29:0.0 30:0.6 31:0.029411765 32:0.0882353 33:0.029411765 34:0.1764706 35:1.0 36:0.6666667 37:0.33333334 38:1013545.75 39:0.0 40:0.0 41:0.0 42:0.0 43:0.0 44:0.0 45:0.0 46:0.0 47:0.0 48:0.0 49:0.0 50:0.0 51:0.0 52:0.0 53:0.0 54:0.027777778 55:0.02631579 56:0.0 57:0.11111111 58:0.10526316 59:1.0555556 
1.4521484375 1.466796875 1.068359375 0.388671875 1:54.0 2:51.0 3:1.0588236 4:0.9444444 5:0.055555556 6:4.5555553 7:1.275 8:6.537037 9:2.5185184 10:1.7777778 11:0.9444444 12:0.5555556 13:6548079.0 14:3164640.0 15:2907466.0 16:1665429.4 17:1053680.9 18:0.008859274 19:0.002822589 20:0.0019086887 21:0.0014762445 22:0.0013007489 23:0.018518519 24:0.0 25:0.018518519 26:0.9444444 27:0.03773585 28:0.03773585 29:0.094339624 30:0.6415094 31:0.03846154 32:0.01923077 33:0.03846154 34:0.30769232 35:0.9767442 36:0.8113208 37:0.40384614 38:1647680.0 39:0.0 40:0.0 41:0.0 42:0.0 43:0.0 44:0.0 45:0.0 46:0.0 47:0.0 48:0.0 49:0.0 50:0.0 51:5.0 52:5.0 53:0.0 54:0.0 55:0.0 56:0.0 57:0.09259259 58:0.09803922 59:0.9444444 
1.4521484375 1.466796875 1.068359375 0.388671875 1:36.0 2:37.0 3:0.972973 4:1.0277778 5:0.027777778 6:4.8333335 7:1.2333333 8:7.5 9:2.7777777 10:2.1111112 11:1.1111112 12:0.3888889 13:3013360.5 14:1988224.0 15:1774499.8 16:947625.75 17:696714.3 18:0.028462179 19:0.007791986 20:0.0057867263 21:0.004167583 22:1.12466205E-5 23:0.027777778 24:0.0 25:0.027777778 26:0.9444444 27:0.08571429 28:0.028571429 29:0.0 30:0.6 31:0.029411765 32:0.05882353 33:0.029411765 34:0.029411765 35:1.0 36:0.71428573 37:0.14705883 38:894307.2 39:0.0 40:0.0 41:0.0 42:0.0 43:0.0 44:0.0 45:0.0 46:0.0 47:0.0 48:0.0 49:0.0 50:0.0 51:0.0 52:0.0 53:0.0 54:0.0 55:0.0 56:0.0 57:0.027777778 58:0.027027028 59:1.0277778 
1.4521484375 1.466796875 1.068359375 0.388671875 1:39.0 2:36.0 3:1.0833334 4:0.9230769 5:0.07692308 6:5.1025643 7:1.3333334 8:5.8717947 9:2.3846154 10:1.6923077 11:0.974359 12:0.61538464 13:7518914.5 14:3922576.0 15:3644153.0 16:2342773.5 17:1509548.1 18:0.024290707 19:0.014209717 20:0.0060472907 21:0.002749304 22:0.0010990077 23:0.0 24:0.0 25:0.051282052 26:0.8974359 27:0.0 28:0.0 29:0.02631579 30:0.7105263 31:0.0 32:0.0 33:0.027027028 34:0.43243244 35:0.96428573 36:0.7368421 37:0.45945945 38:2287825.5 39:0.0 40:0.0 41:0.0 42:0.0 43:0.0 44:0.0 45:0.0 46:0.0 47:0.0 48:0.0 49:0.0 50:0.0 51:5.0 52:5.0 53:0.0 54:0.0 55:0.0 56:0.0 57:0.15384616 58:0.16666667 59:0.9230769 
1.4521484375 1.466796875 1.068359375 0.388671875 1:53.0 2:51.0 3:1.0392157 4:0.9622642 5:0.03773585 6:5.5283017 7:1.7 8:6.264151 9:2.1698112 10:1.5660378 11:0.9622642 12:0.6226415 13:5969777.0 14:2139878.8 15:2137676.0 16:1407654.5 17:582499.2 18:0.015207739 19:0.0034988401 20:0.0022627215 21:0.0015626894 22:4.067665E-4 23:0.0 24:0.0 25:0.018867925 26:0.9622642 27:0.01923077 28:0.01923077 29:0.17307693 30:0.61538464 31:0.078431375 32:0.039215688 33:0.05882353 34:0.09803922 35:0.9677419 36:0.79545456 37:0.25531915 38:1407649.2 39:0.0 40:0.0 41:0.0 42:0.0 43:0.0 44:0.0 45:0.0 46:0.0 47:0.0 48:0.0 49:0.0 50:0.0 51:7.0 52:7.0 53:0.0 54:0.0 55:0.0 56:0.0 57:0.13207547 58:0.13725491 59:0.9622641 
1.4521484375 1.466796875 1.068359375 0.388671875 1:43.0 2:45.0 3:0.95555556 4:1.0465117 5:0.046511628 6:4.6976743 7:1.3636364 8:4.627907 9:2.0697675 10:1.4186046 11:0.9767442 12:0.627907 13:4554465.5 14:2935677.5 15:2723500.5 16:1556223.6 17:1167977.4 18:0.08872 19:0.08187156 20:0.029224118 21:0.029201342 22:0.029106226 23:0.069767445 24:0.046511628 25:0.0 26:0.81395346 27:0.023809524 28:0.023809524 29:0.0 30:0.64285713 31:0.0 32:0.048780486 33:0.07317073 34:0.29268292 35:0.9166667 36:0.6904762 37:0.41463414 38:1497431.5 39:0.0 40:0.0 41:0.0 42:0.0 43:0.0 44:0.0 45:0.0 46:0.0 47:0.0 48:0.0 49:0.0 50:0.0 51:2.0 52:2.0 53:0.0 54:0.0 55:0.0 56:0.0 57:0.093023255 58:0.08888889 59:1.0465117 
1.4521484375 1.466796875 1.068359375 0.388671875 1:58.0 2:51.0 3:1.137255 4:0.87931037 5:0.12068965 6:4.137931 7:1.59375 8:4.12069 9:2.0 10:1.3793104 11:1.0172414 12:0.6551724 13:9588217.0 14:4408055.5 15:4116856.2 16:2833004.5 17:1496970.1 18:0.038055588 19:0.022991298 20:0.019973092 21:0.016109899 22:0.014755297 23:0.03448276 24:0.01724138 25:0.06896552 26:0.86206895 27:0.03508772 28:0.03508772 29:0.07017544 30:0.61403507 31:0.035714287 32:0.071428575 33:0.05357143 34:0.23214285 35:0.9722222 36:0.7307692 37:0.39285713 38:2834709.8 39:0.0 40:0.0 41:0.0 42:0.0 43:0.0 44:0.0 45:0.0 46:0.0 47:0.0 48:0.0 49:0.0 50:0.0 51:12.0 52:12.0 53:0.0 54:0.0 55:0.0 56:0.0 57:0.2413793 58:0.27450982 59:0.8793103 
1.4521484375 1.466796875 1.068359375 0.388671875 1:50.0 2:46.0 3:1.0869565 4:0.92 5:0.08 6:5.44 7:1.5333333 8:5.28 9:2.34 10:1.9 11:1.16 12:0.72 13:6506326.5 14:4105688.8 15:4073857.0 16:2060981.6 17:1754005.6 18:0.0357632 19:0.02702649 20:0.02346175 21:0.022319522 22:0.011160057 23:0.0 24:0.06 25:0.08 26:0.82 27:0.08163265 28:0.06122449 29:0.020408163 30:0.5714286 31:0.041666668 32:0.020833334 33:0.020833334 34:0.27083334 35:0.93939394 36:0.73333335 37:0.35416666 38:2023557.8 39:0.0 40:0.0 41:0.0 42:0.0 43:0.0 44:0.0 45:0.0 46:0.0 47:0.0 48:0.0 49:0.0 50:0.0 51:2.0 52:2.0 53:0.0 54:0.0 55:0.0 56:0.0 57:0.06 58:0.06521739 59:0.92 
1.4521484375 1.466796875 1.068359375 0.388671875 1:52.0 2:54.0 3:0.962963 4:1.0384616 5:0.03846154 6:5.5384617 7:1.5882353 8:5.326923 9:2.3269231 10:1.7115384 11:1.0576923 12:0.65384614 13:4506110.0 14:3145909.2 15:2997854.8 16:1592186.2 17:1375418.9 18:0.016812341 19:0.0108225355 20:0.008678041 21:0.0073659816 22:0.0063473783 23:0.0 24:0.01923077 25:0.03846154 26:0.86538464 27:0.11764706 28:0.0 29:0.039215688 30:0.5686275 31:0.02 32:0.04 33:0.02 34:0.36 35:0.8974359 36:0.72 37:0.44 38:1520960.8 39:0.0 40:0.0 41:0.0 42:0.0 43:0.0 44:0.0 45:0.0 46:0.0 47:0.0 48:0.0 49:0.0 50:0.0 51:0.0 52:0.0 53:0.0 54:0.0 55:0.0 56:0.0 57:0.03846154 58:0.037037037 59:1.0384616 
1.4521484375 1.466796875 1.068359375 0.388671875 1:45.0 2:44.0 3:1.0227273 4:0.9777778 5:0.022222223 6:3.6 7:1.4666667 8:5.022222 9:2.0444446 10:1.7555555 11:1.0666667 12:0.6888889 13:5169363.0 14:2326580.2 15:2218927.0 16:1271759.9 17:764646.9 18:0.10160755 19:0.071859986 20:0.06430218 21:0.062475346 22:0.04520657 23:0.022222223 24:0.0 25:0.044444446 26:0.8666667 27:0.0 28:0.0 29:0.0 30:0.65909094 31:0.0 32:0.046511628 33:0.023255814 34:0.30232558 35:0.90625 36:0.6511628 37:0.37209302 38:1255822.0 39:0.0 40:0.0 41:0.0 42:0.0 43:0.0 44:0.0 45:0.0 46:0.0 47:0.0 48:0.0 49:0.0 50:0.0 51:3.0 52:3.0 53:0.0 54:0.08888889 55:0.09090909 56:0.0 57:0.33333334 58:0.3409091 59:0.9777778 
1.4521484375 1.466796875 1.068359375 0.388671875 1:39.0 2:40.0 3:0.975 4:1.0256411 5:0.025641026 6:3.3076923 7:1.3793104 8:5.3333335 9:2.1794872 10:1.6410257 11:1.051282 12:0.71794873 13:3484796.8 14:2392185.8 15:1646230.8 16:1034060.7 17:878779.3 18:0.079190224 19:0.051976833 20:0.0516178 21:0.051532123 22:0.051425084 23:0.0 24:0.0 25:0.0 26:0.9230769 27:0.0 28:0.0 29:0.02631579 30:0.7105263 31:0.054054055 32:0.054054055 33:0.027027028 34:0.2972973 35:0.89285713 36:0.7297297 37:0.43243244 38:1012616.8 39:0.0 40:0.0 41:0.0 42:0.0 43:0.0 44:0.0 45:0.0 46:0.0 47:0.0 48:0.0 49:0.0 50:0.0 51:0.0 52:0.0 53:0.0 54:0.102564104 55:0.1 56:0.0 57:0.33333334 58:0.325 59:1.0256411 
1.4521484375 1.466796875 1.068359375 0.388671875 1:43.0 2:43.0 3:1.0 4:1.0 5:0.0 6:4.162791 7:1.34375 8:5.418605 9:1.9767442 10:1.3488373 11:0.9302326 12:0.6744186 13:2522926.2 14:1468232.9 15:998184.4 16:701127.6 17:571761.06 18:0.016242655 19:0.005039708 20:0.0021182583 21:0.001972772 22:3.981499E-4 23:0.0 24:0.023255814 25:0.069767445 26:0.88372093 27:0.04761905 28:0.0 29:0.0 30:0.5952381 31:0.0 32:0.024390243 33:0.0 34:0.29268292 35:0.96875 36:0.64285713 37:0.31707317 38:678514.0 39:0.0 40:0.0 41:0.0 42:0.0 43:0.0 44:0.0 45:0.0 46:0.0 47:0.0 48:0.0 49:0.0 50:0.0 51:0.0 52:0.0 53:0.0 54:0.093023255 55:0.093023255 56:0.0 57:0.30232558 58:0.30232558 59:1.0 
1.4521484375 1.466796875 1.068359375 0.388671875 1:48.0 2:52.0 3:0.9230769 4:1.0833334 5:0.083333336 6:5.0625 7:1.4054054 8:6.1875 9:2.5416667 10:1.6041666 11:1.0416666 12:0.5 13:3614971.8 14:1479636.5 15:1367455.0 16:1057655.6 17:395069.1 18:0.36775985 19:0.28714004 20:0.052642316 21:0.008035871 22:0.006165495 23:0.041666668 24:0.0 25:0.0625 26:0.875 27:0.08510638 28:0.0 29:0.04255319 30:0.5106383 31:0.02173913 32:0.0 33:0.02173913 34:0.13043478 35:0.972973 36:0.6363636 37:0.17777778 38:973447.3 39:0.0 40:0.0 41:0.0 42:0.0 43:0.0 44:0.0 45:0.0 46:0.0 47:0.0 48:0.0 49:0.0 50:0.0 51:4.0 52:4.0 53:0.0 54:0.0 55:0.03846154 56:0.03846154 57:0.125 58:0.15384616 59:0.81249994 
1.4521484375 1.466796875 1.068359375 0.388671875 1:53.0 2:51.0 3:1.0392157 4:0.9622642 5:0.03773585 6:4.3396225 7:1.4571428 8:4.4716983 9:1.8490566 10:1.3962264 11:0.8867925 12:0.6792453 13:4725728.5 14:2570611.0 15:2466521.5 16:1381091.9 17:1009276.75 18:0.12414888 19:0.07197435 20:0.052671403 21:0.033104133 22:0.033082653 23:0.018867925 24:0.056603774 25:0.03773585 26:0.754717 27:0.03846154 28:0.0 29:0.03846154 30:0.5 31:0.0 32:0.019607844 33:0.019607844 34:0.1764706 35:0.85365856 36:0.5625 37:0.2 38:1368164.4 39:0.0 40:0.0 41:0.0 42:0.0 43:0.0 44:0.0 45:0.0 46:0.0 47:0.0 48:0.0 49:0.0 50:0.0 51:3.0 52:3.0 53:0.0 54:0.03773585 55:0.039215688 56:0.0 57:0.26415095 58:0.25490198 59:1.0362844 
1.4521484375 1.466796875 1.068359375 0.388671875 1:54.0 2:54.0 3:1.0 4:1.0 5:0.0 6:5.111111 7:1.35 8:5.5740743 9:2.4814816 10:1.6851852 11:1.1481482 12:0.6851852 13:5292213.5 14:3078559.0 15:2691812.2 16:1613735.0 17:1178784.5 18:0.02080263 19:0.015254712 20:0.014190779 21:0.012388722 22:0.0065805535 23:0.018518519 24:0.0 25:0.037037037 26:0.9444444 27:0.03773585 28:0.018867925 29:0.03773585 30:0.6792453 31:0.01923077 32:0.07692308 33:0.057692308 34:0.26923078 35:1.0 36:0.7735849 37:0.42307693 38:1565098.9 39:0.0 40:0.0 41:0.0 42:0.0 43:0.0 44:0.0 45:0.0 46:0.0 47:0.0 48:0.0 49:0.0 50:0.0 51:3.0 52:3.0 53:0.0 54:0.0 55:0.0 56:0.0 57:0.074074075 58:0.074074075 59:1.0 
1.4521484375 1.466796875 1.068359375 0.388671875 1:41.0 2:43.0 3:0.95348835 4:1.0487804 5:0.048780486 6:4.780488 7:1.2285714 8:6.8292685 9:2.4390244 10:1.8536586 11:0.9512195 12:0.5609756 13:4984048.5 14:2223026.2 15:1966298.0 16:1127734.2 17:680368.2 18:0.025767855 19:0.013143446 20:0.010804262 21:0.009032304 22:0.0044031534 23:0.0 24:0.024390243 25:0.048780486 26:0.902439 27:0.0 28:0.05 29:0.05 30:0.7 31:0.025641026 32:0.051282052 33:0.025641026 34:0.30769232 35:0.969697 36:0.8 37:0.41025642 38:1127929.5 39:0.0 40:0.0 41:0.0 42:0.0 43:0.0 44:0.0 45:0.0 46:0.0 47:0.0 48:0.0 49:0.0 50:0.0 51:3.0 52:3.0 53:0.0 54:0.048780486 55:0.046511628 56:0.0 57:0.2195122 58:0.20930232 59:1.0487806 
1.4521484375 1.466796875 1.068359375 0.388671875 1:34.0 2:35.0 3:0.9714286 4:1.0294118 5:0.029411765 6:5.4411764 7:1.1290323 8:5.147059 9:2.264706 10:1.7058823 11:1.0294118 12:0.61764705 13:5047588.0 14:2721883.0 15:2400053.8 16:1464096.8 17:1090616.5 18:0.015989445 19:0.013073397 20:0.01245399 21:0.007051408 22:3.816951E-4 23:0.029411765 24:0.0 25:0.05882353 26:0.88235295 27:0.060606062 28:0.0 29:0.060606062 30:0.54545456 31:0.0 32:0.03125 33:0.0625 34:0.15625 35:0.9677419 36:0.6666667 37:0.25 38:1429304.2 39:0.0 40:0.0 41:2.0 42:2.0 43:0.0 44:0.0 45:0.0 46:0.0 47:0.0 48:0.0 49:0.0 50:0.0 51:2.0 52:4.0 53:0.057142857 54:0.0 55:0.0 56:0.0 57:0.0882353 58:0.14285715 59:0.61764705 
1.4521484375 1.466796875 1.068359375 0.388671875 1:44.0 2:41.0 3:1.0731708 4:0.9318182 5:0.06818182 6:3.8636363 7:1.4137931 8:6.568182 9:2.9318182 10:2.0 11:1.0909091 12:0.5681818 13:6643362.0 14:3491211.2 15:2879663.0 16:1822126.0 17:1046038.4 18:0.10057428 19:0.043083142 20:0.0392945 21:0.024402829 22:0.0118480055 23:0.0 24:0.0 25:0.022727273 26:0.95454544 27:0.023255814 28:0.023255814 29:0.046511628 30:0.74418604 31:0.04761905 32:0.023809524 33:0.071428575 34:0.30952382 35:0.969697 36:0.8292683 37:0.45238096 38:1800710.1 39:0.0 40:0.0 41:1.0 42:1.0 43:0.0 44:0.0 45:0.0 46:0.0 47:0.0 48:0.0 49:0.0 50:0.0 51:5.0 52:4.0 53:0.024390243 54:0.022727273 55:0.024390243 56:0.0 57:0.13636364 58:0.12195122 59:1.1181818 
1.4521484375 1.466796875 1.068359375 0.388671875 1:44.0 2:42.0 3:1.0476191 4:0.95454544 5:0.045454547 6:4.6363635 7:1.3125 8:6.8863635 9:2.2954545 10:1.6363636 11:1.1590909 12:0.6136364 13:5728991.5 14:3417233.5 15:2537186.5 16:1513206.8 17:1374384.0 18:0.009698813 19:0.0047185733 20:0.004386881 21:0.004232427 22:0.0018479995 23:0.0 24:0.0 25:0.022727273 26:0.9318182 27:0.023255814 28:0.0 29:0.046511628 30:0.60465115 31:0.0 32:0.023809524 33:0.0 34:0.2857143 35:0.9375 36:0.6666667 37:0.30952382 38:1486739.9 39:0.0 40:0.0 41:0.0 42:0.0 43:0.0 44:0.0 45:0.0 46:0.0 47:0.0 48:0.0 49:0.0 50:0.0 51:0.0 52:0.0 53:0.0 54:0.0 55:0.0 56:0.0 57:0.022727273 58:0.023809524 59:0.95454544 
1.4521484375 1.466796875 1.068359375 0.388671875 1:51.0 2:50.0 3:1.02 4:0.98039216 5:0.019607844 6:5.5686274 7:1.2820513 8:5.2156863 9:2.5490196 10:1.6862745 11:1.2352941 12:0.78431374 13:3355123.8 14:1967167.9 15:1650317.4 16:1082504.6 17:845791.06 18:0.021681143 19:0.018258445 20:0.017229838 21:0.015575632 22:0.005945068 23:0.0 24:0.039215688 25:0.019607844 26:0.9411765 27:0.1 28:0.02 29:0.08 30:0.54 31:0.0 32:0.020408163 33:0.040816326 34:0.10204082 35:1.0 36:0.74 37:0.1632653 38:1048825.1 39:0.0 40:0.0 41:0.0 42:0.0 43:0.0 44:0.0 45:0.0 46:0.0 47:0.0 48:0.0 49:0.0 50:0.0 51:2.0 52:2.0 53:0.0 54:0.0 55:0.0 56:0.0 57:0.05882353 58:0.06 59:0.98039216 
1.4521484375 1.466796875 1.068359375 0.388671875 1:47.0 2:48.0 3:0.9791667 4:1.0212766 5:0.021276595 6:6.06383 7:1.2631578 8:5.9148936 9:2.3404255 10:1.4893616 11:1.0851064 12:0.61702126 13:5324965.5 14:2993685.8 15:2567568.8 16:1634954.5 17:1229631.1 18:0.025973769 19:0.009863222 20:0.0046978127 21:0.004489425 22:0.002472349 23:0.0 24:0.0 25:0.06382979 26:0.9148936 27:0.04347826 28:0.04347826 29:0.02173913 30:0.6304348 31:0.022222223 32:0.022222223 33:0.06666667 34:0.26666668 35:0.972973 36:0.73913044 37:0.37777779 38:1615041.4 39:0.0 40:0.0 41:0.0 42:0.0 43:0.0 44:0.0 45:0.0 46:0.0 47:0.0 48:0.0 49:0.0 50:0.0 51:3.0 52:3.0 53:0.0 54:0.0 55:0.0 56:0.0 57:0.06382979 58:0.0625 59:1.0212766 
1.4521484375 1.466796875 1.068359375 0.388671875 1:52.0 2:51.0 3:1.0196079 4:0.9807692 5:0.01923077 6:4.7884617 7:1.6451613 8:4.519231 9:2.0769231 10:1.75 11:1.0769231 12:0.61538464 13:8622844.0 14:4871091.0 15:4467726.0 16:2682556.0 17:1887424.1 18:0.006762058 19:0.0038053046 20:0.003677672 21:0.0032494252 22:0.0015766682 23:0.0 24:0.0 25:0.03846154 26:0.90384614 27:0.039215688 28:0.019607844 29:0.0 30:0.7647059 31:0.02 32:0.02 33:0.02 34:0.56 35:0.9117647 36:0.79545456 37:0.5869565 38:2643667.8 39:0.0 40:0.0 41:0.0 42:0.0 43:0.0 44:0.0 45:0.0 46:0.0 47:0.0 48:0.0 49:0.0 50:0.0 51:6.0 52:6.0 53:0.0 54:0.0 55:0.0 56:0.0 57:0.115384616 58:0.11764706 59:0.9807692 
1.4522005485146168 1.466796875 1.068359375 0.388671875 1:46.0 2:47.0 3:0.9787234 4:1.0217391 5:0.02173913 6:3.326087 7:1.382353 8:5.847826 9:2.0434783 10:1.4347826 11:1.0 12:0.73913044 13:3565761.5 14:1914516.4 15:1689583.1 16:1107046.2 17:801454.44 18:0.019024204 19:0.005856857 20:0.004048983 21:0.0024881144 22:9.851808E-4 23:0.02173913 24:0.0 25:0.02173913 26:0.95652175 27:0.044444446 28:0.022222223 29:0.06666667 30:0.64444447 31:0.045454547 32:0.0 33:0.0 34:0.22727273 35:1.0 36:0.7777778 37:0.27272728 38:1067046.1 39:0.0 40:0.0 41:0.0 42:0.0 43:0.0 44:0.0 45:0.0 46:0.0 47:0.0 48:0.0 49:0.0 50:0.0 51:2.0 52:2.0 53:0.0 54:0.10869565 55:0.10638298 56:0.0 57:0.41304347 58:0.40425533 59:1.0217391 
1.4524749942000146 1.466796875 1.068359375 0.388671875 1:54.0 2:50.0 3:1.08 4:0.9259259 5:0.074074075 6:5.314815 7:1.1904762 8:5.6296296 9:2.6296296 10:1.962963 11:1.2222222 12:0.7222222 13:5001551.0 14:2750555.8 15:2510953.0 16:1400159.1 17:1008171.9 18:0.020009391 19:0.015399735 20:0.014560504 21:0.014062363 22:0.007196113 23:0.018518519 24:0.0 25:0.0 26:0.9814815 27:0.0754717 28:0.0 29:0.03773585 30:0.6981132 31:0.057692308 32:0.03846154 33:0.0 34:0.21153846 35:1.0 36:0.8113208 37:0.30769232 38:1365990.2 39:0.0 40:0.0 41:0.0 42:0.0 43:0.0 44:0.0 45:0.0 46:0.0 47:0.0 48:0.0 49:0.0 50:0.0 51:3.0 52:3.0 53:0.0 54:0.0 55:0.0 56:0.0 57:0.074074075 58:0.08 59:0.92592597 
1.4524928624962625 1.466796875 1.068359375 0.388671875 1:43.0 2:43.0 3:1.0 4:1.0 5:0.0 6:4.5116277 7:1.2285714 8:6.2093024 9:2.1162791 10:1.6279069 11:1.1395348 12:0.6976744 13:2808935.5 14:1596035.4 15:1481440.9 16:953107.75 17:666277.4 18:0.021073291 19:0.014433298 20:0.012108167 21:0.009872246 22:0.0044479305 23:0.0 24:0.023255814 25:0.069767445 26:0.90697676 27:0.023809524 28:0.0 29:0.071428575 30:0.6904762 31:0.0 32:0.024390243 33:0.048780486 34:0.24390244 35:1.0 36:0.80487806 37:0.31707317 38:929356.06 39:0.0 40:0.0 41:0.0 42:0.0 43:0.0 44:0.0 45:0.0 46:0.0 47:0.0 48:0.0 49:0.0 50:0.0 51:2.0 52:2.0 53:0.0 54:0.069767445 55:0.069767445 56:0.0 57:0.20930232 58:0.20930232 59:1.0 
1.45258333698578 1.466796875 1.068359375 0.388671875 1:42.0 2:42.0 3:1.0 4:1.0 5:0.0 6:4.547619 7:1.3548387 8:6.785714 9:2.4047618 10:1.5952381 11:0.97619045 12:0.54761904 13:5126418.5 14:2354938.2 15:2246497.2 16:1555894.2 17:816369.1 18:0.012980024 19:0.00811509 20:0.0061766333 21:0.0050882124 22:0.0024050358 23:0.0 24:0.023809524 25:0.0 26:0.97619045 27:0.0 28:0.0 29:0.07317073 30:0.73170733 31:0.0 32:0.0 33:0.025 34:0.4 35:1.0 36:0.7894737 37:0.42105263 38:1558663.6 39:0.0 40:0.0 41:0.0 42:0.0 43:0.0 44:0.0 45:0.0 46:0.0 47:0.0 48:0.0 49:0.0 50:0.0 51:5.0 52:5.0 53:0.0 54:0.04761905 55:0.04761905 56:0.0 57:0.2857143 58:0.2857143 59:1.0 
1.4526129594663528 1.466796875 1.068359375 0.388671875 1:46.0 2:45.0 3:1.0222223 4:0.9782609 5:0.02173913 6:5.021739 7:1.2162162 8:6.4347825 9:2.6304348 10:1.826087 11:1.0434783 12:0.6086956 13:5144736.0 14:2838574.0 15:2272667.0 16:1185187.1 17:824113.56 18:0.018851765 19:0.015597942 20:0.013644488 21:0.011956225 22:0.011843008 23:0.06521739 24:0.0 25:0.02173913 26:0.8913044 27:0.06666667 28:0.044444446 29:0.022222223 30:0.64444447 31:0.022727273 32:0.022727273 33:0.022727273 34:0.3181818 35:0.975 36:0.7777778 37:0.38636363 38:1138708.5 39:0.0 40:0.0 41:0.0 42:0.0 43:0.0 44:0.0 45:0.0 46:0.0 47:0.0 48:0.0 49:0.0 50:0.0 51:2.0 52:2.0 53:0.0 54:0.0 55:0.0 56:0.0 57:0.10869565 58:0.11111111 59:0.9782608 
1.4526195514732763 1.466796875 1.068359375 0.388671875 1:35.0 2:35.0 3:1.0 4:1.0 5:0.0 6:3.3714285 7:1.4583334 8:4.257143 9:1.7714286 10:1.4 11:1.0 12:0.82857144 13:3138759.2 14:1658161.1 15:1564507.2 16:1038654.6 17:745051.2 18:0.044030726 19:0.029596278 20:0.026177056 21:0.01832195 22:0.014698437 23:0.0 24:0.0 25:0.028571429 26:0.94285715 27:0.0 28:0.11764706 29:0.05882353 30:0.5588235 31:0.0 32:0.030303031 33:0.030303031 34:0.27272728 35:0.962963 36:0.7352941 37:0.33333334 38:1038653.0 39:0.0 40:0.0 41:0.0 42:0.0 43:0.0 44:0.0 45:0.0 46:0.0 47:0.0 48:0.0 49:0.0 50:0.0 51:2.0 52:2.0 53:0.0 54:0.114285715 55:0.114285715 56:0.0 57:0.4 58:0.4 59:1.0 
1.452647222758056 1.466796875 1.068359375 0.388671875 1:48.0 2:49.0 3:0.97959185 4:1.0208334 5:0.020833334 6:3.8958333 7:1.75 8:5.6875 9:2.1666667 10:1.6875 11:0.9791667 12:0.7083333 13:3973019.2 14:2645802.5 15:2513155.2 16:1356519.1 17:1237342.9 18:0.0062777507 19:0.001995195 20:0.0013949195 21:5.261006E-4 22:3.35651E-4 23:0.0 24:0.0 25:0.0 26:1.0 27:0.021276595 28:0.021276595 29:0.04255319 30:0.80851066 31:0.02173913 32:0.02173913 33:0.02173913 34:0.41304347 35:1.0 36:0.89361703 37:0.47826087 38:1334881.0 39:0.0 40:0.0 41:0.0 42:0.0 43:0.0 44:0.0 45:0.0 46:0.0 47:0.0 48:0.0 49:0.0 50:0.0 51:0.0 52:0.0 53:0.0 54:0.104166664 55:0.10204082 56:0.0 57:0.33333334 58:0.3265306 59:1.0208334 
1.4528249526676558 1.466796875 1.068359375 0.388671875 1:41.0 2:39.0 3:1.051282 4:0.9512195 5:0.048780486 6:5.487805 7:1.3448275 8:6.292683 9:2.487805 10:1.5609756 11:1.0487804 12:0.6585366 13:7333213.0 14:3943611.2 15:3710990.0 16:2295598.5 17:1623424.2 18:0.023779394 19:0.011006058 20:0.0035502093 21:0.0028539356 22:0.0018617572 23:0.0 24:0.0 25:0.024390243 26:0.9268293 27:0.0 28:0.025 29:0.075 30:0.75 31:0.0 32:0.025641026 33:0.051282052 34:0.25641027 35:0.9259259 36:0.8378378 37:0.34210527 38:2200525.0 39:0.0 40:0.0 41:0.0 42:0.0 43:0.0 44:0.0 45:0.0 46:0.0 47:0.0 48:0.0 49:0.0 50:0.0 51:4.0 52:4.0 53:0.0 54:0.0 55:0.0 56:0.0 57:0.09756097 58:0.102564104 59:0.95121944 
1.4528449603837275 1.466796875 1.068359375 0.388671875 1:43.0 2:43.0 3:1.0 4:1.0 5:0.0 6:4.860465 7:1.3030303 8:5.6976743 9:2.3023255 10:1.6511627 11:0.9302326 12:0.55813956 13:4570323.5 14:2325170.2 15:2225383.2 16:1353879.5 17:926736.8 18:0.044976443 19:0.03705622 20:0.02894569 21:0.025232784 22:0.023499273 23:0.0 24:0.046511628 25:0.023255814 26:0.8604651 27:0.0 28:0.0 29:0.04761905 30:0.5952381 31:0.024390243 32:0.0 33:0.024390243 34:0.24390244 35:0.9166667 36:0.64285713 37:0.29268292 38:1338037.2 39:0.0 40:0.0 41:0.0 42:0.0 43:0.0 44:0.0 45:0.0 46:0.0 47:0.0 48:0.0 49:0.0 50:0.0 51:3.0 52:3.0 53:0.0 54:0.0 55:0.0 56:0.0 57:0.11627907 58:0.11627907 59:1.0 
1.4528833782892296 1.466796875 1.068359375 0.388671875 1:36.0 2:37.0 3:0.972973 4:1.0277778 5:0.027777778 6:5.138889 7:1.2333333 8:7.0 9:2.7777777 10:1.9444444 11:1.1388888 12:0.6388889 13:3626173.0 14:2311809.8 15:1748413.8 16:992761.3 17:782633.7 18:0.016490309 19:0.0039432445 20:0.0022799065 21:0.0012624743 22:2.3752259E-4 23:0.0 24:0.0 25:0.0 26:0.9722222 27:0.028571429 28:0.0 29:0.028571429 30:0.6857143 31:0.0 32:0.05882353 33:0.029411765 34:0.29411766 35:0.96875 36:0.74285716 37:0.38235295 38:947074.25 39:0.0 40:0.0 41:0.0 42:0.0 43:0.0 44:0.0 45:0.0 46:0.0 47:0.0 48:0.0 49:0.0 50:0.0 51:0.0 52:0.0 53:0.0 54:0.0 55:0.0 56:0.0 57:0.027777778 58:0.027027028 59:1.0277778 
1.4528833785310344 1.466796875 1.068359375 0.388671875 1:44.0 2:40.0 3:1.1 4:0.90909094 5:0.09090909 6:6.0 7:1.4285715 8:7.3863635 9:2.909091 10:1.9772727 11:1.0227273 12:0.54545456 13:5997910.5 14:3691379.2 15:3582792.8 16:1673646.9 17:1553724.5 18:0.031140428 19:0.0071652527 20:0.0033079952 21:6.657232E-4 22:1.2141157E-4 23:0.022727273 24:0.0 25:0.045454547 26:0.9318182 27:0.023255814 28:0.023255814 29:0.046511628 30:0.7209302 31:0.04761905 32:0.04761905 33:0.04761905 34:0.2857143 35:1.0 36:0.8 37:0.42857143 38:1673044.4 39:0.0 40:0.0 41:0.0 42:0.0 43:0.0 44:0.0 45:0.0 46:0.0 47:0.0 48:0.0 49:0.0 50:0.0 51:0.0 52:0.0 53:0.0 54:0.0 55:0.0 56:0.0 57:0.022727273 58:0.025 59:0.90909094 
1.4528833785310344 1.466796875 1.068359375 0.388671875 1:51.0 2:49.0 3:1.0408163 4:0.9607843 5:0.039215688 6:4.8627453 7:1.3611112 8:6.0392156 9:2.372549 10:1.7843137 11:1.0980393 12:0.64705884 13:5512395.5 14:3093624.8 15:3029930.8 16:1629708.8 17:1325489.1 18:0.011762386 19:0.004165214 20:0.0024806065 21:0.002335101 22:0.001649369 23:0.0 24:0.0 25:0.019607844 26:0.98039216 27:0.02 28:0.02 29:0.04 30:0.76 31:0.020408163 32:0.040816326 33:0.0 34:0.40816328 35:1.0 36:0.84 37:0.46938777 38:1600572.9 39:0.0 40:0.0 41:0.0 42:0.0 43:0.0 44:0.0 45:0.0 46:0.0 47:0.0 48:0.0 49:0.0 50:0.0 51:2.0 52:2.0 53:0.0 54:0.019607844 55:0.020408163 56:0.0 57:0.11764706 58:0.12244898 59:0.9607843 
1.4528995897999266 1.466796875 1.068359375 0.388671875 1:41.0 2:41.0 3:1.0 4:1.0 5:0.0 6:4.512195 7:1.2058823 8:7.243902 9:2.4634147 10:1.6341463 11:1.1707317 12:0.6097561 13:5431813.0 14:2741148.8 15:2181329.2 16:1393565.1 17:803561.3 18:0.007903733 19:0.0026177282 20:0.0015392805 21:0.0012940071 22:9.6301455E-4 23:0.0 24:0.0 25:0.024390243 26:0.9756098 27:0.1 28:0.0 29:0.075 30:0.7 31:0.025641026 32:0.051282052 33:0.0 34:0.30769232 35:1.0 36:0.875 37:0.3846154 38:1313984.8 39:0.0 40:0.0 41:0.0 42:0.0 43:0.0 44:0.0 45:0.0 46:0.0 47:0.0 48:0.0 49:0.0 50:0.0 51:3.0 52:3.0 53:0.0 54:0.0 55:0.0 56:0.0 57:0.07317073 58:0.07317073 59:1.0 
1.4528995897999266 1.466796875 1.068359375 0.388671875 1:47.0 2:49.0 3:0.9591837 4:1.0425532 5:0.04255319 6:4.808511 7:1.2564102 8:7.12766 9:2.7659574 10:2.0212767 11:1.0212766 12:0.61702126 13:5981919.5 14:3262627.8 15:2814492.0 16:1419252.2 17:1089477.6 18:0.014788374 19:0.011167365 20:0.006382935 21:0.0050201365 22:6.660477E-4 23:0.0 24:0.0 25:0.04255319 26:0.9574468 27:0.0 28:0.04347826 29:0.0 30:0.8043478 31:0.022222223 32:0.044444446 33:0.044444446 34:0.37777779 35:1.0 36:0.84782606 37:0.4888889 38:1385787.6 39:0.0 40:0.0 41:0.0 42:0.0 43:0.0 44:0.0 45:0.0 46:0.0 47:0.0 48:0.0 49:0.0 50:0.0 51:2.0 52:2.0 53:0.0 54:0.0 55:0.0 56:0.0 57:0.04255319 58:0.040816326 59:1.0425532 
1.4528995897999266 1.466796875 1.068359375 0.388671875 1:41.0 2:35.0 3:1.1714286 4:0.85365856 5:0.14634146 6:4.5365853 7:1.060606 8:8.195122 9:2.707317 10:1.902439 11:1.0243902 12:0.5121951 13:5582074.0 14:3284103.0 15:3023175.2 16:1630424.8 17:1311409.5 18:0.1271884 19:0.08825944 20:0.04526626 21:0.015596214 22:0.006479271 23:0.024390243 24:0.024390243 25:0.024390243 26:0.9268293 27:0.025 28:0.025 29:0.025 30:0.65 31:0.0 32:0.07692308 33:0.025641026 34:0.23076923 35:1.0 36:0.71794873 37:0.33333334 38:1613365.6 39:0.0 40:0.0 41:0.0 42:0.0 43:0.0 44:0.0 45:0.0 46:0.0 47:0.0 48:0.0 49:0.0 50:0.0 51:2.0 52:2.0 53:0.0 54:0.0 55:0.0 56:0.0 57:0.048780486 58:0.08571429 59:0.5691056 
1.4529202344099956 1.466796875 1.068359375 0.388671875 1:47.0 2:41.0 3:1.1463414 4:0.87234044 5:0.12765957 6:4.7234044 7:1.3225807 8:4.5531917 9:1.8297873 10:1.2553191 11:0.7446808 12:0.61702126 13:4294637.5 14:2306833.8 15:2035882.5 16:1204025.9 17:970543.94 18:0.011023045 19:0.004959558 20:0.0025090948 21:0.0015655892 22:0.001555214 23:0.0 24:0.0 25:0.021276595 26:0.7659575 27:0.0 28:0.0 29:0.0 30:0.47826087 31:0.044444446 32:0.0 33:0.022222223 34:0.08888889 35:0.7837838 36:0.4878049 37:0.17073171 38:1199166.2 39:0.0 40:0.0 41:0.0 42:0.0 43:0.0 44:0.0 45:0.0 46:0.0 47:0.0 48:0.0 49:0.0 50:0.0 51:2.0 52:2.0 53:0.0 54:0.08510638 55:0.09756097 56:0.0 57:0.29787233 58:0.34146342 59:0.8723404 
1.452931543106725 1.466796875 1.068359375 0.388671875 1:51.0 2:49.0 3:1.0408163 4:0.9607843 5:0.039215688 6:3.862745 7:1.3611112 8:5.4117646 9:2.1764705 10:1.5294118 11:0.98039216 12:0.7254902 13:4754451.0 14:2335156.8 15:1968966.6 16:1182111.4 17:846635.75 18:0.011639532 19:0.009124347 20:0.00483711 21:0.0024049329 22:0.0021292844 23:0.0 24:0.0 25:0.039215688 26:0.9411765 27:0.02 28:0.02 29:0.04 30:0.74 31:0.020408163 32:0.040816326 33:0.020408163 34:0.36734694 35:0.9736842 36:0.81632656 37:0.4489796 38:1181907.0 39:0.0 40:0.0 41:0.0 42:0.0 43:0.0 44:0.0 45:0.0 46:0.0 47:0.0 48:0.0 49:0.0 50:0.0 51:3.0 52:3.0 53:0.0 54:0.09803922 55:0.10204082 56:0.0 57:0.3529412 58:0.36734694 59:0.9607843 
1.4529462501208918 1.466796875 1.068359375 0.388671875 1:43.0 2:41.0 3:1.0487804 4:0.95348835 5:0.046511628 6:4.4418607 7:1.3666667 8:6.5348835 9:2.627907 10:1.7906977 11:1.0465117 12:0.53488374 13:6534964.0 14:3333923.0 15:3068032.8 16:1995744.8 17:1263672.8 18:0.013456798 19:0.006937893 20:0.0056155873 21:0.0028398053 22:5.222637E-4 23:0.0 24:0.0 25:0.023255814 26:0.95348835 27:0.023809524 28:0.071428575 29:0.023809524 30:0.6904762 31:0.024390243 32:0.0 33:0.024390243 34:0.34146342 35:0.96875 36:0.8292683 37:0.3902439 38:1971823.9 39:0.0 40:0.0 41:0.0 42:0.0 43:0.0 44:0.0 45:0.0 46:0.0 47:0.0 48:0.0 49:0.0 50:0.0 51:5.0 52:5.0 53:0.0 54:0.0 55:0.0 56:0.0 57:0.11627907 58:0.12195122 59:0.95348835 
1.4529561294831241 1.466796875 1.068359375 0.388671875 1:41.0 2:40.0 3:1.025 4:0.9756098 5:0.024390243 6:4.9268293 7:1.3793104 8:5.0731707 9:2.3658535 10:1.7560976 11:1.097561 12:0.6585366 13:5040648.0 14:2566553.0 15:2485198.0 16:1517922.5 17:1058079.6 18:0.020282485 19:0.013778469 20:0.00873337 21:0.0073367944 22:0.00464623 23:0.024390243 24:0.0 25:0.048780486 26:0.9268293 27:0.025 28:0.025 29:0.025 30:0.675 31:0.07692308 32:0.0 33:0.025641026 34:0.17948718 35:1.0 36:0.74358976 37:0.2820513 38:1495280.2 39:0.0 40:0.0 41:0.0 42:0.0 43:0.0 44:0.0 45:0.0 46:0.0 47:0.0 48:0.0 49:0.0 50:0.0 51:3.0 52:3.0 53:0.0 54:0.0 55:0.0 56:0.0 57:0.07317073 58:0.075 59:0.97560966 
1.4529755155728776 1.466796875 1.068359375 0.388671875 1:43.0 2:41.0 3:1.0487804 4:0.95348835 5:0.046511628 6:5.4418607 7:1.28125 8:4.5116277 9:2.1162791 10:1.4651163 11:0.95348835 12:0.60465115 13:6972464.5 14:3342951.8 15:2909830.0 16:1923287.5 17:1174128.1 18:0.1573434 19:0.100164436 20:0.05321699 21:0.05075466 22:0.046947777 23:0.0 24:0.0 25:0.046511628 26:0.7906977 27:0.023809524 28:0.023809524 29:0.04761905 30:0.54761904 31:0.0 32:0.0 33:0.048780486 34:0.2195122 35:0.7941176 36:0.64285713 37:0.2682927 38:1901630.5 39:0.0 40:0.0 41:0.0 42:0.0 43:0.0 44:0.0 45:0.0 46:0.0 47:0.0 48:0.0 49:0.0 50:0.0 51:5.0 52:5.0 53:0.0 54:0.0 55:0.0 56:0.0 57:0.13953489 58:0.14634146 59:0.95348847 
1.4530113666618352 1.466796875 1.068359375 0.388671875 1:50.0 2:49.0 3:1.0204082 4:0.98 5:0.02 6:4.52 7:1.3611112 8:6.1 9:2.4 10:1.66 11:1.06 12:0.6 13:7335565.5 14:3895395.8 15:3090738.0 16:1925561.1 17:1432988.5 18:0.09818847 19:0.0710288 20:0.050716348 21:0.040496066 22:0.010335226 23:0.0 24:0.0 25:0.0 26:0.92 27:0.040816326 28:0.0 29:0.06122449 30:0.71428573 31:0.0625 32:0.0625 33:0.020833334 34:0.35416666 35:0.8974359 36:0.8125 37:0.5 38:1910725.9 39:0.0 40:0.0 41:0.0 42:0.0 43:0.0 44:0.0 45:0.0 46:0.0 47:0.0 48:0.0 49:0.0 50:0.0 51:4.0 52:4.0 53:0.0 54:0.0 55:0.0 56:0.0 57:0.08 58:0.10204082 59:0.784 
1.4530257899963117 1.466796875 1.068359375 0.388671875 1:41.0 2:43.0 3:0.95348835 4:1.0487804 5:0.048780486 6:5.3170733 7:1.5357143 8:6.0487804 9:2.3658535 10:1.8292683 11:1.0487804 12:0.5121951 13:6738631.0 14:3488303.5 15:3156431.0 16:1871245.9 17:1232921.0 18:0.03834369 19:0.028347803 20:0.02685506 21:0.025684372 22:7.329191E-4 23:0.0 24:0.048780486 25:0.0 26:0.902439 27:0.025 28:0.0 29:0.05 30:0.65 31:0.025641026 32:0.0 33:0.102564104 34:0.17948718 35:0.9655172 36:0.75 37:0.3243243 38:1845400.8 39:0.0 40:0.0 41:1.0 42:1.0 43:0.0 44:0.0 45:2.0 46:2.0 47:0.0 48:0.0 49:0.0 50:0.0 51:4.0 52:5.0 53:0.023255814 54:0.0 55:0.0 56:0.0 57:0.17073171 58:0.20930232 59:0.8157182 
1.45303386766318 1.466796875 1.068359375 0.388671875 1:57.0 2:57.0 3:1.0 4:1.0 5:0.0 6:4.105263 7:1.4615384 8:5.7192984 9:2.2105262 10:1.7719299 11:1.0526316 12:0.61403507 13:5852666.0 14:3252899.8 15:3238747.0 16:1801789.4 17:1334024.9 18:0.01426877 19:0.008331304 20:0.007775485 21:0.0069475523 22:0.0063585946 23:0.01754386 24:0.0 25:0.01754386 26:0.9298246 27:0.05357143 28:0.0 29:0.10714286 30:0.66071427 31:0.0 32:0.036363635 33:0.036363635 34:0.25454545 35:0.95 36:0.8148148 37:0.3272727 38:1729933.0 39:0.0 40:0.0 41:1.0 42:1.0 43:0.0 44:0.0 45:0.0 46:0.0 47:0.0 48:0.0 49:0.0 50:0.0 51:3.0 52:4.0 53:0.01754386 54:0.03508772 55:0.03508772 56:0.0 57:0.1754386 58:0.19298245 59:0.90909094 
1.45303386766318 1.466796875 1.068359375 0.388671875 1:52.0 2:49.0 3:1.0612245 4:0.9423077 5:0.057692308 6:4.980769 7:1.4 8:5.75 9:2.4038463 10:1.7692307 11:1.0 12:0.5769231 13:5421403.0 14:3119673.2 15:2871274.5 16:1478827.8 17:1251745.0 18:0.011218246 19:0.0058990484 20:0.004006677 21:0.0025554546 22:0.0011487236 23:0.0 24:0.0 25:0.057692308 26:0.86538464 27:0.039215688 28:0.0 29:0.078431375 30:0.49019608 31:0.06 32:0.02 33:0.04 34:0.2 35:0.9512195 36:0.62 37:0.32 38:1477314.0 39:0.0 40:0.0 41:0.0 42:0.0 43:0.0 44:0.0 45:0.0 46:0.0 47:0.0 48:0.0 49:0.0 50:0.0 51:2.0 52:2.0 53:0.0 54:0.0 55:0.0 56:0.0 57:0.057692308 58:0.06122449 59:0.9423077 
1.45303386766318 1.466796875 1.068359375 0.388671875 1:47.0 2:44.0 3:1.0681819 4:0.9361702 5:0.06382979 6:3.4255319 7:1.5172414 8:6.2765956 9:2.2765958 10:1.7659575 11:0.9787234 12:0.7446808 13:4276194.0 14:2821589.2 15:2771138.2 16:1417943.1 17:1284938.8 18:0.025055757 19:0.012467539 20:0.009703407 21:0.0060024033 22:0.0024985068 23:0.0 24:0.0 25:0.08510638 26:0.9148936 27:0.08695652 28:0.0 29:0.04347826 30:0.6304348 31:0.022222223 32:0.0 33:0.0 34:0.37777779 35:1.0 36:0.74358976 37:0.41463414 38:1395171.6 39:0.0 40:0.0 41:0.0 42:0.0 43:0.0 44:0.0 45:0.0 46:0.0 47:0.0 48:0.0 49:0.0 50:0.0 51:0.0 52:0.0 53:0.0 54:0.08510638 55:0.09090909 56:0.0 57:0.27659574 58:0.29545453 59:0.9361702 
1.4530408790373492 1.466796875 1.068359375 0.388671875 1:52.0 2:48.0 3:1.0833334 4:0.9230769 5:0.07692308 6:5.2115383 7:1.4117647 8:5.9038463 9:2.3653846 10:1.8653846 11:1.0961539 12:0.5769231 13:5739182.0 14:3259352.5 15:3189772.5 16:1893913.9 17:1366318.1 18:0.005952934 19:0.0018314925 20:0.0012321139 21:5.6338444E-4 22:1.5707385E-4 23:0.0 24:0.0 25:0.0 26:1.0 27:0.019607844 28:0.019607844 29:0.05882353 30:0.74509805 31:0.0 32:0.04 33:0.04 34:0.4 35:1.0 36:0.85106385 37:0.46938777 38:1858005.2 39:0.0 40:0.0 41:0.0 42:0.0 43:0.0 44:0.0 45:0.0 46:0.0 47:0.0 48:0.0 49:0.0 50:0.0 51:4.0 52:4.0 53:0.0 54:0.0 55:0.0 56:0.0 57:0.115384616 58:0.125 59:0.9230769 
1.4530454600680969 1.466796875 1.068359375 0.388671875 1:43.0 2:42.0 3:1.0238096 4:0.9767442 5:0.023255814 6:5.2325583 7:1.2727273 8:7.023256 9:2.4418604 10:1.7906977 11:1.0697675 12:0.4883721 13:5672770.0 14:2806905.0 15:2803496.8 16:1555073.6 17:1158163.5 18:0.011039828 19:0.005209256 20:0.0035277214 21:0.0027261947 22:7.556942E-4 23:0.0 24:0.0 25:0.023255814 26:0.95348835 27:0.071428575 28:0.0 29:0.04761905 30:0.6666667 31:0.024390243 32:0.0 33:0.048780486 34:0.17073171 35:0.9714286 36:0.78571427 37:0.24390244 38:1554931.8 39:0.0 40:0.0 41:0.0 42:0.0 43:0.0 44:0.0 45:0.0 46:0.0 47:0.0 48:0.0 49:0.0 50:0.0 51:3.0 52:3.0 53:0.0 54:0.0 55:0.0 56:0.0 57:0.069767445 58:0.0952381 59:0.7325582 
1.4530454600680969 1.466796875 1.068359375 0.388671875 1:46.0 2:46.0 3:1.0 4:1.0 5:0.0 6:3.8913043 7:1.5862069 8:5.0652175 9:2.0869565 10:1.4565217 11:1.0217391 12:0.84782606 13:2018297.8 14:1405344.5 15:1369388.0 16:828669.56 17:741893.6 18:0.012888461 19:0.0034599644 20:0.0012349535 21:0.001017613 22:8.3329505E-4 23:0.0 24:0.0 25:0.0 26:1.0 27:0.022222223 28:0.0 29:0.0 30:0.73333335 31:0.0 32:0.022727273 33:0.0 34:0.29545453 35:1.0 36:0.775 37:0.3181818 38:828766.06 39:0.0 40:0.0 41:0.0 42:0.0 43:0.0 44:0.0 45:0.0 46:0.0 47:0.0 48:0.0 49:0.0 50:0.0 51:0.0 52:0.0 53:0.0 54:0.13043478 55:0.13043478 56:0.0 57:0.41304347 58:0.41304347 59:1.0 
1.4530454600680969 1.466796875 1.068359375 0.388671875 1:41.0 2:39.0 3:1.051282 4:0.9512195 5:0.048780486 6:4.780488 7:1.3 8:5.6585364 9:2.487805 10:1.6097561 11:0.9512195 12:0.5121951 13:4356497.0 14:2309120.8 15:1972771.9 16:1103690.1 17:769972.4 18:0.03742032 19:0.026373973 20:0.02276351 21:0.015772127 22:0.009661511 23:0.024390243 24:0.024390243 25:0.0 26:0.8780488 27:0.05 28:0.0 29:0.025 30:0.6 31:0.025641026 32:0.0 33:0.07692308 34:0.17948718 35:0.9117647 36:0.6486486 37:0.2631579 38:1080644.6 39:0.0 40:0.0 41:0.0 42:0.0 43:0.0 44:0.0 45:0.0 46:0.0 47:0.0 48:0.0 49:0.0 50:0.0 51:7.0 52:7.0 53:0.0 54:0.12195122 55:0.12820514 56:0.0 57:0.29268292 58:0.30769232 59:0.95121944 
1.4530455426776507 1.466796875 1.068359375 0.388671875 1:42.0 2:43.0 3:0.9767442 4:1.0238096 5:0.023809524 6:4.857143 7:1.2647059 8:6.285714 9:2.5 10:1.5952381 11:1.0238096 12:0.64285713 13:4219019.0 14:2560614.8 15:1996867.0 16:1192113.9 17:1042104.7 18:0.014902441 19:0.009220419 20:0.008416254 21:0.0049640276 22:0.0012790201 23:0.023809524 24:0.0 25:0.071428575 26:0.9047619 27:0.07317073 28:0.024390243 29:0.0 30:0.6585366 31:0.025 32:0.0 33:0.05 34:0.225 35:1.0 36:0.75 37:0.3 38:1172861.1 39:0.0 40:0.0 41:0.0 42:0.0 43:0.0 44:0.0 45:0.0 46:0.0 47:0.0 48:0.0 49:0.0 50:0.0 51:0.0 52:0.0 53:0.0 54:0.0 55:0.0 56:0.0 57:0.023809524 58:0.023255814 59:1.0238096 
1.4530818322691592 1.466796875 1.068359375 0.388671875 1:59.0 2:55.0 3:1.0727273 4:0.9322034 5:0.06779661 6:4.1525426 7:1.617647 8:4.7118645 9:2.2881355 10:1.661017 11:0.9491525 12:0.66101694 13:5709541.0 14:3051302.8 15:2999424.2 16:1727869.5 17:1113182.9 18:0.023199877 19:0.02028671 20:0.019006746 21:0.017020408 22:0.014840009 23:0.033898305 24:0.084745765 25:0.016949153 26:0.86440676 27:0.06896552 28:0.0 29:0.03448276 30:0.62068963 31:0.03508772 32:0.03508772 33:0.05263158 34:0.36842105 35:1.0 36:0.71428573 37:0.49122807 38:1672983.0 39:0.0 40:0.0 41:0.0 42:0.0 43:0.0 44:0.0 45:0.0 46:0.0 47:0.0 48:0.0 49:0.0 50:0.0 51:5.0 52:5.0 53:0.0 54:0.0 55:0.0 56:0.0 57:0.15254237 58:0.18181819 59:0.838983 
1.4530904304618524 1.466796875 1.068359375 0.388671875 1:51.0 2:51.0 3:1.0 4:1.0 5:0.0 6:4.1960783 7:1.5 8:5.392157 9:2.235294 10:1.627451 11:0.98039216 12:0.78431374 13:4770284.0 14:2886880.0 15:2524313.5 16:1387039.9 17:1266959.2 18:0.011823421 19:0.0052809813 20:0.0047069285 21:0.0023753424 22:1.8267406E-4 23:0.0 24:0.0 25:0.019607844 26:0.9607843 27:0.02 28:0.04 29:0.04 30:0.76 31:0.06122449 32:0.040816326 33:0.040816326 34:0.2857143 35:0.9722222 36:0.86 37:0.42857143 38:1356168.4 39:0.0 40:0.0 41:0.0 42:0.0 43:0.0 44:0.0 45:0.0 46:0.0 47:0.0 48:0.0 49:0.0 50:0.0 51:0.0 52:0.0 53:0.0 54:0.05882353 55:0.05882353 56:0.0 57:0.19607843 58:0.21568628 59:0.90909094 
1.4530904306579884 1.466796875 1.068359375 0.388671875 1:46.0 2:43.0 3:1.0697675 4:0.9347826 5:0.06521739 6:4.5652175 7:1.4333333 8:4.326087 9:1.8043479 10:1.3913044 11:1.0652174 12:0.76086956 13:5213698.5 14:2834934.5 15:2510783.0 16:1570262.4 17:1158599.9 18:0.033318322 19:0.024551934 20:0.018142942 21:0.013807079 22:0.011290067 23:0.0 24:0.0 25:0.04347826 26:0.9130435 27:0.044444446 28:0.0 29:0.06666667 30:0.6888889 31:0.0 32:0.09090909 33:0.06818182 34:0.3409091 35:0.9411765 36:0.81395346 37:0.5 38:1549611.6 39:0.0 40:0.0 41:0.0 42:0.0 43:0.0 44:0.0 45:0.0 46:0.0 47:0.0 48:0.0 49:0.0 50:0.0 51:3.0 52:3.0 53:0.0 54:0.0 55:0.0 56:0.0 57:0.1521739 58:0.1627907 59:0.93478256 
1.4530904306579884 1.466796875 1.068359375 0.388671875 1:43.0 2:40.0 3:1.075 4:0.9302326 5:0.069767445 6:4.627907 7:1.3793104 8:6.418605 9:2.4186046 10:1.7674419 11:1.0 12:0.6744186 13:4828559.5 14:2567037.5 15:2221983.8 16:1197886.4 17:1073286.9 18:0.02645443 19:0.016927103 20:0.014636686 21:0.014297476 22:0.010545904 23:0.023255814 24:0.0 25:0.069767445 26:0.88372093 27:0.0 28:0.023809524 29:0.0 30:0.71428573 31:0.0 32:0.024390243 33:0.024390243 34:0.3902439 35:0.9705882 36:0.73170733 37:0.4390244 38:1179254.4 39:0.0 40:0.0 41:0.0 42:0.0 43:0.0 44:0.0 45:0.0 46:0.0 47:0.0 48:0.0 49:0.0 50:0.0 51:0.0 52:0.0 53:0.0 54:0.0 55:0.0 56:0.0 57:0.023255814 58:0.025 59:0.9302325 
1.453110368882832 1.466796875 1.068359375 0.388671875 1:45.0 2:45.0 3:1.0 4:1.0 5:0.0 6:5.2444444 7:1.2162162 8:6.111111 9:2.3111112 10:1.6666666 11:1.1111112 12:0.64444447 13:5377616.5 14:3024659.2 15:2880375.8 16:1680256.5 17:1261111.9 18:0.008111068 19:0.0028266278 20:0.0017036909 21:0.0010222119 22:6.528105E-4 23:0.0 24:0.0 25:0.022222223 26:0.9777778 27:0.0 28:0.0 29:0.045454547 30:0.75 31:0.0 32:0.069767445 33:0.0 34:0.27906978 35:1.0 36:0.79545456 37:0.3488372 38:1659256.0 39:0.0 40:0.0 41:0.0 42:0.0 43:0.0 44:0.0 45:0.0 46:0.0 47:0.0 48:0.0 49:0.0 50:0.0 51:3.0 52:3.0 53:0.0 54:0.0 55:0.0 56:0.0 57:0.08888889 58:0.08888889 59:1.0 
1.4531109742492883 1.466796875 1.068359375 0.388671875 1:42.0 2:36.0 3:1.1666666 4:0.85714287 5:0.14285715 6:4.7619047 7:1.0909091 8:6.4761906 9:2.6190476 10:1.8571428 11:1.0238096 12:0.5714286 13:5665972.0 14:3389355.5 15:3315197.2 16:1659055.4 17:1333286.8 18:0.040697187 19:0.02797661 20:0.013352139 21:0.0076122745 22:0.0044008144 23:0.023809524 24:0.023809524 25:0.023809524 26:0.9047619 27:0.0 28:0.024390243 29:0.12195122 30:0.5609756 31:0.0 32:0.05 33:0.05 34:0.225 35:0.9722222 36:0.70731705 37:0.325 38:1637232.8 39:0.0 40:0.0 41:0.0 42:0.0 43:0.0 44:0.0 45:0.0 46:0.0 47:0.0 48:0.0 49:0.0 50:0.0 51:2.0 52:2.0 53:0.0 54:0.0 55:0.0 56:0.0 57:0.04761905 58:0.055555556 59:0.85714287 
1.4531130733915965 1.466796875 1.068359375 0.3896484375 1:42.0 2:45.0 3:0.93333334 4:1.0714285 5:0.071428575 6:5.047619 7:1.40625 8:4.8095236 9:1.7380953 10:1.3571428 11:0.97619045 12:0.5 13:6813668.0 14:2508321.2 15:2495786.8 16:1845337.4 17:640047.8 18:0.037100337 19:0.014418493 20:0.0046214308 21:0.0036806883 22:0.0026926794 23:0.0 24:0.023809524 25:0.04761905 26:0.78571427 27:0.048780486 28:0.024390243 29:0.024390243 30:0.46341464 31:0.0 32:0.05 33:0.025 34:0.15 35:0.8125 36:0.55 37:0.225 38:1842733.9 39:0.0 40:0.0 41:1.0 42:1.0 43:0.0 44:0.0 45:0.0 46:0.0 47:0.0 48:0.0 49:0.0 50:0.0 51:8.0 52:9.0 53:0.022222223 54:0.0 55:0.0 56:0.0 57:0.1904762 58:0.22222222 59:0.85714287 
1.4531137357530515 1.466796875 1.068359375 0.3896484375 1:49.0 2:47.0 3:1.0425532 4:0.9591837 5:0.040816326 6:4.8163266 7:1.8076923 8:5.244898 9:1.8775511 10:1.4081633 11:1.0816326 12:0.6530612 13:6193678.5 14:3395759.0 15:3127547.0 16:2042316.6 17:1353298.6 18:0.009739959 19:0.0029495307 20:0.0017691612 21:0.0015218408 22:0.0012560678 23:0.0 24:0.0 25:0.020408163 26:0.93877554 27:0.041666668 28:0.041666668 29:0.020833334 30:0.7291667 31:0.0 32:0.021276595 33:0.04255319 34:0.29787233 35:0.9285714 36:0.8333333 37:0.3409091 38:2007422.4 39:0.0 40:0.0 41:0.0 42:0.0 43:0.0 44:0.0 45:0.0 46:0.0 47:0.0 48:0.0 49:0.0 50:0.0 51:5.0 52:5.0 53:0.0 54:0.0 55:0.0 56:0.0 57:0.14285715 58:0.14893617 59:0.95918375 
1.4531183745304848 1.466796875 1.068359375 0.3896484375 1:53.0 2:51.0 3:1.0392157 4:0.9622642 5:0.03773585 6:5.226415 7:1.5454545 8:4.792453 9:2.037736 10:1.6792452 11:1.018868 12:0.6037736 13:7285893.5 14:3177218.8 15:3133091.5 16:2028398.2 17:1016978.56 18:0.03887519 19:0.025659766 20:0.020945735 21:0.012135617 22:0.00941364 23:0.018867925 24:0.0754717 25:0.018867925 26:0.8113208 27:0.03846154 28:0.03846154 29:0.01923077 30:0.5576923 31:0.019607844 32:0.039215688 33:0.0 34:0.27450982 35:0.8888889 36:0.625 37:0.33333334 38:2010662.8 39:0.0 40:0.0 41:0.0 42:0.0 43:0.0 44:0.0 45:0.0 46:0.0 47:0.0 48:0.0 49:0.0 50:0.0 51:8.0 52:8.0 53:0.0 54:0.0 55:0.0 56:0.0 57:0.1509434 58:0.15686275 59:0.9622641 
1.4531186159084484 1.466796875 1.068359375 0.3896484375 1:45.0 2:43.0 3:1.0465117 4:0.95555556 5:0.044444446 6:5.0 7:1.2285714 8:7.8 9:2.4222221 10:1.6888889 11:1.0444444 12:0.53333336 13:4434176.0 14:2479959.5 15:1966344.1 16:1224937.4 17:957999.1 18:0.0136221815 19:0.0065557575 20:0.0047066193 21:0.0025670102 22:1.9054537E-4 23:0.0 24:0.0 25:0.022222223 26:0.95555556 27:0.0 28:0.022727273 29:0.09090909 30:0.6136364 31:0.0 32:0.023255814 33:0.023255814 34:0.23255815 35:0.9722222 36:0.72727275 37:0.27906978 38:1210054.9 39:0.0 40:0.0 41:0.0 42:0.0 43:0.0 44:0.0 45:0.0 46:0.0 47:0.0 48:0.0 49:0.0 50:0.0 51:2.0 52:2.0 53:0.0 54:0.044444446 55:0.046511628 56:0.0 57:0.17777778 58:0.18604651 59:0.95555556 
1.4531189705149015 1.466796875 1.068359375 0.3896484375 1:46.0 2:40.0 3:1.15 4:0.8695652 5:0.13043478 6:4.9565215 7:1.25 8:7.195652 9:2.4565217 10:1.7173913 11:1.1086956 12:0.5652174 13:7693215.5 14:3775775.8 15:3536187.5 16:2081181.4 17:1405649.6 18:0.0112439785 19:0.0017059615 20:9.157136E-4 21:7.2618533E-4 22:1.4527579E-4 23:0.0 24:0.0 25:0.0 26:1.0 27:0.022222223 28:0.022222223 29:0.022222223 30:0.8888889 31:0.045454547 32:0.022727273 33:0.022727273 34:0.52272725 35:1.0 36:0.95555556 37:0.6136364 38:2075599.6 39:0.0 40:0.0 41:0.0 42:0.0 43:0.0 44:0.0 45:0.0 46:0.0 47:0.0 48:0.0 49:0.0 50:0.0 51:5.0 52:5.0 53:0.0 54:0.0 55:0.0 56:0.0 57:0.10869565 58:0.125 59:0.8695652 
1.4531196988600543 1.466796875 1.068359375 0.3896484375 1:52.0 2:48.0 3:1.0833334 4:0.9230769 5:0.07692308 6:4.9423075 7:1.3333334 8:6.8653846 9:2.5192308 10:2.0769231 11:1.0576923 12:0.5192308 13:6957728.0 14:3656526.8 15:3368732.2 16:1794332.6 17:1234696.1 18:0.01910113 19:0.011407811 20:0.011080217 21:0.0053682625 22:3.453322E-4 23:0.0 24:0.0 25:0.03846154 26:0.96153843 27:0.0 28:0.0 29:0.078431375 30:0.7647059 31:0.0 32:0.02 33:0.08 34:0.42 35:1.0 36:0.84 37:0.52 38:1767634.1 39:0.0 40:0.0 41:1.0 42:1.0 43:0.0 44:0.0 45:0.0 46:0.0 47:0.0 48:0.0 49:0.0 50:0.0 51:4.0 52:5.0 53:0.020833334 54:0.0 55:0.0 56:0.0 57:0.07692308 58:0.104166664 59:0.73846155 
1.4531196988600543 1.466796875 1.068359375 0.3896484375 1:42.0 2:42.0 3:1.0 4:1.0 5:0.0 6:4.785714 7:1.4482758 8:6.071429 9:2.047619 10:1.5476191 11:1.0952381 12:0.6904762 13:6102250.5 14:3075563.5 15:3000581.2 16:1775882.5 17:1297211.0 18:0.02607065 19:0.00936722 20:0.007834885 21:0.005291388 22:0.0011366552 23:0.0 24:0.023809524 25:0.04761905 26:0.9285714 27:0.024390243 28:0.024390243 29:0.0 30:0.68292683 31:0.025 32:0.05 33:0.075 34:0.2 35:1.0 36:0.725 37:0.35 38:1775711.8 39:0.0 40:0.0 41:0.0 42:0.0 43:0.0 44:0.0 45:0.0 46:0.0 47:0.0 48:0.0 49:0.0 50:0.0 51:4.0 52:4.0 53:0.0 54:0.04761905 55:0.04761905 56:0.0 57:0.21428572 58:0.21428572 59:1.0 
1.4531196988600543 1.466796875 1.068359375 0.3896484375 1:54.0 2:54.0 3:1.0 4:1.0 5:0.0 6:4.962963 7:1.4210526 8:6.148148 9:2.5555556 10:1.8333334 11:1.074074 12:0.6481481 13:5462905.5 14:3010824.0 15:2894984.0 16:1690954.9 17:1174750.6 18:0.012769939 19:0.0048834295 20:0.0034892233 21:0.0012598409 22:4.3861422E-4 23:0.0 24:0.0 25:0.018518519 26:0.962963 27:0.03773585 28:0.018867925 29:0.11320755 30:0.6792453 31:0.057692308 32:0.07692308 33:0.0 34:0.32692307 35:0.97619045 36:0.84615386 37:0.46153846 38:1632842.9 39:0.0 40:0.0 41:0.0 42:0.0 43:0.0 44:0.0 45:0.0 46:0.0 47:0.0 48:0.0 49:0.0 50:0.0 51:4.0 52:4.0 53:0.0 54:0.018518519 55:0.018518519 56:0.0 57:0.09259259 58:0.09259259 59:1.0 
1.4531214512466755 1.466796875 1.068359375 0.3896484375 1:50.0 2:46.0 3:1.0869565 4:0.92 5:0.08 6:5.34 7:1.2777778 8:6.62 9:2.82 10:1.98 11:1.14 12:0.62 13:4868431.5 14:2942208.0 15:2837049.2 16:1519581.0 17:1209854.4 18:0.017185174 19:0.004776065 20:0.002581639 21:0.0022673623 22:8.341212E-4 23:0.0 24:0.0 25:0.02 26:0.98 27:0.06122449 28:0.040816326 29:0.020408163 30:0.75510204 31:0.041666668 32:0.041666668 33:0.041666668 34:0.29166666 35:1.0 36:0.87234044 37:0.40425533 38:1464944.6 39:0.0 40:0.0 41:2.0 42:2.0 43:0.0 44:0.0 45:0.0 46:0.0 47:0.0 48:0.0 49:0.0 50:0.0 51:2.0 52:0.0 53:0.04347826 54:0.0 55:0.0 56:0.0 57:0.06 58:0.04347826 59:1.38 
1.4531214534041146 1.466796875 1.068359375 0.3896484375 1:50.0 2:47.0 3:1.0638298 4:0.94 5:0.06 6:5.46 7:1.175 8:6.08 9:2.38 10:1.72 11:1.06 12:0.6 13:6748601.0 14:3493510.8 15:3260117.0 16:1812748.5 17:1246382.1 18:0.00660307 19:0.0028699497 20:0.0026335355 21:0.002154607 22:0.0011827847 23:0.0 24:0.0 25:0.02 26:0.94 27:0.06122449 28:0.0 29:0.020408163 30:0.7755102 31:0.020833334 32:0.0 33:0.041666668 34:0.41666666 35:0.95238096 36:0.85714287 37:0.47916666 38:1780170.8 39:0.0 40:0.0 41:0.0 42:0.0 43:0.0 44:0.0 45:0.0 46:0.0 47:0.0 48:0.0 49:0.0 50:0.0 51:4.0 52:4.0 53:0.0 54:0.0 55:0.0 56:0.0 57:0.1 58:0.14893617 59:0.6714286 
1.453122157600887 1.466796875 1.068359375 0.3896484375 1:46.0 2:43.0 3:1.0697675 4:0.9347826 5:0.06521739 6:4.2391305 7:1.2647059 8:6.9130435 9:2.9782608 10:2.0434783 11:1.0217391 12:0.65217394 13:4931974.5 14:2883660.8 15:2464863.2 16:1174089.0 17:827922.7 18:0.01791222 19:0.008587631 20:0.0045042085 21:0.0034654536 22:0.0015992651 23:0.0 24:0.0 25:0.04347826 26:0.95652175 27:0.022222223 28:0.044444446 29:0.022222223 30:0.7111111 31:0.0 32:0.022727273 33:0.0 34:0.29545453 35:1.0 36:0.8 37:0.3181818 38:1170439.0 39:0.0 40:0.0 41:0.0 42:0.0 43:0.0 44:0.0 45:0.0 46:0.0 47:0.0 48:0.0 49:0.0 50:0.0 51:2.0 52:2.0 53:0.0 54:0.0 55:0.0 56:0.0 57:0.04347826 58:0.046511628 59:0.9347826 
1.4531221609349398 1.466796875 1.068359375 0.3896484375 1:47.0 2:48.0 3:0.9791667 4:1.0212766 5:0.021276595 6:4.4042554 7:1.4117647 8:6.4680853 9:2.4893618 10:1.7446809 11:1.0851064 12:0.5744681 13:4002144.8 14:2163069.5 15:1617794.4 16:1081719.5 17:804034.9 18:0.022247586 19:0.011985348 20:0.010673694 21:0.009355798 22:0.0043154345 23:0.0 24:0.0 25:0.06382979 26:0.9361702 27:0.02173913 28:0.08695652 29:0.0 30:0.5217391 31:0.0 32:0.0 33:0.022222223 34:0.17777778 35:1.0 36:0.64444447 37:0.2 38:1053468.9 39:0.0 40:0.0 41:0.0 42:0.0 43:0.0 44:0.0 45:0.0 46:0.0 47:0.0 48:0.0 49:0.0 50:0.0 51:2.0 52:2.0 53:0.0 54:0.0 55:0.0 56:0.0 57:0.08510638 58:0.083333336 59:1.0212765 
1.4531221609349398 1.466796875 1.068359375 0.3896484375 1:45.0 2:44.0 3:1.0227273 4:0.9777778 5:0.022222223 6:4.3555555 7:1.2571429 8:7.2 9:2.1777778 10:1.6 11:1.1333333 12:0.6 13:3032016.0 14:1093303.9 15:1025824.7 16:657515.1 17:397556.56 18:0.016866146 19:0.0029422038 20:0.0010495256 21:9.1737276E-4 22:2.67616E-4 23:0.0 24:0.0 25:0.0 26:0.9777778 27:0.022727273 28:0.0 29:0.06818182 30:0.70454544 31:0.0 32:0.023255814 33:0.046511628 34:0.25581396 35:0.9714286 36:0.775 37:0.29268292 38:660023.9 39:0.0 40:0.0 41:0.0 42:0.0 43:0.0 44:0.0 45:0.0 46:0.0 47:0.0 48:0.0 49:0.0 50:0.0 51:2.0 52:2.0 53:0.0 54:0.06666667 55:0.06818182 56:0.0 57:0.2 58:0.22727273 59:0.88 
1.4531221623105328 1.466796875 1.068359375 0.3896484375 1:46.0 2:44.0 3:1.0454545 4:0.95652175 5:0.04347826 6:5.9130435 7:1.76 8:4.7826085 9:2.326087 10:1.6304348 11:0.9130435 12:0.6086956 13:1177903.2 14:295408.25 15:294826.03 16:292744.97 17:0.0 18:1.7212952 19:0.20326789 20:0.060119547 21:0.005530982 22:0.0 23:0.0 24:0.02173913 25:0.06521739 26:0.36956522 27:0.0 28:0.044444446 29:0.022222223 30:0.044444446 31:0.0 32:0.0 33:0.0 34:0.0 35:0.44 36:0.121212125 37:0.0 38:292581.03 39:0.0 40:0.0 41:0.0 42:0.0 43:0.0 44:0.0 45:0.0 46:0.0 47:0.0 48:0.0 49:0.0 50:0.0 51:3.0 52:3.0 53:0.0 54:0.0 55:0.0 56:0.0 57:0.04347826 58:0.045454547 59:0.95652175 
1.4531221623105328 1.466796875 1.068359375 0.3896484375 1:40.0 2:39.0 3:1.0256411 4:0.975 5:0.025 6:3.7 7:1.3448275 8:5.625 9:2.225 10:1.6 11:1.2 12:0.7 13:4604202.0 14:2794673.2 15:2329745.5 16:1346616.6 17:1183022.2 18:0.015435765 19:0.0045841434 20:0.0025536735 21:0.0019063458 22:2.308952E-4 23:0.0 24:0.0 25:0.0 26:1.0 27:0.025641026 28:0.051282052 29:0.051282052 30:0.71794873 31:0.0 32:0.02631579 33:0.05263158 34:0.2631579 35:1.0 36:0.84210527 37:0.34210527 38:1309692.8 39:0.0 40:0.0 41:0.0 42:0.0 43:0.0 44:0.0 45:0.0 46:0.0 47:0.0 48:0.0 49:0.0 50:0.0 51:0.0 52:0.0 53:0.0 54:0.075 55:0.07692308 56:0.0 57:0.25 58:0.2820513 59:0.88636357 
1.4531221625042994 1.466796875 1.068359375 0.3896484375 1:59.0 2:55.0 3:1.0727273 4:0.9322034 5:0.06779661 6:3.881356 7:1.5277778 8:5.5084743 9:2.5084746 10:1.7457627 11:1.1186441 12:0.69491524 13:4851618.5 14:2456852.2 15:1916428.2 16:1139545.9 17:816213.3 18:0.050795395 19:0.03689247 20:0.03385499 21:0.030092666 22:0.0133974785 23:0.033898305 24:0.016949153 25:0.084745765 26:0.84745765 27:0.01724138 28:0.0 29:0.03448276 30:0.62068963 31:0.0 32:0.0 33:0.01754386 34:0.3859649 35:0.9736842 36:0.6938776 37:0.4117647 38:1129685.5 39:0.0 40:0.0 41:0.0 42:0.0 43:0.0 44:0.0 45:0.0 46:0.0 47:0.0 48:0.0 49:0.0 50:0.0 51:3.0 52:3.0 53:0.0 54:0.10169491 55:0.10909091 56:0.0 57:0.3559322 58:0.4 59:0.8898305 
1.4531221625043012 1.466796875 1.068359375 0.3896484375 1:54.0 2:50.0 3:1.08 4:0.9259259 5:0.074074075 6:3.9444444 7:1.3513514 8:4.7222223 9:2.1296296 10:1.5185186 11:1.0925926 12:0.7222222 13:6329803.5 14:3210769.0 15:3036530.0 16:1895502.2 17:1262416.9 18:0.0035243875 19:0.002474655 20:0.0016264729 21:7.8223017E-4 22:2.025378E-4 23:0.0 24:0.0 25:0.0 26:1.0 27:0.0 28:0.018867925 29:0.03773585 30:0.9056604 31:0.01923077 32:0.01923077 33:0.03846154 34:0.5192308 35:1.0 36:0.96153843 37:0.59615386 38:1860680.6 39:0.0 40:0.0 41:0.0 42:0.0 43:0.0 44:0.0 45:0.0 46:0.0 47:0.0 48:0.0 49:0.0 50:0.0 51:5.0 52:5.0 53:0.0 54:0.11111111 55:0.12 56:0.0 57:0.35185185 58:0.38 59:0.9259259 
1.4531221625043012 1.466796875 1.068359375 0.3896484375 1:36.0 2:36.0 3:1.0 4:1.0 5:0.0 6:3.6944444 7:1.44 8:4.7777777 9:1.9166666 10:1.4166666 11:1.0277778 12:0.75 13:4515030.0 14:3037129.8 15:2443098.8 16:1440327.4 17:1298165.5 18:0.0038540168 19:5.2715134E-4 20:4.239794E-4 21:3.6610058E-4 22:3.2684463E-4 23:0.0 24:0.027777778 25:0.0 26:0.9444444 27:0.0 28:0.0 29:0.0 30:0.71428573 31:0.029411765 32:0.029411765 33:0.029411765 34:0.4117647 35:0.95652175 36:0.71875 37:0.4848485 38:1419313.5 39:0.0 40:0.0 41:0.0 42:0.0 43:0.0 44:0.0 45:0.0 46:0.0 47:0.0 48:0.0 49:0.0 50:0.0 51:0.0 52:0.0 53:0.0 54:0.11111111 55:0.11111111 56:0.0 57:0.3611111 58:0.3888889 59:0.9285714 
1.4531245133996715 1.466796875 1.068359375 0.3896484375 1:43.0 2:43.0 3:1.0 4:1.0 5:0.0 6:4.372093 7:1.3030303 8:5.5581393 9:2.2325583 10:1.6976744 11:0.9767442 12:0.6511628 13:4262137.5 14:2599858.5 15:2332311.5 16:1212670.8 17:1065921.5 18:0.017418738 19:0.004206936 20:0.0036289669 21:0.0026753556 22:8.173667E-4 23:0.023255814 24:0.0 25:0.023255814 26:0.8372093 27:0.0 28:0.0 29:0.023809524 30:0.54761904 31:0.0 32:0.024390243 33:0.048780486 34:0.19512194 35:0.8787879 36:0.5714286 37:0.2682927 38:1197159.9 39:0.0 40:0.0 41:0.0 42:0.0 43:0.0 44:0.0 45:0.0 46:0.0 47:0.0 48:0.0 49:0.0 50:0.0 51:0.0 52:0.0 53:0.0 54:0.069767445 55:0.069767445 56:0.0 57:0.23255815 58:0.25581396 59:0.90909094 
1.4531246097331203 1.466796875 1.068359375 0.3896484375 1:41.0 2:40.0 3:1.025 4:0.9756098 5:0.024390243 6:3.6341465 7:1.3793104 8:5.414634 9:2.0487804 10:1.6341463 11:1.0243902 12:0.7804878 13:2709794.8 14:1572330.9 15:1491379.4 16:861263.8 17:770334.1 18:0.037235014 19:0.01106477 20:0.0108102 21:0.0058689457 22:0.005706097 23:0.0 24:0.024390243 25:0.048780486 26:0.9268293 27:0.05 28:0.025 29:0.075 30:0.675 31:0.0 32:0.025641026 33:0.025641026 34:0.30769232 35:1.0 36:0.825 37:0.35897437 38:861445.44 39:0.0 40:0.0 41:0.0 42:0.0 43:0.0 44:0.0 45:0.0 46:0.0 47:0.0 48:0.0 49:0.0 50:0.0 51:0.0 52:0.0 53:0.0 54:0.09756097 55:0.1 56:0.0 57:0.3902439 58:0.4 59:0.9756097 
1.4531246159859847 1.466796875 1.068359375 0.3896484375 1:38.0 2:37.0 3:1.027027 4:0.9736842 5:0.02631579 6:5.4736843 7:1.3214285 8:6.131579 9:2.5526316 10:1.8157895 11:1.1578947 12:0.65789473 13:5957331.0 14:3809159.5 15:3603141.5 16:2002382.5 17:1681143.1 18:0.017140811 19:0.0064529427 20:0.0051060207 21:0.002899681 22:0.0013833072 23:0.0 24:0.0 25:0.02631579 26:0.9736842 27:0.0 28:0.0 29:0.08108108 30:0.7297297 31:0.0 32:0.0 33:0.055555556 34:0.25 35:1.0 36:0.8108108 37:0.30555555 38:1977021.6 39:0.0 40:0.0 41:0.0 42:0.0 43:0.0 44:0.0 45:0.0 46:0.0 47:0.0 48:0.0 49:0.0 50:0.0 51:2.0 52:2.0 53:0.0 54:0.0 55:0.0 56:0.0 57:0.05263158 58:0.054054055 59:0.9736842 
1.4531246159859847 1.466796875 1.068359375 0.3896484375 1:47.0 2:42.0 3:1.1190476 4:0.89361703 5:0.10638298 6:4.255319 7:1.2727273 8:5.7021275 9:2.1489363 10:1.5106384 11:1.0851064 12:0.61702126 13:4380552.0 14:2361753.5 15:2131580.5 16:1294400.5 17:1011769.2 18:0.014632159 19:0.012061677 20:0.011325412 21:0.011054575 22:0.005590909 23:0.021276595 24:0.0 25:0.0 26:0.9574468 27:0.04347826 28:0.0 29:0.04347826 30:0.6956522 31:0.022222223 32:0.0 33:0.06666667 34:0.26666668 35:0.9722222 36:0.77272725 37:0.36363637 38:1272250.8 39:0.0 40:0.0 41:0.0 42:0.0 43:0.0 44:0.0 45:0.0 46:0.0 47:0.0 48:0.0 49:0.0 50:0.0 51:2.0 52:2.0 53:0.0 54:0.06382979 55:0.071428575 56:0.0 57:0.23404256 58:0.26190478 59:0.893617 
1.4531247722476228 1.466796875 1.068359375 0.3896484375 1:36.0 2:39.0 3:0.9230769 4:1.0833334 5:0.083333336 6:5.4722223 7:1.3928572 8:6.75 9:2.8333333 10:2.2222223 11:1.1666666 12:0.5277778 13:3183378.8 14:1878972.5 15:1857203.1 16:1190114.6 17:793705.0 18:0.01569476 19:0.009671372 20:0.008676119 21:0.003534233 22:0.0014884721 23:0.0 24:0.0 25:0.055555556 26:0.9444444 27:0.057142857 28:0.057142857 29:0.08571429 30:0.51428574 31:0.05882353 32:0.05882353 33:0.029411765 34:0.0882353 35:1.0 36:0.72727275 37:0.23529412 38:1138336.2 39:0.0 40:0.0 41:0.0 42:0.0 43:0.0 44:0.0 45:0.0 46:0.0 47:0.0 48:0.0 49:0.0 50:0.0 51:2.0 52:2.0 53:0.0 54:0.0 55:0.0 56:0.0 57:0.055555556 58:0.051282052 59:1.0833334 
1.453124784900449 1.466796875 1.068359375 0.3896484375 1:37.0 2:32.0 3:1.15625 4:0.8648649 5:0.13513513 6:4.108108 7:1.1851852 8:5.9459457 9:2.0 10:1.6216216 11:1.0 12:0.5675676 13:3418150.5 14:1729384.4 15:1675083.2 16:1064926.9 17:735711.7 18:0.06347994 19:0.009092624 20:0.0076614097 21:0.005713696 22:0.0018321555 23:0.0 24:0.027027028 25:0.08108108 26:0.8918919 27:0.055555556 28:0.0 29:0.055555556 30:0.6111111 31:0.028571429 32:0.028571429 33:0.0 34:0.37142858 35:1.0 36:0.7222222 37:0.42857143 38:1040453.8 39:0.0 40:0.0 41:0.0 42:0.0 43:0.0 44:0.0 45:0.0 46:0.0 47:0.0 48:0.0 49:0.0 50:0.0 51:2.0 52:2.0 53:0.0 54:0.08108108 55:0.09375 56:0.0 57:0.3243243 58:0.375 59:0.8648648 
1.4531248723455126 1.466796875 1.068359375 0.3896484375 1:41.0 2:40.0 3:1.025 4:0.9756098 5:0.024390243 6:4.390244 7:1.4285715 8:5.219512 9:2.1707318 10:1.8536586 11:1.0731708 12:0.63414633 13:5049130.0 14:2509192.5 15:2506443.0 16:1477405.1 17:1061166.5 18:0.02290932 19:0.011676201 20:0.0094105685 21:0.008771466 22:3.7443184E-4 23:0.0 24:0.0 25:0.048780486 26:0.902439 27:0.05 28:0.025 29:0.05 30:0.625 31:0.0 32:0.0 33:0.025641026 34:0.3846154 35:0.9310345 36:0.7567568 37:0.41025642 38:1477481.5 39:0.0 40:0.0 41:0.0 42:0.0 43:0.0 44:0.0 45:0.0 46:0.0 47:0.0 48:0.0 49:0.0 50:0.0 51:3.0 52:3.0 53:0.0 54:0.07317073 55:0.075 56:0.0 57:0.29268292 58:0.3 59:0.97560966 
1.4531248977635771 1.466796875 1.068359375 0.3896484375 1:36.0 2:38.0 3:0.94736844 4:1.0555556 5:0.055555556 6:4.75 7:1.3571428 8:5.2222223 9:2.1666667 10:1.75 11:1.1388888 12:0.5277778 13:6621159.0 14:2491167.5 15:2476419.0 16:1991004.0 17:758069.9 18:0.035797074 19:0.032174725 20:0.031765714 21:0.030376805 22:0.028057333 23:0.0 24:0.0 25:0.027777778 26:0.8888889 27:0.028571429 28:0.0 29:0.0 30:0.6571429 31:0.029411765 32:0.0 33:0.0882353 34:0.23529412 35:0.8888889 36:0.6857143 37:0.3529412 38:1983471.1 39:0.0 40:0.0 41:1.0 42:1.0 43:0.0 44:0.0 45:0.0 46:0.0 47:0.0 48:0.0 49:0.0 50:0.0 51:9.0 52:8.0 53:0.02631579 54:0.0 55:0.0 56:0.0 57:0.22222222 58:0.18421052 59:1.2063493 
1.4531248978761313 1.466796875 1.068359375 0.3896484375 1:50.0 2:51.0 3:0.98039216 4:1.02 5:0.02 6:4.76 7:1.7586207 8:6.7 9:2.44 10:1.82 11:1.02 12:0.6 13:5363529.5 14:3048671.0 15:2962940.5 16:1653602.1 17:1309940.4 18:0.016667755 19:0.008125306 20:0.006258128 21:0.0042280857 22:0.0016580566 23:0.0 24:0.0 25:0.02 26:0.94 27:0.020408163 28:0.0 29:0.10204082 30:0.6530612 31:0.020833334 32:0.020833334 33:0.020833334 34:0.35416666 35:0.93333334 36:0.7380952 37:0.39534885 38:1652659.9 39:0.0 40:0.0 41:0.0 42:0.0 43:0.0 44:0.0 45:0.0 46:0.0 47:0.0 48:0.0 49:0.0 50:0.0 51:3.0 52:3.0 53:0.0 54:0.0 55:0.0 56:0.0 57:0.06 58:0.05882353 59:1.02 
1.4531248978761313 1.466796875 1.068359375 0.3896484375 1:41.0 2:37.0 3:1.1081082 4:0.902439 5:0.09756097 6:5.097561 7:1.15625 8:6.3170733 9:2.487805 10:1.7073171 11:1.195122 12:0.6097561 13:5706780.5 14:3183632.8 15:2573045.8 16:1561329.5 17:1188048.6 18:0.01899704 19:0.0069582863 20:0.0025792383 21:0.0025292458 22:0.0022796355 23:0.0 24:0.0 25:0.048780486 26:0.9512195 27:0.0 28:0.0 29:0.025 30:0.725 31:0.051282052 32:0.025641026 33:0.025641026 34:0.2820513 35:1.0 36:0.74358976 37:0.3846154 38:1498179.4 39:0.0 40:0.0 41:0.0 42:0.0 43:0.0 44:0.0 45:0.0 46:0.0 47:0.0 48:0.0 49:0.0 50:0.0 51:2.0 52:2.0 53:0.0 54:0.0 55:0.0 56:0.0 57:0.048780486 58:0.054054055 59:0.902439 
1.4531249418577996 1.466796875 1.068359375 0.3896484375 1:47.0 2:48.0 3:0.9791667 4:1.0212766 5:0.021276595 6:4.87234 7:1.6 8:6.7021275 9:2.8297873 10:1.9361702 11:1.1489362 12:0.5531915 13:6298236.5 14:4031863.5 15:3383022.0 16:1915807.6 17:1665281.8 18:0.09022016 19:0.06969012 20:0.036529463 21:0.013595447 22:1.0862432E-4 23:0.0 24:0.0 25:0.0 26:0.9787234 27:0.04347826 28:0.0 29:0.06521739 30:0.73913044 31:0.022222223 32:0.06666667 33:0.044444446 34:0.24444444 35:0.969697 36:0.8333333 37:0.3488372 38:1915929.5 39:0.0 40:0.0 41:0.0 42:0.0 43:0.0 44:0.0 45:0.0 46:0.0 47:0.0 48:0.0 49:0.0 50:0.0 51:2.0 52:2.0 53:0.0 54:0.0 55:0.0 56:0.0 57:0.04255319 58:0.041666668 59:1.0212765 
1.4531249450879165 1.466796875 1.068359375 0.3896484375 1:44.0 2:43.0 3:1.0232558 4:0.97727275 5:0.022727273 6:3.1363637 7:1.5925926 8:4.5227275 9:1.8181819 10:1.4318181 11:1.0 12:0.70454544 13:4838737.5 14:1857369.2 15:1815235.1 16:1457712.4 17:568402.94 18:0.026323145 19:0.018763475 20:0.016297601 21:0.009772891 22:0.007689163 23:0.022727273 24:0.0 25:0.022727273 26:0.95454544 27:0.023255814 28:0.023255814 29:0.0 30:0.7209302 31:0.023809524 32:0.023809524 33:0.071428575 34:0.2857143 35:1.0 36:0.7692308 37:0.4 38:1434624.1 39:0.0 40:0.0 41:0.0 42:0.0 43:0.0 44:0.0 45:0.0 46:0.0 47:0.0 48:0.0 49:0.0 50:0.0 51:6.0 52:6.0 53:0.0 54:0.18181819 55:0.18604651 56:0.0 57:0.54545456 58:0.55813956 59:0.9772727 
1.4531249676987876 1.466796875 1.068359375 0.3896484375 1:42.0 2:35.0 3:1.2 4:0.8333333 5:0.16666667 6:5.1904764 7:1.2068965 8:6.5238094 9:2.3095238 10:1.5952381 11:1.0714285 12:0.52380955 13:7651020.0 14:3185616.5 15:3168258.8 16:2087764.8 17:1043364.9 18:0.01442344 19:0.00539678 20:0.0036083758 21:0.0026944093 22:0.0012820719 23:0.0 24:0.0 25:0.023809524 26:0.95238096 27:0.048780486 28:0.0 29:0.17073171 30:0.5365854 31:0.0 32:0.0 33:0.025 34:0.15 35:0.9677419 36:0.74358976 37:0.15384616 38:2087700.0 39:0.0 40:0.0 41:2.0 42:2.0 43:0.0 44:0.0 45:0.0 46:0.0 47:0.0 48:0.0 49:0.0 50:0.0 51:7.0 52:5.0 53:0.057142857 54:0.0 55:0.0 56:0.0 57:0.16666667 58:0.14285715 59:1.1666666 
1.453124974159012 1.466796875 1.068359375 0.3896484375 1:54.0 2:51.0 3:1.0588236 4:0.9444444 5:0.055555556 6:3.4444444 7:1.7586207 8:4.3333335 9:2.074074 10:1.6481482 11:1.1851852 12:0.6481481 13:4205889.0 14:2157059.8 15:1976268.5 16:1334490.4 17:862200.9 18:0.05484795 19:0.016948117 20:0.0112591125 21:0.009192248 22:0.0056827557 23:0.0 24:0.0 25:0.11111111 26:0.8333333 27:0.018867925 28:0.0 29:0.018867925 30:0.6037736 31:0.0 32:0.03846154 33:0.01923077 34:0.28846154 35:0.9310345 36:0.675 37:0.37777779 38:1317323.2 39:0.0 40:0.0 41:2.0 42:2.0 43:0.0 44:0.0 45:0.0 46:0.0 47:0.0 48:0.0 49:0.0 50:0.0 51:4.0 52:2.0 53:0.039215688 54:0.037037037 55:0.039215688 56:0.0 57:0.35185185 58:0.33333334 59:1.0555555 
1.453124974159012 1.466796875 1.068359375 0.3896484375 1:47.0 2:49.0 3:0.9591837 4:1.0425532 5:0.04255319 6:5.106383 7:1.1666666 8:6.7659574 9:2.7234042 10:1.9148936 11:1.0425532 12:0.5319149 13:4453358.5 14:2644073.8 15:2407703.8 16:1235135.0 17:1080692.4 18:0.013737159 19:0.008372508 20:0.006569347 21:0.0016700414 22:1.881369E-4 23:0.0 24:0.021276595 25:0.04255319 26:0.9361702 27:0.04347826 28:0.0 29:0.02173913 30:0.65217394 31:0.0 32:0.0 33:0.0 34:0.2888889 35:1.0 36:0.7173913 37:0.2888889 38:1205911.5 39:0.0 40:0.0 41:0.0 42:0.0 43:0.0 44:0.0 45:0.0 46:0.0 47:0.0 48:0.0 49:0.0 50:0.0 51:0.0 52:0.0 53:0.0 54:0.0 55:0.0 56:0.0 57:0.021276595 58:0.020408163 59:1.0425532 
1.453124974159012 1.466796875 1.068359375 0.3896484375 1:46.0 2:43.0 3:1.0697675 4:0.9347826 5:0.06521739 6:4.9347825 7:1.1315789 8:8.695652 9:2.673913 10:1.9565217 11:0.9347826 12:0.5 13:5951038.0 14:2871258.8 15:2828662.5 16:1463503.9 17:1041539.94 18:0.017198378 19:0.0039909477 20:0.002070317 21:0.0013636232 22:9.4082934E-4 23:0.02173913 24:0.0 25:0.02173913 26:0.95652175 27:0.022222223 28:0.06666667 29:0.08888889 30:0.62222224 31:0.0 32:0.09090909 33:0.045454547 34:0.20454545 35:1.0 36:0.8 37:0.3409091 38:1447117.0 39:0.0 40:0.0 41:0.0 42:0.0 43:0.0 44:0.0 45:0.0 46:0.0 47:0.0 48:0.0 49:0.0 50:0.0 51:3.0 52:3.0 53:0.0 54:0.0 55:0.0 56:0.0 57:0.06521739 58:0.069767445 59:0.93478256 
1.4531249876752768 1.466796875 1.068359375 0.3896484375 1:42.0 2:42.0 3:1.0 4:1.0 5:0.0 6:3.1190476 7:1.5555556 8:7.2380953 9:2.5 10:1.7619047 11:0.95238096 12:0.64285713 13:2928111.5 14:2157329.2 15:2089510.5 16:1131170.1 17:1004565.3 18:0.06988409 19:0.020763954 20:0.016924163 21:0.009728422 22:1.1507253E-4 23:0.0 24:0.023809524 25:0.023809524 26:0.95238096 27:0.0 28:0.048780486 29:0.048780486 30:0.68292683 31:0.0 32:0.05 33:0.025 34:0.3 35:1.0 36:0.75 37:0.34210527 38:1127577.0 39:0.0 40:0.0 41:0.0 42:0.0 43:0.0 44:0.0 45:0.0 46:0.0 47:0.0 48:0.0 49:0.0 50:0.0 51:0.0 52:0.0 53:0.0 54:0.14285715 55:0.14285715 56:0.0 57:0.4047619 58:0.4047619 59:1.0 
1.4531249883599835 1.466796875 1.068359375 0.3896484375 1:41.0 2:41.0 3:1.0 4:1.0 5:0.0 6:4.6585364 7:1.4642857 8:5.756098 9:2.5853658 10:1.9268292 11:1.1463414 12:0.68292683 13:6846551.5 14:3932156.5 15:3476745.2 16:2072597.1 17:1638641.1 18:0.01606124 19:0.00855548 20:0.00743049 21:0.0030167627 22:0.0021189188 23:0.0 24:0.0 25:0.048780486 26:0.9512195 27:0.025 28:0.025 29:0.05 30:0.75 31:0.0 32:0.025641026 33:0.051282052 34:0.35897437 35:1.0 36:0.8648649 37:0.42105263 38:2053383.4 39:0.0 40:0.0 41:0.0 42:0.0 43:0.0 44:0.0 45:0.0 46:0.0 47:0.0 48:0.0 49:0.0 50:0.0 51:3.0 52:3.0 53:0.0 54:0.0 55:0.0 56:0.0 57:0.07317073 58:0.07317073 59:1.0 
1.453124993152843 1.466796875 1.068359375 0.3896484375 1:52.0 2:52.0 3:1.0 4:1.0 5:0.0 6:5.173077 7:1.4054054 8:6.0 9:2.5576923 10:1.7884616 11:1.0769231 12:0.6730769 13:5212971.0 14:3174911.5 15:2700046.5 16:1588329.8 17:1342107.9 18:0.06496374 19:0.03801756 20:0.025178377 21:0.0020120526 22:2.7854746E-4 23:0.0 24:0.01923077 25:0.01923077 26:0.96153843 27:0.0 28:0.0 29:0.09803922 30:0.6666667 31:0.04 32:0.08 33:0.02 34:0.3 35:1.0 36:0.75510204 37:0.44 38:1554264.2 39:0.0 40:0.0 41:0.0 42:0.0 43:0.0 44:0.0 45:0.0 46:0.0 47:0.0 48:0.0 49:0.0 50:0.0 51:3.0 52:3.0 53:0.0 54:0.01923077 55:0.057692308 56:0.03846154 57:0.17307693 58:0.21153846 59:0.8181818 
1.4531249945222646 1.466796875 1.068359375 0.3896484375 1:51.0 2:46.0 3:1.1086956 4:0.9019608 5:0.09803922 6:3.9411764 7:1.3142858 8:5.8235292 9:2.254902 10:1.4901961 11:1.0784314 12:0.60784316 13:4491316.5 14:2683054.0 15:2275304.8 16:1353152.8 17:1103296.9 18:0.029937707 19:0.012604364 20:0.005325841 21:0.003416178 22:1.7513554E-5 23:0.0 24:0.019607844 25:0.039215688 26:0.92156863 27:0.08 28:0.02 29:0.04 30:0.64 31:0.020408163 32:0.020408163 33:0.020408163 34:0.24489796 35:0.9722222 36:0.7755102 37:0.30612245 38:1330452.5 39:0.0 40:0.0 41:0.0 42:0.0 43:0.0 44:0.0 45:0.0 46:0.0 47:0.0 48:0.0 49:0.0 50:0.0 51:2.0 52:2.0 53:0.0 54:0.09803922 55:0.10869565 56:0.0 57:0.3137255 58:0.3478261 59:0.9019608 
1.4531249945222735 1.466796875 1.068359375 0.3896484375 1:49.0 2:46.0 3:1.0652174 4:0.93877554 5:0.06122449 6:5.4897957 7:1.2777778 8:6.755102 9:2.7551022 10:1.9591837 11:1.1428572 12:0.5714286 13:4435310.5 14:2300136.8 15:2236985.2 16:1269704.0 17:894834.1 18:0.03419747 19:0.021016225 20:0.017707683 21:0.008864255 22:0.0028451753 23:0.0 24:0.020408163 25:0.040816326 26:0.93877554 27:0.020833334 28:0.020833334 29:0.0625 30:0.625 31:0.0 32:0.021276595 33:0.0 34:0.23404256 35:1.0 36:0.73913044 37:0.25531915 38:1154959.5 39:0.0 40:0.0 41:0.0 42:0.0 43:0.0 44:0.0 45:0.0 46:0.0 47:0.0 48:0.0 49:0.0 50:0.0 51:2.0 52:2.0 53:0.0 54:0.0 55:0.0 56:0.0 57:0.040816326 58:0.04347826 59:0.9387755 
1.4531249945222735 1.466796875 1.068359375 0.3896484375 1:52.0 2:50.0 3:1.04 4:0.96153843 5:0.03846154 6:3.9807692 7:1.5151515 8:5.7884617 9:2.2307692 10:1.7307693 11:1.0 12:0.61538464 13:5420656.5 14:2670930.8 15:2452351.8 16:1543407.4 17:1081812.1 18:0.029780896 19:0.011342844 20:0.0063505773 21:0.0036496087 22:7.000137E-4 23:0.0 24:0.0 25:0.01923077 26:0.96153843 27:0.039215688 28:0.0 29:0.039215688 30:0.627451 31:0.0 32:0.02 33:0.0 34:0.22 35:0.972973 36:0.6875 37:0.24 38:1541026.1 39:0.0 40:0.0 41:0.0 42:0.0 43:0.0 44:0.0 45:0.0 46:0.0 47:0.0 48:0.0 49:0.0 50:0.0 51:4.0 52:4.0 53:0.0 54:0.07692308 55:0.08 56:0.0 57:0.30769232 58:0.32 59:0.9615385 
1.4531249952993577 1.466796875 1.068359375 0.3896484375 1:41.0 2:43.0 3:0.95348835 4:1.0487804 5:0.048780486 6:5.292683 7:1.4827586 8:6.780488 9:2.487805 10:1.6585366 11:1.0731708 12:0.5609756 13:7095957.0 14:3625397.8 15:3308664.5 16:1953207.8 17:1347123.1 18:0.017485168 19:0.0064834305 20:0.0037197126 21:0.0010035669 22:8.5446685E-5 23:0.0 24:0.0 25:0.07317073 26:0.9268293 27:0.0 28:0.05 29:0.025 30:0.65 31:0.025641026 32:0.051282052 33:0.025641026 34:0.23076923 35:1.0 36:0.74358976 37:0.33333334 38:1926394.8 39:0.0 40:0.0 41:0.0 42:0.0 43:0.0 44:0.0 45:0.0 46:0.0 47:0.0 48:0.0 49:0.0 50:0.0 51:4.0 52:4.0 53:0.0 54:0.0 55:0.0 56:0.0 57:0.09756097 58:0.093023255 59:1.0487804 
1.4531249956491725 1.466796875 1.068359375 0.3896484375 1:56.0 2:54.0 3:1.037037 4:0.96428573 5:0.035714287 6:3.8392856 7:1.5 8:5.571429 9:2.0357144 10:1.5892857 11:1.0 12:0.66071427 13:4621852.5 14:2042431.1 15:1975603.6 16:1219625.6 17:758963.7 18:0.00410078 19:0.002822504 20:0.002566681 21:9.581023E-4 22:8.69081E-4 23:0.0 24:0.0 25:0.017857144 26:0.96428573 27:0.036363635 28:0.0 29:0.0 30:0.7818182 31:0.018518519 32:0.037037037 33:0.018518519 34:0.3888889 35:0.972973 36:0.8039216 37:0.4509804 38:1203350.0 39:0.0 40:0.0 41:0.0 42:0.0 43:0.0 44:0.0 45:0.0 46:0.0 47:0.0 48:0.0 49:0.0 50:0.0 51:4.0 52:4.0 53:0.0 54:0.10714286 55:0.11111111 56:0.0 57:0.39285713 58:0.4074074 59:0.96428573 
1.4531249956730572 1.466796875 1.068359375 0.3896484375 1:41.0 2:38.0 3:1.0789474 4:0.9268293 5:0.07317073 6:3.682927 7:1.4615384 8:4.487805 9:2.0243902 10:1.6341463 11:1.0243902 12:0.75609756 13:4367744.0 14:2313584.8 15:2277841.2 16:1380339.9 17:933307.7 18:0.011238048 19:0.006413626 20:0.004302764 21:0.004022897 22:0.0021934062 23:0.0 24:0.0 25:0.048780486 26:0.902439 27:0.0 28:0.0 29:0.025 30:0.7 31:0.025641026 32:0.051282052 33:0.0 34:0.30769232 35:0.9259259 36:0.7222222 37:0.3888889 38:1380518.9 39:0.0 40:0.0 41:0.0 42:0.0 43:0.0 44:0.0 45:0.0 46:0.0 47:0.0 48:0.0 49:0.0 50:0.0 51:3.0 52:3.0 53:0.0 54:0.09756097 55:0.10526316 56:0.0 57:0.36585367 58:0.39473686 59:0.9268293 
1.453124996126728 1.466796875 1.068359375 0.3896484375 1:37.0 2:38.0 3:0.9736842 4:1.027027 5:0.027027028 6:4.4324327 7:1.1515151 8:6.243243 9:2.4594595 10:1.8378378 11:1.2162162 12:0.6216216 13:3185238.0 14:1990662.8 15:1947675.9 16:1048889.8 17:943365.8 18:0.011438986 19:0.006652976 20:0.0061536357 21:0.0057178834 22:0.005070574 23:0.0 24:0.027027028 25:0.0 26:0.9189189 27:0.0 28:0.0 29:0.027777778 30:0.5833333 31:0.0 32:0.057142857 33:0.0 34:0.057142857 35:0.9677419 36:0.6111111 37:0.114285715 38:1044730.2 39:0.0 40:0.0 41:0.0 42:0.0 43:0.0 44:0.0 45:0.0 46:0.0 47:0.0 48:0.0 49:0.0 50:0.0 51:2.0 52:2.0 53:0.0 54:0.027027028 55:0.02631579 56:0.0 57:0.13513513 58:0.13157895 59:1.0270269 
1.453124996307754 1.466796875 1.068359375 0.3896484375 1:38.0 2:37.0 3:1.027027 4:0.9736842 5:0.02631579 6:3.6842105 7:1.4230769 8:5.0 9:2.1842105 10:1.7105263 11:1.1315789 12:0.68421054 13:3282240.0 14:1663758.5 15:1662273.6 16:1041530.5 17:770704.1 18:0.037103176 19:0.02718592 20:0.023725178 21:0.018847829 22:0.0031425615 23:0.0 24:0.05263158 25:0.05263158 26:0.8684211 27:0.0 28:0.0 29:0.10810811 30:0.5675676 31:0.0 32:0.0 33:0.0 34:0.22222222 35:0.96428573 36:0.6756757 37:0.22222222 38:1041470.1 39:0.0 40:0.0 41:0.0 42:0.0 43:0.0 44:0.0 45:0.0 46:0.0 47:0.0 48:0.0 49:0.0 50:0.0 51:2.0 52:2.0 53:0.0 54:0.10526316 55:0.10810811 56:0.0 57:0.36842105 58:0.3783784 59:0.9736842 
1.4531249967161648 1.466796875 1.068359375 0.3896484375 1:49.0 2:48.0 3:1.0208334 4:0.97959185 5:0.020408163 6:4.0 7:1.7142857 8:4.857143 9:2.0612245 10:1.7755102 11:1.0816326 12:0.63265306 13:4216271.5 14:1957748.1 15:1893621.5 16:1235307.9 17:751769.56 18:0.00810421 19:0.0047264416 20:0.003745336 21:0.0025950354 22:1.6231037E-5 23:0.0 24:0.0 25:0.020408163 26:0.9591837 27:0.104166664 28:0.0 29:0.083333336 30:0.625 31:0.0 32:0.021276595 33:0.0 34:0.31914893 35:0.962963 36:0.82051283 37:0.3255814 38:1235232.6 39:0.0 40:0.0 41:0.0 42:0.0 43:0.0 44:0.0 45:0.0 46:0.0 47:0.0 48:0.0 49:0.0 50:0.0 51:4.0 52:4.0 53:0.0 54:0.10204082 55:0.104166664 56:0.0 57:0.40816328 58:0.41666666 59:0.9795919 
1.453124997973997 1.466796875 1.068359375 0.3896484375 1:53.0 2:49.0 3:1.0816326 4:0.9245283 5:0.0754717 6:3.7547169 7:1.4411764 8:6.3962264 9:2.4339623 10:1.981132 11:0.9811321 12:0.6415094 13:5119072.5 14:2685900.8 15:2435256.2 16:1269572.4 17:832982.2 18:0.021734934 19:0.0077591366 20:0.0056083333 21:0.00213097 22:6.9623545E-4 23:0.0 24:0.0 25:0.056603774 26:0.9245283 27:0.0 28:0.0 29:0.03846154 30:0.78846157 31:0.019607844 32:0.05882353 33:0.039215688 34:0.3529412 35:0.975 36:0.8269231 37:0.47058824 38:1229058.4 39:0.0 40:0.0 41:0.0 42:0.0 43:0.0 44:0.0 45:0.0 46:0.0 47:0.0 48:0.0 49:0.0 50:0.0 51:3.0 52:3.0 53:0.0 54:0.0754717 55:0.08163265 56:0.0 57:0.28301886 58:0.30612245 59:0.92452824 
1.4531249980865528 1.466796875 1.068359375 0.3896484375 1:41.0 2:41.0 3:1.0 4:1.0 5:0.0 6:3.902439 7:1.5769231 8:4.390244 9:1.9512196 10:1.4878049 11:0.9268293 12:0.68292683 13:3736812.0 14:2208649.2 15:1843430.5 16:1080395.5 17:769880.3 18:0.013413898 19:0.0036500057 20:0.0022957707 21:9.2334766E-4 22:2.484385E-5 23:0.0 24:0.0 25:0.0 26:0.902439 27:0.0 28:0.025 29:0.025 30:0.675 31:0.0 32:0.0 33:0.0 34:0.33333334 35:0.89285713 36:0.7297297 37:0.3243243 38:1053476.9 39:0.0 40:0.0 41:0.0 42:0.0 43:0.0 44:0.0 45:0.0 46:0.0 47:0.0 48:0.0 49:0.0 50:0.0 51:2.0 52:2.0 53:0.0 54:0.12195122 55:0.12195122 56:0.0 57:0.41463414 58:0.41463414 59:1.0 
1.4531249985140726 1.466796875 1.068359375 0.3896484375 1:44.0 2:43.0 3:1.0232558 4:0.97727275 5:0.022727273 6:4.7727275 7:1.3870968 8:6.431818 9:2.590909 10:2.0 11:1.1136364 12:0.6818182 13:7109833.5 14:4001495.0 15:3729483.2 16:1997090.5 17:1490553.5 18:0.029261906 19:0.024331605 20:0.024081744 21:0.023591636 22:0.011954644 23:0.0 24:0.0 25:0.0 26:0.97727275 27:0.0 28:0.023255814 29:0.023255814 30:0.74418604 31:0.0 32:0.0 33:0.071428575 34:0.42857143 35:0.9705882 36:0.78571427 37:0.5 38:1942272.0 39:0.0 40:0.0 41:1.0 42:1.0 43:0.0 44:0.0 45:0.0 46:0.0 47:0.0 48:0.0 49:0.0 50:0.0 51:5.0 52:4.0 53:0.023255814 54:0.0 55:0.046511628 56:0.046511628 57:0.11363637 58:0.1627907 59:0.6980519 
1.453124998811258 1.466796875 1.068359375 0.3896484375 1:63.0 2:59.0 3:1.0677966 4:0.93650794 5:0.06349207 6:4.730159 7:1.5128205 8:6.5079365 9:2.3968253 10:1.7936507 11:1.0634921 12:0.61904764 13:6369313.5 14:3824712.2 15:3782057.5 16:2108794.2 17:1706038.9 18:0.008329902 19:0.0032569673 20:0.0020333254 21:0.0011261139 22:6.7287567E-4 23:0.0 24:0.0 25:0.015873017 26:0.984127 27:0.06451613 28:0.0 29:0.048387095 30:0.7741935 31:0.032786883 32:0.032786883 33:0.016393442 34:0.40983605 35:1.0 36:0.8679245 37:0.4642857 38:2106283.2 39:0.0 40:0.0 41:0.0 42:0.0 43:0.0 44:0.0 45:0.0 46:0.0 47:0.0 48:0.0 49:0.0 50:0.0 51:4.0 52:4.0 53:0.0 54:0.015873017 55:0.016949153 56:0.0 57:0.11111111 58:0.16949153 59:0.65555555 
1.453124998811258 1.466796875 1.068359375 0.3896484375 1:50.0 2:51.0 3:0.98039216 4:1.02 5:0.02 6:3.78 7:1.4166666 8:4.7 9:1.96 10:1.54 11:1.08 12:0.68 13:4815787.0 14:2530953.5 15:2281501.8 16:1437090.4 17:1047952.3 18:0.014606288 19:0.011610989 20:0.011265498 21:0.00878618 22:0.002038374 23:0.0 24:0.02 25:0.04 26:0.94 27:0.06122449 28:0.020408163 29:0.06122449 30:0.59183675 31:0.0 32:0.083333336 33:0.0 34:0.27083334 35:1.0 36:0.7291667 37:0.35416666 38:1413079.5 39:0.0 40:0.0 41:0.0 42:0.0 43:0.0 44:0.0 45:0.0 46:0.0 47:0.0 48:0.0 49:0.0 50:0.0 51:3.0 52:3.0 53:0.0 54:0.06 55:0.05882353 56:0.0 57:0.26 58:0.25490198 59:1.0199999 
1.453124998811258 1.466796875 1.068359375 0.3896484375 1:47.0 2:46.0 3:1.0217391 4:0.9787234 5:0.021276595 6:4.2765956 7:1.7037038 8:5.425532 9:2.1489363 10:1.7234043 11:1.106383 12:0.63829786 13:3833396.8 14:2096125.8 15:2001260.8 16:1184889.0 17:705777.8 18:0.023672344 19:0.017277932 20:0.015697282 21:0.013387923 22:0.0076477206 23:0.021276595 24:0.0 25:0.021276595 26:0.9574468 27:0.0 28:0.02173913 29:0.08695652 30:0.7173913 31:0.0 32:0.044444446 33:0.0 34:0.35555556 35:1.0 36:0.8 37:0.3902439 38:1121754.8 39:0.0 40:0.0 41:0.0 42:0.0 43:0.0 44:0.0 45:0.0 46:0.0 47:0.0 48:0.0 49:0.0 50:0.0 51:3.0 52:3.0 53:0.0 54:0.08510638 55:0.08695652 56:0.0 57:0.31914893 58:0.32608697 59:0.97872335 
1.4531249988744428 1.466796875 1.068359375 0.3896484375 1:50.0 2:48.0 3:1.0416666 4:0.96 5:0.04 6:3.2 7:1.7142857 8:4.88 9:2.48 10:1.8 11:1.12 12:0.68 13:4609657.5 14:2961428.8 15:2723755.5 16:1437691.9 17:1135886.9 18:0.04237948 19:0.026355004 20:0.01180273 21:0.008455933 22:9.0657314E-4 23:0.0 24:0.0 25:0.06 26:0.92 27:0.06122449 28:0.0 29:0.0 30:0.67346936 31:0.0 32:0.0 33:0.0 34:0.47916666 35:0.96666664 36:0.7567568 37:0.53846157 38:1416265.2 39:0.0 40:0.0 41:0.0 42:0.0 43:0.0 44:0.0 45:0.0 46:0.0 47:0.0 48:0.0 49:0.0 50:0.0 51:2.0 52:2.0 53:0.0 54:0.08 55:0.083333336 56:0.0 57:0.28 58:0.29166666 59:0.96000004 
1.4531249990995543 1.466796875 1.068359375 0.3896484375 1:42.0 2:42.0 3:1.0 4:1.0 5:0.0 6:5.714286 7:1.2 8:5.3809524 9:2.1666667 10:1.5714285 11:1.0476191 12:0.71428573 13:2246021.8 14:1158612.4 15:1144225.0 16:676528.9 17:543497.3 18:0.023898039 19:0.014931686 20:0.008338688 21:0.007650535 22:0.0020684835 23:0.0 24:0.0 25:0.04761905 26:0.85714287 27:0.07317073 28:0.024390243 29:0.07317073 30:0.41463414 31:0.025 32:0.025 33:0.0 34:0.075 35:0.9166667 36:0.575 37:0.125 38:653999.0 39:0.0 40:0.0 41:0.0 42:0.0 43:0.0 44:0.0 45:0.0 46:0.0 47:0.0 48:0.0 49:0.0 50:0.0 51:0.0 52:0.0 53:0.0 54:0.0 55:0.0 56:0.0 57:0.04761905 58:0.0952381 59:0.5 
1.4531249990995543 1.466796875 1.068359375 0.3896484375 1:46.0 2:40.0 3:1.15 4:0.8695652 5:0.13043478 6:3.6956522 7:1.3333334 8:4.804348 9:2.0652175 10:1.5 11:1.0217391 12:0.65217394 13:5360520.0 14:2450254.5 15:2133737.2 16:1438395.9 17:696105.2 18:0.024478778 19:0.013302088 20:0.010708478 21:0.010579768 22:0.006815283 23:0.02173913 24:0.04347826 25:0.02173913 26:0.8913044 27:0.0 28:0.0 29:0.06666667 30:0.6888889 31:0.0 32:0.06818182 33:0.06818182 34:0.25 35:0.9714286 36:0.75 37:0.38636363 38:1400320.4 39:0.0 40:0.0 41:0.0 42:0.0 43:0.0 44:0.0 45:0.0 46:0.0 47:0.0 48:0.0 49:0.0 50:0.0 51:5.0 52:5.0 53:0.0 54:0.1521739 55:0.175 56:0.0 57:0.45652175 58:0.5 59:0.9130435 
1.4531249990995543 1.466796875 1.068359375 0.3896484375 1:45.0 2:45.0 3:1.0 4:1.0 5:0.0 6:4.688889 7:1.2857143 8:6.177778 9:1.9555556 10:1.4222223 11:0.9777778 12:0.5777778 13:7873153.5 14:3435606.8 15:3404725.2 16:2171234.2 17:1029731.75 18:0.014497247 19:0.009000392 20:0.0059267343 21:0.0033571546 22:0.0032522308 23:0.0 24:0.022222223 25:0.0 26:0.93333334 27:0.06818182 28:0.0 29:0.022727273 30:0.70454544 31:0.023255814 32:0.046511628 33:0.023255814 34:0.20930232 35:0.94285715 36:0.79545456 37:0.30232558 38:2135604.8 39:0.0 40:0.0 41:0.0 42:0.0 43:0.0 44:0.0 45:0.0 46:0.0 47:0.0 48:0.0 49:0.0 50:0.0 51:8.0 52:8.0 53:0.0 54:0.0 55:0.0 56:0.0 57:0.22222222 58:0.22222222 59:1.0 
1.4531249996634215 1.466796875 1.068359375 0.3896484375 1:42.0 2:40.0 3:1.05 4:0.95238096 5:0.04761905 6:3.952381 7:1.6 8:5.047619 9:2.3809524 10:1.8809524 11:1.0952381 12:0.6666667 13:3288521.5 14:1904410.6 15:1587256.2 16:1015440.2 17:758542.94 18:0.0022880468 19:0.0012948794 20:0.0012457961 21:4.7170144E-4 22:2.9699536E-4 23:0.0 24:0.0 25:0.0 26:1.0 27:0.12195122 28:0.0 29:0.048780486 30:0.6097561 31:0.0 32:0.0 33:0.0 34:0.275 35:1.0 36:0.7777778 37:0.27027026 38:1015138.5 39:0.0 40:0.0 41:0.0 42:0.0 43:0.0 44:0.0 45:0.0 46:0.0 47:0.0 48:0.0 49:0.0 50:0.0 51:2.0 52:2.0 53:0.0 54:0.0952381 55:0.1 56:0.0 57:0.33333334 58:0.35 59:0.952381 
1.45312499968212 1.466796875 1.068359375 0.3896484375 1:42.0 2:38.0 3:1.1052631 4:0.9047619 5:0.0952381 6:5.0 7:1.1875 8:6.1666665 9:2.4761906 10:1.8809524 11:1.1428572 12:0.6666667 13:5743168.5 14:3357440.8 15:3005605.5 16:1648205.8 17:1240806.2 18:0.015730245 19:0.0049097263 20:0.004613859 21:0.003041251 22:3.9288783E-4 23:0.0 24:0.0 25:0.04761905 26:0.95238096 27:0.07317073 28:0.024390243 29:0.07317073 30:0.6585366 31:0.0 32:0.0 33:0.0 34:0.4 35:1.0 36:0.8292683 37:0.4 38:1562874.2 39:0.0 40:0.0 41:0.0 42:0.0 43:0.0 44:0.0 45:0.0 46:0.0 47:0.0 48:0.0 49:0.0 50:0.0 51:2.0 52:2.0 53:0.0 54:0.0 55:0.0 56:0.0 57:0.04761905 58:0.05263158 59:0.9047619 
1.4531249997099653 1.466796875 1.068359375 0.3896484375 1:50.0 2:44.0 3:1.1363636 4:0.88 5:0.12 6:4.56 7:1.2941177 8:6.86 9:2.5 10:1.76 11:1.06 12:0.66 13:7575554.0 14:4050411.2 15:3492154.5 16:2056952.0 17:1581053.5 18:0.020405404 19:0.010722374 20:0.008285679 21:0.0025145712 22:1.894785E-4 23:0.0 24:0.0 25:0.02 26:0.98 27:0.020408163 28:0.020408163 29:0.0 30:0.85714287 31:0.0625 32:0.0625 33:0.020833334 34:0.41666666 35:1.0 36:0.8979592 37:0.5625 38:2056846.4 39:0.0 40:0.0 41:0.0 42:0.0 43:0.0 44:0.0 45:0.0 46:0.0 47:0.0 48:0.0 49:0.0 50:0.0 51:4.0 52:4.0 53:0.0 54:0.0 55:0.0 56:0.0 57:0.12 58:0.13636364 59:0.87999994 
1.45312499970999 1.466796875 1.068359375 0.3896484375 1:44.0 2:42.0 3:1.0476191 4:0.95454544 5:0.045454547 6:5.431818 7:1.3125 8:6.318182 9:2.5227273 10:1.7272727 11:1.0909091 12:0.5 13:4132812.0 14:2044944.0 15:1996412.0 16:1152460.4 17:688398.4 18:0.06066822 19:0.024895621 20:0.023946028 21:0.023910396 22:0.012467467 23:0.0 24:0.0 25:0.045454547 26:0.8863636 27:0.046511628 28:0.0 29:0.023255814 30:0.6976744 31:0.023809524 32:0.071428575 33:0.0 34:0.33333334 35:0.9189189 36:0.7619048 37:0.42857143 38:1130469.9 39:0.0 40:0.0 41:0.0 42:0.0 43:0.0 44:0.0 45:0.0 46:0.0 47:0.0 48:0.0 49:0.0 50:0.0 51:3.0 52:3.0 53:0.0 54:0.0 55:0.0 56:0.0 57:0.11363637 58:0.11904762 59:0.9545455 
1.4531249997103892 1.466796875 1.068359375 0.3896484375 1:49.0 2:47.0 3:1.0425532 4:0.9591837 5:0.040816326 6:4.755102 7:1.4242424 8:5.897959 9:2.5918367 10:1.9591837 11:1.1428572 12:0.5714286 13:6700117.0 14:3582796.5 15:3358261.0 16:2115285.0 17:1458231.0 18:0.031947937 19:0.01571923 20:0.01336853 21:0.008509444 22:0.0048590805 23:0.0 24:0.0 25:0.06122449 26:0.93877554 27:0.041666668 28:0.0 29:0.041666668 30:0.7291667 31:0.0 32:0.021276595 33:0.08510638 34:0.25531915 35:1.0 36:0.8125 37:0.3617021 38:2080350.2 39:0.0 40:0.0 41:0.0 42:0.0 43:0.0 44:0.0 45:0.0 46:0.0 47:0.0 48:0.0 49:0.0 50:0.0 51:5.0 52:5.0 53:0.0 54:0.0 55:0.0 56:0.0 57:0.10204082 58:0.10638298 59:0.9591837 
1.4531249997411908 1.466796875 1.068359375 0.3896484375 1:42.0 2:42.0 3:1.0 4:1.0 5:0.0 6:5.0 7:1.5 8:6.3809524 9:2.5 10:1.9523809 11:1.1428572 12:0.5 13:4585744.5 14:2489340.0 15:2408861.5 16:1502084.6 17:1000284.1 18:0.05630527 19:0.04875896 20:0.039712045 21:0.021192169 22:0.009003194 23:0.04761905 24:0.023809524 25:0.04761905 26:0.88095236 27:0.048780486 28:0.048780486 29:0.12195122 30:0.6097561 31:0.05 32:0.05 33:0.05 34:0.225 35:1.0 36:0.825 37:0.375 38:1455049.8 39:0.0 40:0.0 41:0.0 42:0.0 43:0.0 44:0.0 45:0.0 46:0.0 47:0.0 48:0.0 49:0.0 50:0.0 51:3.0 52:3.0 53:0.0 54:0.0 55:0.0 56:0.0 57:0.071428575 58:0.0952381 59:0.75 
1.4531249997422044 1.466796875 1.068359375 0.3896484375 1:51.0 2:47.0 3:1.0851064 4:0.92156863 5:0.078431375 6:3.4313726 7:1.382353 8:5.980392 9:2.3921568 10:1.7254902 11:1.0784314 12:0.64705884 13:5048307.0 14:3102236.0 15:2816185.5 16:1546905.4 17:1246278.2 18:0.037421037 19:0.022122031 20:0.0103604 21:0.0062898286 22:5.213619E-4 23:0.0 24:0.0 25:0.039215688 26:0.9607843 27:0.0 28:0.04 29:0.04 30:0.78 31:0.040816326 32:0.06122449 33:0.040816326 34:0.40816328 35:1.0 36:0.85106385 37:0.5531915 38:1514982.6 39:0.0 40:0.0 41:0.0 42:0.0 43:0.0 44:0.0 45:0.0 46:0.0 47:0.0 48:0.0 49:0.0 50:0.0 51:2.0 52:2.0 53:0.0 54:0.05882353 55:0.06382979 56:0.0 57:0.21568628 58:0.23404256 59:0.92156863 
1.45312499974259 1.466796875 1.068359375 0.3896484375 1:48.0 2:41.0 3:1.1707317 4:0.8541667 5:0.14583333 6:3.4583333 7:1.4137931 8:6.1875 9:2.2083333 10:1.6666666 11:0.9791667 12:0.7083333 13:6252164.0 14:3647957.2 15:3234495.2 16:1633864.5 17:1594219.0 18:0.5389016 19:0.092694454 20:0.048387494 21:0.021420246 22:4.3444245E-4 23:0.0 24:0.0 25:0.020833334 26:0.9166667 27:0.04255319 28:0.021276595 29:0.0 30:0.7446808 31:0.0 32:0.02173913 33:0.0 34:0.47826087 35:0.8965517 36:0.7692308 37:0.5116279 38:1628477.0 39:0.0 40:0.0 41:0.0 42:0.0 43:0.0 44:0.0 45:0.0 46:0.0 47:0.0 48:0.0 49:0.0 50:0.0 51:2.0 52:2.0 53:0.0 54:0.083333336 55:0.09756097 56:0.0 57:0.20833333 58:0.2682927 59:0.7765151 
1.453124999755453 1.466796875 1.068359375 0.3896484375 1:49.0 2:49.0 3:1.0 4:1.0 5:0.0 6:5.0816326 7:1.4 8:5.5510206 9:2.4081633 10:1.6326531 11:1.0816326 12:0.71428573 13:5163183.5 14:2770707.5 15:2108743.2 16:1418731.2 17:929635.75 18:0.03975326 19:0.017463228 20:0.011474514 21:0.0072823795 22:0.0072150608 23:0.0 24:0.040816326 25:0.020408163 26:0.93877554 27:0.020833334 28:0.020833334 29:0.104166664 30:0.6666667 31:0.021276595 32:0.021276595 33:0.04255319 34:0.34042552 35:1.0 36:0.80851066 37:0.42553192 38:1416278.5 39:0.0 40:0.0 41:0.0 42:0.0 43:0.0 44:0.0 45:0.0 46:0.0 47:0.0 48:0.0 49:0.0 50:0.0 51:4.0 52:4.0 53:0.0 54:0.0 55:0.0 56:0.0 57:0.08163265 58:0.10204082 59:0.79999995 
1.4531249997683113 1.466796875 1.068359375 0.3896484375 1:50.0 2:43.0 3:1.1627907 4:0.86 5:0.14 6:4.52 7:1.4827586 8:4.96 9:2.1 10:1.66 11:1.18 12:0.72 13:5110276.0 14:2981120.8 15:2917298.5 16:1607798.4 17:1367388.0 18:0.0090777725 19:0.0022179612 20:0.0018597363 21:0.0017429985 22:8.838579E-4 23:0.0 24:0.0 25:0.02 26:0.98 27:0.040816326 28:0.0 29:0.020408163 30:0.81632656 31:0.020833334 32:0.020833334 33:0.041666668 34:0.4375 35:1.0 36:0.88372093 37:0.5319149 38:1590382.2 39:0.0 40:0.0 41:0.0 42:0.0 43:0.0 44:0.0 45:0.0 46:0.0 47:0.0 48:0.0 49:0.0 50:0.0 51:2.0 52:2.0 53:0.0 54:0.06 55:0.069767445 56:0.0 57:0.22 58:0.25581396 59:0.86 
1.4531249997683113 1.466796875 1.068359375 0.3896484375 1:43.0 2:40.0 3:1.075 4:0.9302326 5:0.069767445 6:5.4418607 7:1.2903225 8:5.6511626 9:2.3255813 10:1.7906977 11:1.0697675 12:0.6744186 13:7075196.5 14:4005633.8 15:3337387.5 16:1984996.9 17:1553734.8 18:0.013625188 19:0.008477714 20:0.0061838655 21:0.002670614 22:0.0024988132 23:0.0 24:0.0 25:0.046511628 26:0.90697676 27:0.071428575 28:0.023809524 29:0.023809524 30:0.7380952 31:0.024390243 32:0.048780486 33:0.07317073 34:0.41463414 35:0.93939394 36:0.85714287 37:0.5609756 38:1924237.4 39:0.0 40:0.0 41:0.0 42:0.0 43:0.0 44:0.0 45:0.0 46:0.0 47:0.0 48:0.0 49:0.0 50:0.0 51:3.0 52:3.0 53:0.0 54:0.0 55:0.0 56:0.0 57:0.046511628 58:0.05 59:0.9302325 
1.4531249997734985 1.466796875 1.068359375 0.3896484375 1:46.0 2:44.0 3:1.0454545 4:0.95652175 5:0.04347826 6:5.369565 7:1.2941177 8:6.0 9:2.0869565 10:1.6521739 11:1.0434783 12:0.65217394 13:6230581.0 14:3496432.8 15:3390388.5 16:1943668.8 17:1395074.1 18:0.0044872514 19:0.0018188274 20:0.0013929008 21:0.0010693173 22:4.067753E-4 23:0.0 24:0.0 25:0.0 26:0.9782609 27:0.022222223 28:0.022222223 29:0.044444446 30:0.73333335 31:0.0 32:0.022727273 33:0.045454547 34:0.45454547 35:0.9722222 36:0.81395346 37:0.5116279 38:1940186.2 39:0.0 40:0.0 41:0.0 42:0.0 43:0.0 44:0.0 45:0.0 46:0.0 47:0.0 48:0.0 49:0.0 50:0.0 51:4.0 52:4.0 53:0.0 54:0.0 55:0.0 56:0.0 57:0.17391305 58:0.20454545 59:0.85024154 
1.453124999780146 1.466796875 1.068359375 0.3896484375 1:45.0 2:45.0 3:1.0 4:1.0 5:0.0 6:3.8888888 7:1.2857143 8:5.422222 9:1.9333333 10:1.6222222 11:0.9777778 12:0.5777778 13:4952235.5 14:2684495.5 15:2660932.0 16:1532998.6 17:1139293.1 18:0.0173472 19:0.008899851 20:0.0035061508 21:0.003101231 22:0.0026740527 23:0.022222223 24:0.022222223 25:0.0 26:0.82222223 27:0.0 28:0.022727273 29:0.022727273 30:0.5 31:0.0 32:0.0 33:0.023255814 34:0.25581396 35:0.8611111 36:0.5609756 37:0.2857143 38:1517814.4 39:0.0 40:0.0 41:0.0 42:0.0 43:0.0 44:0.0 45:0.0 46:0.0 47:0.0 48:0.0 49:0.0 50:0.0 51:3.0 52:3.0 53:0.0 54:0.0 55:0.0 56:0.0 57:0.24444444 58:0.24444444 59:1.0 
1.4531249997923603 1.466796875 1.068359375 0.3896484375 1:53.0 2:55.0 3:0.96363634 4:1.0377358 5:0.03773585 6:3.9245284 7:1.4102564 8:5.811321 9:2.1509433 10:1.509434 11:0.9433962 12:0.509434 13:6223145.0 14:2887898.0 15:2711868.8 16:1753366.0 17:1041051.2 18:0.030804133 19:0.009040594 20:0.0029164196 21:0.001973529 22:1.2266665E-4 23:0.018867925 24:0.018867925 25:0.03773585 26:0.8867925 27:0.03846154 28:0.01923077 29:0.01923077 30:0.5769231 31:0.05882353 32:0.0 33:0.019607844 34:0.21568628 35:0.9756098 36:0.68 37:0.3 38:1740419.9 39:0.0 40:0.0 41:1.0 42:1.0 43:0.0 44:0.0 45:0.0 46:0.0 47:0.0 48:0.0 49:0.0 50:0.0 51:6.0 52:7.0 53:0.018181818 54:0.0 55:0.0 56:0.0 57:0.2264151 58:0.23636363 59:0.95791006 
1.453124999863208 1.466796875 1.068359375 0.3896484375 1:43.0 2:44.0 3:0.97727275 4:1.0232558 5:0.023255814 6:5.4883723 7:1.2941177 8:7.2093024 9:2.627907 10:1.744186 11:1.0697675 12:0.41860464 13:7562590.5 14:3174764.8 15:2881179.5 16:1969607.1 17:846271.4 18:0.016932895 19:0.0089651095 20:0.0061559603 21:0.005182501 22:0.003071753 23:0.0 24:0.023255814 25:0.046511628 26:0.90697676 27:0.071428575 28:0.0 29:0.04761905 30:0.64285713 31:0.0 32:0.0 33:0.0 34:0.31707317 35:0.9705882 36:0.7619048 37:0.31707317 38:1970763.4 39:0.0 40:0.0 41:0.0 42:0.0 43:0.0 44:0.0 45:0.0 46:0.0 47:0.0 48:0.0 49:0.0 50:0.0 51:8.0 52:8.0 53:0.0 54:0.0 55:0.0 56:0.0 57:0.18604651 58:0.18181819 59:1.0232558 
1.453124999863208 1.466796875 1.068359375 0.3896484375 1:43.0 2:42.0 3:1.0238096 4:0.9767442 5:0.023255814 6:5.7674417 7:1.4 8:7.116279 9:2.6976745 10:1.8604652 11:1.1395348 12:0.5813953 13:4631962.0 14:3091585.0 15:2609211.5 16:1424710.5 17:1191422.1 18:0.121195175 19:0.03756151 20:0.024882412 21:0.010425345 22:0.0055107586 23:0.0 24:0.046511628 25:0.023255814 26:0.9302326 27:0.04761905 28:0.0 29:0.023809524 30:0.5714286 31:0.0 32:0.024390243 33:0.0 34:0.34146342 35:1.0 36:0.65 37:0.36585367 38:1365518.5 39:0.0 40:0.0 41:0.0 42:0.0 43:0.0 44:0.0 45:0.0 46:0.0 47:0.0 48:0.0 49:0.0 50:0.0 51:0.0 52:0.0 53:0.0 54:0.0 55:0.0 56:0.0 57:0.023255814 58:0.023809524 59:0.9767442 
1.4531249998709637 1.466796875 1.068359375 0.3896484375 1:38.0 2:38.0 3:1.0 4:1.0 5:0.0 6:5.0 7:1.4074074 8:5.2894735 9:2.1842105 10:1.7368422 11:1.1052631 12:0.57894737 13:5490983.0 14:2641875.2 15:2609435.5 16:1719901.5 17:1004008.0 18:0.08689589 19:0.08290941 20:0.08184086 21:0.028199797 22:0.028148184 23:0.0 24:0.0 25:0.02631579 26:0.8947368 27:0.0 28:0.0 29:0.10810811 30:0.5945946 31:0.027777778 32:0.027777778 33:0.027777778 34:0.16666667 35:0.88461536 36:0.6666667 37:0.25 38:1680970.4 39:0.0 40:0.0 41:0.0 42:0.0 43:0.0 44:0.0 45:0.0 46:0.0 47:0.0 48:0.0 49:0.0 50:0.0 51:4.0 52:4.0 53:0.0 54:0.0 55:0.0 56:0.0 57:0.13157895 58:0.15789473 59:0.8333334 
1.4531249998709637 1.466796875 1.068359375 0.3896484375 1:44.0 2:44.0 3:1.0 4:1.0 5:0.0 6:5.25 7:1.4666667 8:6.0454545 9:2.6136363 10:1.9772727 11:1.1818181 12:0.52272725 13:6464619.0 14:3498648.8 15:3277198.2 16:1999634.5 17:1415528.9 18:0.019945882 19:0.010394013 20:0.006711794 21:0.0044084555 22:0.002064029 23:0.0 24:0.0 25:0.045454547 26:0.95454544 27:0.023255814 28:0.046511628 29:0.093023255 30:0.6976744 31:0.0 32:0.023809524 33:0.023809524 34:0.33333334 35:1.0 36:0.85365856 37:0.36585367 38:1976385.9 39:0.0 40:0.0 41:0.0 42:0.0 43:0.0 44:0.0 45:0.0 46:0.0 47:0.0 48:0.0 49:0.0 50:0.0 51:4.0 52:4.0 53:0.0 54:0.0 55:0.0 56:0.0 57:0.09090909 58:0.09090909 59:1.0 
1.4531249998778928 1.466796875 1.068359375 0.3896484375 1:39.0 2:37.0 3:1.054054 4:0.94871795 5:0.051282052 6:5.6666665 7:1.2758621 8:5.974359 9:2.3076923 10:1.8205128 11:1.0769231 12:0.53846157 13:5273407.5 14:2827636.5 15:2479284.0 16:1471115.5 17:903726.9 18:0.04360006 19:0.042030293 20:0.041602354 21:0.036358222 22:0.025890408 23:0.0 24:0.025641026 25:0.0 26:0.8974359 27:0.02631579 28:0.05263158 29:0.0 30:0.68421054 31:0.027027028 32:0.027027028 33:0.054054055 34:0.21621622 35:0.90909094 36:0.75 37:0.30555555 38:1421592.9 39:0.0 40:0.0 41:0.0 42:0.0 43:0.0 44:0.0 45:0.0 46:0.0 47:0.0 48:0.0 49:0.0 50:0.0 51:3.0 52:3.0 53:0.0 54:0.0 55:0.0 56:0.0 57:0.07692308 58:0.10810811 59:0.7115385 
1.4531249998876374 1.4677734375 1.068359375 0.3896484375 1:50.0 2:47.0 3:1.0638298 4:0.94 5:0.06 6:4.38 7:1.6206896 8:4.5 9:2.04 10:1.38 11:0.88 12:0.76 13:4100418.5 14:2696889.0 15:2423521.5 16:1309609.1 17:1189331.0 18:0.016853688 19:0.009259287 20:0.007729411 21:0.006622003 22:0.006517848 23:0.02 24:0.02 25:0.02 26:0.86 27:0.06122449 28:0.040816326 29:0.040816326 30:0.59183675 31:0.0 32:0.041666668 33:0.0 34:0.29166666 35:0.90909094 36:0.75 37:0.3478261 38:1287908.4 39:0.0 40:0.0 41:0.0 42:0.0 43:0.0 44:0.0 45:0.0 46:0.0 47:0.0 48:0.0 49:0.0 50:0.0 51:0.0 52:0.0 53:0.0 54:0.0 55:0.0 56:0.0 57:0.14 58:0.14893617 59:0.94 
1.45312499989388 1.4677734375 1.068359375 0.3896484375 1:53.0 2:54.0 3:0.9814815 4:1.018868 5:0.018867925 6:4.90566 7:1.4210526 8:5.5849056 9:2.5660377 10:1.8301886 11:1.2075472 12:0.6792453 13:6354438.0 14:3524986.0 15:2929879.8 16:1732222.2 17:1132110.1 18:0.0046908087 19:0.0024580983 20:0.0016445646 21:0.0012954029 22:8.1280957E-4 23:0.0 24:0.0 25:0.018867925 26:0.9811321 27:0.01923077 28:0.01923077 29:0.01923077 30:0.7692308 31:0.019607844 32:0.05882353 33:0.078431375 34:0.4117647 35:1.0 36:0.8269231 37:0.5686275 38:1663623.8 39:0.0 40:0.0 41:0.0 42:0.0 43:0.0 44:0.0 45:0.0 46:0.0 47:0.0 48:0.0 49:0.0 50:0.0 51:4.0 52:4.0 53:0.0 54:0.0 55:0.0 56:0.0 57:0.094339624 58:0.09259259 59:1.018868 
1.4531249999023115 1.4677734375 1.068359375 0.3896484375 1:46.0 2:45.0 3:1.0222223 4:0.9782609 5:0.02173913 6:3.5652175 7:1.3636364 8:4.826087 9:1.8478261 10:1.5434783 11:1.1086956 12:0.7173913 13:4856235.0 14:2188945.5 15:2166579.2 16:1392066.1 17:846807.8 18:0.041816987 19:0.030452767 20:0.029501604 21:0.026979478 22:0.023741193 23:0.0 24:0.02173913 25:0.06521739 26:0.8913044 27:0.0 28:0.022222223 29:0.08888889 30:0.6888889 31:0.022727273 32:0.0 33:0.022727273 34:0.3181818 35:0.969697 36:0.79545456 37:0.36363637 38:1364823.6 39:0.0 40:0.0 41:0.0 42:0.0 43:0.0 44:0.0 45:0.0 46:0.0 47:0.0 48:0.0 49:0.0 50:0.0 51:4.0 52:4.0 53:0.0 54:0.08695652 55:0.08888889 56:0.0 57:0.3478261 58:0.35555556 59:0.9782609 
1.4531249999023141 1.4677734375 1.068359375 0.3896484375 1:44.0 2:43.0 3:1.0232558 4:0.97727275 5:0.022727273 6:5.2045455 7:1.3030303 8:5.4772725 9:2.1363637 10:1.5681819 11:1.0 12:0.5 13:6799938.0 14:3255361.0 15:2937519.5 16:1938366.1 17:1028775.94 18:0.12730132 19:0.07760605 20:0.07436424 21:0.04929403 22:0.00240047 23:0.022727273 24:0.0 25:0.11363637 26:0.77272725 27:0.023255814 28:0.023255814 29:0.069767445 30:0.5116279 31:0.0 32:0.023809524 33:0.023809524 34:0.16666667 35:0.9166667 36:0.627907 37:0.21428572 38:1907726.4 39:0.0 40:0.0 41:0.0 42:0.0 43:0.0 44:0.0 45:0.0 46:0.0 47:0.0 48:0.0 49:0.0 50:0.0 51:8.0 52:8.0 53:0.0 54:0.0 55:0.0 56:0.0 57:0.20454545 58:0.23255815 59:0.87954545 
1.4531249999023141 1.4677734375 1.068359375 0.3896484375 1:51.0 2:51.0 3:1.0 4:1.0 5:0.0 6:3.8431373 7:1.7 8:5.2941175 9:2.0392158 10:1.5294118 11:1.0196079 12:0.627451 13:5938793.0 14:3366616.2 15:3254009.5 16:1899153.0 17:1345803.9 18:0.002136985 19:5.809577E-4 20:3.2554954E-4 21:2.8434428E-4 22:1.8552947E-4 23:0.0 24:0.0 25:0.0 26:0.9411765 27:0.08 28:0.0 29:0.04 30:0.72 31:0.020408163 32:0.020408163 33:0.040816326 34:0.3265306 35:0.93939394 36:0.8372093 37:0.4318182 38:1867572.4 39:0.0 40:0.0 41:1.0 42:1.0 43:0.0 44:0.0 45:0.0 46:0.0 47:0.0 48:0.0 49:0.0 50:0.0 51:4.0 52:5.0 53:0.019607844 54:0.0 55:0.0 56:0.0 57:0.11764706 58:0.13725491 59:0.8571428 
1.4531249999414853 1.4677734375 1.068359375 0.3896484375 1:54.0 2:49.0 3:1.1020408 4:0.9074074 5:0.09259259 6:4.0 7:1.6333333 8:5.648148 9:2.2407408 10:1.7777778 11:1.074074 12:0.7407407 13:4969578.5 14:2693209.2 15:2661174.5 16:1484588.1 17:1120031.1 18:0.023452602 19:0.014387733 20:0.0132944025 21:0.008888947 22:0.004445761 23:0.0 24:0.018518519 25:0.018518519 26:0.962963 27:0.018867925 28:0.094339624 29:0.018867925 30:0.7169811 31:0.0 32:0.03846154 33:0.057692308 34:0.26923078 35:1.0 36:0.84313726 37:0.3653846 38:1472071.8 39:0.0 40:0.0 41:0.0 42:0.0 43:0.0 44:0.0 45:0.0 46:0.0 47:0.0 48:0.0 49:0.0 50:0.0 51:3.0 52:3.0 53:0.0 54:0.055555556 55:0.06122449 56:0.0 57:0.22222222 58:0.24489796 59:0.9074074 
1.453124999953144 1.4677734375 1.068359375 0.3896484375 1:39.0 2:34.0 3:1.1470588 4:0.8717949 5:0.12820514 6:6.230769 7:1.0625 8:4.3333335 9:1.7948718 10:1.4102564 11:0.8974359 12:0.5897436 13:5773752.0 14:2706975.2 15:2441235.2 16:1562060.2 17:937533.94 18:0.045039132 19:0.04285011 20:0.042525757 21:0.02960495 22:0.01671962 23:0.0 24:0.025641026 25:0.025641026 26:0.71794873 27:0.0 28:0.02631579 29:0.0 30:0.42105263 31:0.0 32:0.054054055 33:0.0 34:0.16216215 35:0.74285716 36:0.4473684 37:0.21621622 38:1544972.8 39:0.0 40:0.0 41:1.0 42:1.0 43:0.0 44:0.0 45:0.0 46:0.0 47:0.0 48:0.0 49:0.0 50:0.0 51:4.0 52:3.0 53:0.029411765 54:0.0 55:0.0 56:0.0 57:0.102564104 58:0.0882353 59:1.1623931 
1.4531249999531881 1.4677734375 1.068359375 0.3896484375 1:52.0 2:49.0 3:1.0612245 4:0.9423077 5:0.057692308 6:3.7884614 7:1.53125 8:5.8461537 9:2.1730769 10:1.5769231 11:0.9230769 12:0.61538464 13:7769898.5 14:3546060.0 15:3168425.8 16:2072288.5 17:1182336.8 18:0.0017000407 19:4.6953498E-4 20:3.120909E-4 21:2.0272605E-4 22:1.439287E-4 23:0.0 24:0.0 25:0.0 26:0.96153843 27:0.019607844 28:0.019607844 29:0.019607844 30:0.8235294 31:0.02 32:0.02 33:0.04 34:0.4 35:0.93939394 36:0.875 37:0.46938777 38:2044633.1 39:0.0 40:0.0 41:0.0 42:0.0 43:0.0 44:0.0 45:0.0 46:0.0 47:0.0 48:0.0 49:0.0 50:0.0 51:7.0 52:7.0 53:0.0 54:0.115384616 55:0.12244898 56:0.0 57:0.28846154 58:0.30612245 59:0.94230765 
