svm_type c_svc
kernel_type rbf
gamma 10.0
nr_class 5
total_sv 6124
rho -0.40452173913043477 -0.2823040715566987 -0.1476459173037119 -0.5312855517633674 0.13797413567307446 0.27319242003945987 -0.1614654002713704 0.1405145122093693 -0.2929136200534397 -0.41629477189345654
label 2 4 5 1 3
nr_sv 2019 856 1131 1500 618
SV
0.5947265625 0.716796875 0.8525390624999982 0.4677734375 1:17.0 2:15.0 3:1.1333333 4:0.88235295 5:0.11764706 6:4.2352943 7:1.25 8:2.5882354 9:1.2352941 10:1.0 11:1.0 12:0.7647059 13:1533365.2 14:410717.2 15:186073.64 16:186073.64 17:185513.64 18:0.0018880985 19:0.0018844142 20:0.0018843526 21:0.0018843526 22:0.001164352 23:0.0 24:0.0 25:0.0 26:1.0 27:0.0 28:0.0 29:0.0 30:0.75 31:0.06666667 32:0.13333334 33:0.0 34:0.4 35:1.0 36:0.75 37:0.6 38:297962.4 39:0.0 40:0.0 41:0.0 42:0.0 43:0.0 44:0.0 45:0.0 46:0.0 47:0.0 48:0.0 49:0.0 50:0.0 51:0.0 52:0.0 53:0.0 54:0.11764706 55:0.13333334 56:0.0 57:0.4117647 58:0.46666667 59:0.88235295 
0.5947265625 0.716796875 0.8525390624999982 0.4677734375 1:30.0 2:27.0 3:1.1111112 4:0.9 5:0.1 6:5.9333334 7:1.9285715 8:4.133333 9:1.6 10:1.0 11:0.5 12:0.26666668 13:1577173.9 14:442288.53 15:266626.38 16:182859.23 17:173467.86 18:7.509919E-4 19:5.546928E-4 20:4.025413E-4 21:1.7552609E-4 22:1.299689E-4 23:0.0 24:0.0 25:0.0 26:1.0 27:0.0 28:0.0 29:0.03448276 30:0.62068963 31:0.0 32:0.0 33:0.071428575 34:0.32142857 35:1.0 36:0.7894737 37:0.52380955 38:282651.7 39:0.0 40:0.0 41:2.0 42:2.0 43:0.0 44:0.0 45:0.0 46:0.0 47:0.0 48:0.0 49:0.0 50:0.0 51:2.0 52:0.0 53:0.074074075 54:0.0 55:0.0 56:0.0 57:0.2 58:0.074074075 59:2.7 
0.5947265625 0.716796875 0.8525390624999983 0.4677734375 1:23.0 2:21.0 3:1.0952381 4:0.9130435 5:0.08695652 6:4.3913045 7:1.3125 8:8.73913 9:3.3913043 10:1.7826087 11:0.6956522 12:0.39130434 13:2796616.2 14:483363.8 15:206239.0 16:101927.39 17:75032.26 18:9.021189E-4 19:6.552547E-4 20:4.740616E-4 21:3.45634E-4 22:3.1035516E-4 23:0.0 24:0.0 25:0.04347826 26:0.95652175 27:0.045454547 28:0.0 29:0.0 30:0.77272725 31:0.0952381 32:0.0 33:0.0 34:0.33333334 35:1.0 36:0.85714287 37:0.42857143 38:278293.22 39:0.0 40:0.0 41:0.0 42:0.0 43:0.0 44:0.0 45:0.0 46:0.0 47:0.0 48:0.0 49:0.0 50:0.0 51:3.0 52:3.0 53:0.0 54:0.0 55:0.0 56:0.0 57:0.13043478 58:0.0952381 59:1.3695651 
0.5947265625 0.716796875 0.8525390624999971 0.46875 1:27.0 2:23.0 3:1.173913 4:0.8518519 5:0.14814815 6:5.6666665 7:1.15 8:5.0740743 9:1.8888888 10:1.2222222 11:0.7777778 12:0.4814815 13:4126179.0 14:878874.75 15:375058.84 16:194724.27 17:152186.97 18:0.0011726333 19:0.0011349673 20:9.899081E-4 21:8.766096E-4 22:3.25356E-4 23:0.0 24:0.0 25:0.0 26:0.962963 27:0.0 28:0.0 29:0.0 30:0.7692308 31:0.04 32:0.04 33:0.08 34:0.32 35:0.95454544 36:0.7692308 37:0.48 38:485406.34 39:0.0 40:0.0 41:3.0 42:3.0 43:0.0 44:0.0 45:0.0 46:0.0 47:0.0 48:0.0 49:0.0 50:0.0 51:3.0 52:0.0 53:0.13043478 54:0.0 55:0.0 56:0.0 57:0.11111111 58:0.13043478 59:0.8518519 
0.5947265625 0.716796875 0.8525390624999958 0.46875 1:25.0 2:17.0 3:1.4705882 4:0.68 5:0.32 6:4.04 7:1.1333333 8:5.72 9:1.68 10:0.84 11:0.56 12:0.32 13:5557353.0 14:1078468.2 15:318474.56 16:136026.12 17:101256.0 18:0.0020621475 19:5.9347355E-4 20:5.8586075E-4 21:5.844353E-4 22:5.748915E-4 23:0.0 24:0.0 25:0.0 26:1.0 27:0.0 28:0.0 29:0.0 30:0.875 31:0.04347826 32:0.04347826 33:0.08695652 34:0.6086956 35:1.0 36:0.85714287 37:0.77272725 38:563808.56 39:0.0 40:0.0 41:2.0 42:2.0 43:0.0 44:0.0 45:0.0 46:0.0 47:0.0 48:0.0 49:0.0 50:0.0 51:2.0 52:0.0 53:0.11764706 54:0.0 55:0.0 56:0.0 57:0.08 58:0.05882353 59:1.36 
0.5947265625 0.716796875 0.8525390624999958 0.46875 1:22.0 2:25.0 3:0.88 4:1.1363636 5:0.13636364 6:5.909091 7:1.0416666 8:4.7727275 9:2.6363637 10:1.8636364 11:1.0 12:0.45454547 13:545180.7 14:223704.1 15:197950.14 16:168331.81 17:136193.55 18:0.0037688985 19:0.0034530843 20:0.0032967567 21:0.002995595 22:0.0024611556 23:0.0 24:0.0 25:0.0 26:1.0 27:0.0 28:0.0 29:0.0 30:0.71428573 31:0.0 32:0.0 33:0.0 34:0.4 35:1.0 36:0.71428573 37:0.4 38:170074.36 39:0.0 40:0.0 41:0.0 42:0.0 43:0.0 44:0.0 45:0.0 46:0.0 47:0.0 48:0.0 49:0.0 50:0.0 51:0.0 52:0.0 53:0.0 54:0.0 55:0.0 56:0.0 57:0.09090909 58:0.16 59:0.5681819 
0.5947265625 0.716796875 0.852539062499996 0.46875 1:24.0 2:18.0 3:1.3333334 4:0.75 5:0.25 6:4.5 7:1.2857143 8:8.541667 9:2.5 10:1.2916666 11:0.8333333 12:0.29166666 13:6315884.0 14:1361551.6 15:402732.0 16:220788.92 17:169728.45 18:0.0016442998 19:0.0010899899 20:9.426812E-4 21:8.205607E-4 22:5.023366E-4 23:0.0 24:0.0 25:0.0 26:1.0 27:0.04347826 28:0.0 29:0.0 30:0.8695652 31:0.045454547 32:0.045454547 33:0.045454547 34:0.5 35:1.0 36:0.9130435 37:0.6363636 38:679377.44 39:0.0 40:0.0 41:3.0 42:3.0 43:0.0 44:0.0 45:0.0 46:0.0 47:0.0 48:0.0 49:0.0 50:0.0 51:3.0 52:0.0 53:0.16666667 54:0.0 55:0.0 56:0.0 57:0.125 58:0.16666667 59:0.75 
0.5947265625 0.716796875 0.852539062499996 0.46875 1:29.0 2:24.0 3:1.2083334 4:0.82758623 5:0.1724138 6:4.965517 7:1.0909091 8:8.0 9:2.3448277 10:1.2758621 11:0.7586207 12:0.41379312 13:3056189.0 14:634735.06 15:208525.86 16:152451.28 17:127968.38 18:0.008110247 19:0.007951441 20:0.007851949 21:0.0058878595 22:1.06596766E-4 23:0.0 24:0.0 25:0.0 26:1.0 27:0.0 28:0.035714287 29:0.0 30:0.89285713 31:0.074074075 32:0.037037037 33:0.074074075 34:0.44444445 35:1.0 36:0.9259259 37:0.6296296 38:363319.0 39:0.0 40:0.0 41:2.0 42:2.0 43:0.0 44:0.0 45:0.0 46:0.0 47:0.0 48:0.0 49:0.0 50:0.0 51:2.0 52:0.0 53:0.083333336 54:0.03448276 55:0.041666668 56:0.0 57:0.1724138 58:0.20833333 59:0.82758623 
0.5947265625 0.716796875 0.852539062499996 0.46875 1:19.0 2:16.0 3:1.1875 4:0.84210527 5:0.15789473 6:5.9473686 7:1.0 8:4.2105265 9:2.0 10:1.3684211 11:0.8947368 12:0.42105263 13:1300623.0 14:378037.6 15:315211.6 16:177641.73 17:141607.38 18:7.81489E-4 19:6.130358E-4 20:4.3257032E-4 21:3.2423352E-4 22:1.537342E-4 23:0.0 24:0.0 25:0.0 26:1.0 27:0.11111111 28:0.055555556 29:0.0 30:0.7222222 31:0.05882353 32:0.0 33:0.0 34:0.29411766 35:1.0 36:0.8888889 37:0.3529412 38:230954.0 39:0.0 40:0.0 41:2.0 42:2.0 43:0.0 44:0.0 45:0.0 46:0.0 47:0.0 48:0.0 49:0.0 50:0.0 51:2.0 52:0.0 53:0.125 54:0.0 55:0.0 56:0.0 57:0.10526316 58:0.125 59:0.84210527 
0.5947265625 0.716796875 0.852539062499996 0.46875 1:26.0 2:22.0 3:1.1818181 4:0.84615386 5:0.15384616 6:4.9615383 7:1.2941177 8:7.8461537 9:3.2692308 10:1.6153846 11:0.7692308 12:0.3846154 13:3030330.8 14:585296.3 15:126849.84 16:115971.96 17:69704.234 18:8.885274E-4 19:6.353496E-4 20:4.54427E-4 21:3.5254328E-4 22:1.7879192E-4 23:0.0 24:0.0 25:0.03846154 26:0.96153843 27:0.0 28:0.04 29:0.0 30:0.76 31:0.0 32:0.0 33:0.0 34:0.29166666 35:1.0 36:0.8333333 37:0.29166666 38:340902.47 39:0.0 40:0.0 41:0.0 42:0.0 43:0.0 44:0.0 45:0.0 46:0.0 47:0.0 48:0.0 49:0.0 50:0.0 51:3.0 52:3.0 53:0.0 54:0.0 55:0.0 56:0.0 57:0.115384616 58:0.09090909 59:1.2692307 
0.5947265625 0.716796875 0.8525390624999942 0.46875 1:26.0 2:27.0 3:0.962963 4:1.0384616 5:0.03846154 6:3.9615386 7:1.125 8:4.4615383 9:1.6538461 10:1.1153846 11:0.96153843 12:0.65384614 13:1195227.5 14:321579.97 15:254736.42 16:210277.5 17:167653.77 18:6.7853084E-4 19:6.1370246E-4 20:5.925283E-4 21:5.8604294E-4 22:3.3242468E-4 23:0.0 24:0.0 25:0.0 26:1.0 27:0.04 28:0.0 29:0.08 30:0.8 31:0.0 32:0.0 33:0.041666668 34:0.5416667 35:1.0 36:0.92 37:0.5833333 38:245973.73 39:0.0 40:0.0 41:0.0 42:0.0 43:0.0 44:0.0 45:0.0 46:0.0 47:0.0 48:0.0 49:0.0 50:0.0 51:0.0 52:0.0 53:0.0 54:0.07692308 55:0.074074075 56:0.0 57:0.26923078 58:0.25925925 59:1.0384616 
0.5947265625 0.716796875 0.8525390624999953 0.46875 1:17.0 2:15.0 3:1.1333333 4:0.88235295 5:0.11764706 6:3.9411764 7:1.1538461 8:6.1764708 9:1.7647059 10:1.117647 11:0.9411765 12:0.64705884 13:1468493.0 14:349213.8 15:274933.94 16:248346.94 17:243900.06 18:4.3444012E-4 19:4.128813E-4 20:3.8702405E-4 21:3.0103876E-4 22:9.1900045E-5 23:0.0 24:0.0 25:0.0 26:1.0 27:0.0 28:0.0 29:0.0 30:0.9375 31:0.06666667 32:0.0 33:0.06666667 34:0.6666667 35:1.0 36:0.9375 37:0.8 38:283775.25 39:0.0 40:0.0 41:0.0 42:0.0 43:0.0 44:0.0 45:0.0 46:0.0 47:0.0 48:0.0 49:0.0 50:0.0 51:0.0 52:0.0 53:0.0 54:0.11764706 55:0.13333334 56:0.0 57:0.4117647 58:0.46666667 59:0.88235295 
0.5947265625 0.716796875 0.8525390624999956 0.46875 1:27.0 2:19.0 3:1.4210526 4:0.7037037 5:0.2962963 6:4.5185184 7:1.117647 8:4.7777777 9:2.3703704 10:1.3703704 11:0.8888889 12:0.5185185 13:2630413.8 14:545954.44 15:210745.52 16:164155.73 17:111000.04 18:6.011114E-4 19:5.360772E-4 20:4.3667012E-4 21:3.431244E-4 22:3.1466468E-4 23:0.0 24:0.0 25:0.0 26:1.0 27:0.0 28:0.0 29:0.07692308 30:0.7692308 31:0.04 32:0.04 33:0.08 34:0.4 35:1.0 36:0.84 37:0.56 38:339649.03 39:0.0 40:0.0 41:0.0 42:0.0 43:0.0 44:0.0 45:0.0 46:0.0 47:0.0 48:0.0 49:0.0 50:0.0 51:0.0 52:0.0 53:0.0 54:0.0 55:0.0 56:0.0 57:0.037037037 58:0.10526316 59:0.35185185 
0.5947265625 0.716796875 0.852539062499996 0.46875 1:17.0 2:16.0 3:1.0625 4:0.9411765 5:0.05882353 6:3.4705882 7:1.1428572 8:5.2352943 9:1.4117647 10:1.0 11:0.8235294 12:0.5294118 13:2914780.2 14:656880.6 15:288353.25 16:261064.83 17:195607.23 18:2.3753152E-4 19:2.096243E-4 20:2.0895849E-4 21:1.9430098E-4 22:1.7229507E-4 23:0.0 24:0.0 25:0.0 26:1.0 27:0.0 28:0.0 29:0.0 30:0.875 31:0.0 32:0.0 33:0.0 34:0.73333335 35:1.0 36:0.875 37:0.73333335 38:398830.28 39:0.0 40:0.0 41:0.0 42:0.0 43:0.0 44:0.0 45:0.0 46:0.0 47:0.0 48:0.0 49:0.0 50:0.0 51:0.0 52:0.0 53:0.0 54:0.11764706 55:0.125 56:0.0 57:0.4117647 58:0.4375 59:0.9411765 
0.5947265625 0.716796875 0.8525390624999937 0.46875 1:21.0 2:20.0 3:1.05 4:0.95238096 5:0.04761905 6:4.6190476 7:1.1764706 8:4.571429 9:2.2380953 10:1.2857143 11:0.85714287 12:0.3809524 13:1699412.6 14:626372.0 15:411947.75 16:278737.16 17:235764.14 18:3.925486E-4 19:3.088981E-4 20:2.1249428E-4 21:1.2677533E-4 22:1.0748838E-5 23:0.0 24:0.0 25:0.0 26:1.0 27:0.0 28:0.0 29:0.05 30:0.85 31:0.0 32:0.0 33:0.10526316 34:0.42105263 35:1.0 36:0.9 37:0.5263158 38:362457.34 39:0.0 40:0.0 41:3.0 42:3.0 43:0.0 44:0.0 45:0.0 46:0.0 47:0.0 48:0.0 49:0.0 50:0.0 51:3.0 52:0.0 53:0.15 54:0.0 55:0.0 56:0.0 57:0.14285715 58:0.1 59:1.4285715 
0.5947265625 0.716796875 0.8525390624999938 0.46875 1:19.0 2:15.0 3:1.2666667 4:0.7894737 5:0.21052632 6:4.5789475 7:1.0714285 8:5.105263 9:2.4210527 10:1.5263158 11:1.0526316 12:0.5263158 13:949210.8 14:583170.56 15:545281.56 16:390325.84 17:356095.53 18:9.867506E-4 19:6.8137347E-4 20:6.584146E-4 21:5.118591E-4 22:1.1685132E-4 23:0.0 24:0.0 25:0.0 26:1.0 27:0.055555556 28:0.055555556 29:0.0 30:0.8888889 31:0.0 32:0.0 33:0.05882353 34:0.7647059 35:1.0 36:1.0 37:0.8235294 38:394041.75 39:0.0 40:0.0 41:3.0 42:3.0 43:0.0 44:0.0 45:0.0 46:0.0 47:0.0 48:0.0 49:0.0 50:0.0 51:3.0 52:0.0 53:0.2 54:0.0 55:0.0 56:0.0 57:0.15789473 58:0.13333334 59:1.1842104 
0.5947265625 0.716796875 0.8525390624999912 0.46875 1:19.0 2:19.0 3:1.0 4:1.0 5:0.0 6:4.263158 7:1.117647 8:4.0526314 9:1.3157895 10:0.94736844 11:0.57894737 12:0.36842105 13:4033900.8 14:754325.5 15:240785.38 16:127264.0 17:124819.945 18:3.1456843E-4 19:3.0876047E-4 20:2.792296E-4 21:1.3117892E-4 22:4.203069E-5 23:0.0 24:0.0 25:0.0 26:1.0 27:0.055555556 28:0.0 29:0.055555556 30:0.8888889 31:0.05882353 32:0.0 33:0.05882353 34:0.5294118 35:1.0 36:1.0 37:0.64705884 38:438100.53 39:0.0 40:0.0 41:0.0 42:0.0 43:0.0 44:0.0 45:0.0 46:0.0 47:0.0 48:0.0 49:0.0 50:0.0 51:0.0 52:0.0 53:0.0 54:0.05263158 55:0.05263158 56:0.0 57:0.21052632 58:0.21052632 59:1.0 
0.5947265625 0.716796875 0.8525390624999912 0.46875 1:15.0 2:10.0 3:1.5 4:0.6666667 5:0.33333334 6:5.4 7:1.0 8:5.9333334 9:2.4666667 10:1.6 11:1.0666667 12:0.46666667 13:2581279.0 14:518985.06 15:201071.2 16:168207.67 17:163758.2 18:3.7110242E-4 19:3.314603E-4 20:2.512787E-4 21:1.6071618E-4 22:5.6943987E-5 23:0.0 24:0.0 25:0.0 26:1.0 27:0.0 28:0.0 29:0.0 30:0.9285714 31:0.0 32:0.07692308 33:0.07692308 34:0.46153846 35:1.0 36:0.9285714 37:0.61538464 38:323401.34 39:0.0 40:0.0 41:0.0 42:0.0 43:0.0 44:0.0 45:0.0 46:0.0 47:0.0 48:0.0 49:0.0 50:0.0 51:0.0 52:0.0 53:0.0 54:0.0 55:0.0 56:0.0 57:0.06666667 58:0.1 59:0.6666667 
0.5947265625 0.716796875 0.8525390624999913 0.46875 1:40.0 2:23.0 3:1.7391304 4:0.575 5:0.425 6:3.825 7:1.4375 8:8.45 9:2.275 10:1.475 11:0.75 12:0.275 13:5709845.0 14:1026600.8 15:247881.72 16:114706.35 17:78895.1 18:5.1814993E-4 19:3.359802E-4 20:3.1334037E-4 21:2.3798435E-4 22:1.9055071E-4 23:0.0 24:0.0 25:0.0 26:1.0 27:0.025641026 28:0.0 29:0.0 30:0.9230769 31:0.0 32:0.0 33:0.0 34:0.81578946 35:1.0 36:0.92 37:0.75 38:543066.6 39:0.0 40:0.0 41:2.0 42:2.0 43:0.0 44:0.0 45:0.0 46:0.0 47:0.0 48:0.0 49:0.0 50:0.0 51:2.0 52:0.0 53:0.08695652 54:0.0 55:0.0 56:0.0 57:0.05 58:0.13043478 59:0.38333336 
0.5947265625 0.716796875 0.8525390624999913 0.46875 1:24.0 2:21.0 3:1.1428572 4:0.875 5:0.125 6:3.5 7:1.1052631 8:8.875 9:1.9166666 10:1.0833334 11:0.625 12:0.375 13:4451552.5 14:802252.25 15:214250.38 16:142919.55 17:106215.664 18:0.0014319369 19:9.169259E-4 20:8.4849546E-4 21:3.6429102E-4 22:2.1823433E-4 23:0.0 24:0.0 25:0.0 26:1.0 27:0.0 28:0.0 29:0.04347826 30:0.9130435 31:0.0 32:0.0 33:0.0 34:0.72727275 35:1.0 36:0.95652175 37:0.72727275 38:449229.25 39:0.0 40:0.0 41:0.0 42:0.0 43:0.0 44:0.0 45:0.0 46:0.0 47:0.0 48:0.0 49:0.0 50:0.0 51:0.0 52:0.0 53:0.0 54:0.041666668 55:0.04761905 56:0.0 57:0.20833333 58:0.23809524 59:0.875 
0.5947265625 0.716796875 0.8525390624999922 0.46875 1:34.0 2:29.0 3:1.1724138 4:0.85294116 5:0.14705883 6:3.4411764 7:1.2608696 8:9.470589 9:2.5 10:1.1764706 11:0.61764705 12:0.44117647 13:4266042.0 14:827350.5 15:286122.62 16:179597.06 17:161501.67 18:6.3291134E-4 19:3.78595E-4 20:2.4464284E-4 21:1.9656005E-4 22:1.5955887E-4 23:0.0 24:0.0 25:0.0 26:0.9705882 27:0.0 28:0.0 29:0.030303031 30:0.8787879 31:0.03125 32:0.03125 33:0.03125 34:0.71875 35:0.96 36:0.90625 37:0.8125 38:467372.22 39:0.0 40:0.0 41:2.0 42:2.0 43:0.0 44:0.0 45:0.0 46:0.0 47:0.0 48:0.0 49:0.0 50:0.0 51:2.0 52:0.0 53:0.06896552 54:0.05882353 55:0.06896552 56:0.0 57:0.2647059 58:0.27586207 59:0.9595589 
0.5947265625 0.716796875 0.8525390624999922 0.46875 1:17.0 2:14.0 3:1.2142857 4:0.8235294 5:0.1764706 6:5.7058825 7:1.0 8:5.0588236 9:1.7058823 10:0.7647059 11:0.5882353 12:0.4117647 13:2691520.0 14:611299.3 15:220723.64 16:157094.0 17:113613.586 18:0.0010407714 19:0.001001124 20:9.814115E-4 21:6.875599E-4 22:3.9597566E-4 23:0.0 24:0.0 25:0.0 26:0.88235295 27:0.0 28:0.0 29:0.0 30:0.6875 31:0.0 32:0.0 33:0.0 34:0.4 35:0.88235295 36:0.6875 37:0.4 38:333234.0 39:0.0 40:0.0 41:0.0 42:0.0 43:0.0 44:0.0 45:0.0 46:0.0 47:0.0 48:0.0 49:0.0 50:0.0 51:2.0 52:2.0 53:0.0 54:0.0 55:0.0 56:0.0 57:0.11764706 58:0.14285715 59:0.82352936 
0.5947265625 0.716796875 0.8515625 0.46875 1:28.0 2:24.0 3:1.1666666 4:0.85714287 5:0.14285715 6:3.75 7:1.3333334 8:4.357143 9:2.0 10:1.3571428 11:1.0 12:0.60714287 13:2117490.8 14:593239.3 15:315636.66 16:265138.97 17:241636.64 18:4.607199E-4 19:3.8864164E-4 20:3.3462784E-4 21:1.955827E-4 22:5.2528463E-5 23:0.0 24:0.0 25:0.0 26:1.0 27:0.0 28:0.0 29:0.0 30:0.8518519 31:0.0 32:0.07692308 33:0.0 34:0.65384614 35:1.0 36:0.84 37:0.7307692 38:400041.28 39:0.0 40:0.0 41:2.0 42:2.0 43:0.0 44:0.0 45:0.0 46:0.0 47:0.0 48:0.0 49:0.0 50:0.0 51:2.0 52:0.0 53:0.083333336 54:0.10714286 55:0.125 56:0.0 57:0.39285713 58:0.45833334 59:0.8571428 
0.5947265625 0.716796875 0.8515625 0.46875 1:30.0 2:23.0 3:1.3043479 4:0.76666665 5:0.23333333 6:4.4333334 7:1.2105263 8:6.133333 9:1.8666667 10:0.96666664 11:0.6666667 12:0.56666666 13:3543686.8 14:784541.1 15:322447.5 16:178815.4 17:171585.77 18:0.033864032 19:0.017097963 20:0.016983455 21:0.016947785 22:0.016946005 23:0.0 24:0.0 25:0.0 26:1.0 27:0.0 28:0.0 29:0.0 30:0.82758623 31:0.071428575 32:0.071428575 33:0.10714286 34:0.35714287 35:1.0 36:0.82758623 37:0.60714287 38:422492.72 39:0.0 40:0.0 41:3.0 42:3.0 43:0.0 44:0.0 45:0.0 46:0.0 47:0.0 48:0.0 49:0.0 50:0.0 51:3.0 52:0.0 53:0.13043478 54:0.033333335 55:0.04347826 56:0.0 57:0.2 58:0.3043478 59:0.6571429 
0.5947265625 0.716796875 0.8515625 0.46875 1:19.0 2:17.0 3:1.117647 4:0.8947368 5:0.10526316 6:6.2105265 7:1.1333333 8:4.736842 9:2.1052632 10:1.4736842 11:0.94736844 12:0.68421054 13:1804928.4 14:603705.06 15:298665.25 16:198103.05 17:168583.89 18:0.0013154766 19:0.0011668984 20:0.001128852 21:0.0010778845 22:7.194451E-4 23:0.0 24:0.0 25:0.0 26:1.0 27:0.055555556 28:0.0 29:0.055555556 30:0.6111111 31:0.05882353 32:0.0 33:0.0 34:0.23529412 35:1.0 36:0.7222222 37:0.29411766 38:304008.53 39:0.0 40:0.0 41:2.0 42:2.0 43:0.0 44:0.0 45:0.0 46:0.0 47:0.0 48:0.0 49:0.0 50:0.0 51:2.0 52:0.0 53:0.11764706 54:0.0 55:0.0 56:0.0 57:0.15789473 58:0.11764706 59:1.3421052 
0.5947265625 0.716796875 0.8515625 0.46875 1:17.0 2:16.0 3:1.0625 4:0.9411765 5:0.05882353 6:5.1764708 7:1.7777778 8:6.647059 9:2.0588236 10:1.1764706 11:0.88235295 12:0.4117647 13:1641400.9 14:519828.2 15:439884.6 16:333789.06 17:306650.6 18:0.0015450465 19:0.001478795 20:7.805048E-4 21:5.478259E-4 22:8.230268E-5 23:0.0 24:0.0 25:0.0 26:0.9411765 27:0.0625 28:0.0 29:0.0625 30:0.625 31:0.0 32:0.06666667 33:0.0 34:0.33333334 35:0.9166667 36:0.73333335 37:0.4 38:360031.06 39:0.0 40:0.0 41:2.0 42:2.0 43:0.0 44:0.0 45:0.0 46:0.0 47:0.0 48:0.0 49:0.0 50:0.0 51:2.0 52:0.0 53:0.125 54:0.0 55:0.0 56:0.0 57:0.1764706 58:0.0625 59:2.8235295 
0.5947265625 0.716796875 0.8515625 0.46875 1:30.0 2:22.0 3:1.3636364 4:0.73333335 5:0.26666668 6:4.6666665 7:1.2222222 8:5.4 9:2.2666667 10:1.5666667 11:1.0 12:0.46666667 13:2750086.5 14:593278.1 15:242737.23 16:121131.734 17:85671.164 18:0.001576063 19:0.0014972986 20:0.0014780884 21:0.0014292959 22:0.0013104132 23:0.0 24:0.0 25:0.0 26:1.0 27:0.06896552 28:0.0 29:0.03448276 30:0.82758623 31:0.035714287 32:0.035714287 33:0.035714287 34:0.42857143 35:1.0 36:0.9285714 37:0.53571427 38:296536.8 39:0.0 40:0.0 41:2.0 42:2.0 43:0.0 44:0.0 45:0.0 46:0.0 47:0.0 48:0.0 49:0.0 50:0.0 51:2.0 52:0.0 53:0.09090909 54:0.0 55:0.0 56:0.0 57:0.06666667 58:0.13636364 59:0.4888889 
0.5947265625 0.716796875 0.8515625 0.46875 1:18.0 2:13.0 3:1.3846154 4:0.7222222 5:0.2777778 6:7.0555553 7:1.0833334 8:4.1666665 9:1.5555556 10:1.2222222 11:0.7777778 12:0.3888889 13:1699462.4 14:391270.5 15:175915.44 16:173098.33 17:135981.56 18:5.678321E-4 19:4.8131117E-4 20:4.6901844E-4 21:3.954772E-4 22:3.5445121E-4 23:0.0 24:0.0 25:0.0 26:1.0 27:0.0 28:0.11764706 29:0.0 30:0.8235294 31:0.125 32:0.0625 33:0.0625 34:0.375 35:1.0 36:0.93333334 37:0.6666667 38:275668.88 39:0.0 40:0.0 41:0.0 42:0.0 43:0.0 44:0.0 45:0.0 46:0.0 47:0.0 48:0.0 49:0.0 50:0.0 51:0.0 52:0.0 53:0.0 54:0.0 55:0.0 56:0.0 57:0.055555556 58:0.07692308 59:0.7222222 
0.5947265625 0.716796875 0.8515625 0.46875 1:25.0 2:21.0 3:1.1904762 4:0.84 5:0.16 6:4.24 7:1.05 8:5.56 9:2.08 10:1.56 11:1.12 12:0.68 13:933221.4 14:375782.12 15:365200.03 16:306698.75 17:258408.64 18:4.1420275E-4 19:2.8792088E-4 20:2.4823056E-4 21:1.9562324E-4 22:9.816915E-5 23:0.0 24:0.0 25:0.0 26:0.96 27:0.0 28:0.0 29:0.041666668 30:0.875 31:0.0 32:0.0 33:0.08695652 34:0.6086956 35:0.95238096 36:0.9166667 37:0.6956522 38:308009.2 39:0.0 40:0.0 41:2.0 42:2.0 43:0.0 44:0.0 45:0.0 46:0.0 47:0.0 48:0.0 49:0.0 50:0.0 51:2.0 52:0.0 53:0.0952381 54:0.0 55:0.04761905 56:0.04761905 57:0.2 58:0.2857143 59:0.7 
0.5947265625 0.716796875 0.8515625 0.46875 1:19.0 2:16.0 3:1.1875 4:0.84210527 5:0.15789473 6:3.7368422 7:1.0 8:7.1578946 9:2.2631578 10:1.4210526 11:0.7368421 12:0.36842105 13:3664844.2 14:746382.2 15:205339.38 16:171182.27 17:113348.79 18:0.004082308 19:0.00382314 20:0.003676029 21:0.0034946718 22:0.00312328 23:0.0 24:0.0 25:0.0 26:1.0 27:0.0 28:0.0 29:0.0 30:0.9444444 31:0.0 32:0.11764706 33:0.05882353 34:0.64705884 35:1.0 36:0.9444444 37:0.8235294 38:400125.47 39:0.0 40:0.0 41:0.0 42:0.0 43:0.0 44:0.0 45:0.0 46:0.0 47:0.0 48:0.0 49:0.0 50:0.0 51:0.0 52:0.0 53:0.0 54:0.05263158 55:0.0625 56:0.0 57:0.21052632 58:0.25 59:0.84210527 
0.5947265625 0.716796875 0.8515625 0.46875 1:30.0 2:26.0 3:1.1538461 4:0.8666667 5:0.13333334 6:3.0333333 7:1.5294118 8:4.7 9:1.8666667 10:1.3 11:0.76666665 12:0.6 13:1782770.4 14:474749.6 15:309011.12 16:285506.44 17:258023.7 18:2.6922062E-4 19:2.08684E-4 20:1.9239899E-4 21:1.4542557E-4 22:7.3945805E-5 23:0.0 24:0.0 25:0.0 26:1.0 27:0.03448276 28:0.0 29:0.0 30:0.8965517 31:0.0 32:0.035714287 33:0.0 34:0.78571427 35:1.0 36:0.96 37:0.84 38:365921.28 39:0.0 40:0.0 41:0.0 42:0.0 43:0.0 44:0.0 45:0.0 46:0.0 47:0.0 48:0.0 49:0.0 50:0.0 51:0.0 52:0.0 53:0.0 54:0.13333334 55:0.15384616 56:0.0 57:0.43333334 58:0.5 59:0.8666667 
0.5947265625 0.716796875 0.8515625 0.46875 1:20.0 2:17.0 3:1.1764706 4:0.85 5:0.15 6:4.6 7:1.3076923 8:7.45 9:2.95 10:1.85 11:1.1 12:0.2 13:1915362.0 14:496628.16 15:189546.0 16:173809.7 17:105207.3 18:0.005078818 19:0.004499196 20:0.004113483 21:0.003732297 22:0.0025384412 23:0.0 24:0.0 25:0.0 26:1.0 27:0.0 28:0.0 29:0.05263158 30:0.8947368 31:0.0 32:0.055555556 33:0.0 34:0.6111111 35:1.0 36:0.9444444 37:0.6666667 38:275148.84 39:0.0 40:0.0 41:0.0 42:0.0 43:0.0 44:0.0 45:0.0 46:0.0 47:0.0 48:0.0 49:0.0 50:0.0 51:2.0 52:2.0 53:0.0 54:0.0 55:0.0 56:0.0 57:0.2 58:0.23529412 59:0.85 
0.5947265625 0.716796875 0.8515625 0.46875 1:23.0 2:19.0 3:1.2105263 4:0.82608694 5:0.17391305 6:5.304348 7:1.2666667 8:5.173913 9:1.9565217 10:1.1304348 11:0.8695652 12:0.6086956 13:2426184.0 14:531511.7 15:274409.66 16:207745.17 17:207031.05 18:6.0288334E-4 19:5.457127E-4 20:3.6744247E-4 21:2.631782E-4 22:8.9416935E-5 23:0.0 24:0.0 25:0.0 26:0.9130435 27:0.0 28:0.0 29:0.045454547 30:0.77272725 31:0.04761905 32:0.0 33:0.14285715 34:0.47619048 35:0.95238096 36:0.8181818 37:0.6666667 38:355825.6 39:0.0 40:0.0 41:0.0 42:0.0 43:0.0 44:0.0 45:0.0 46:0.0 47:0.0 48:0.0 49:0.0 50:0.0 51:0.0 52:0.0 53:0.0 54:0.04347826 55:0.05263158 56:0.0 57:0.17391305 58:0.21052632 59:0.82608694 
0.5947265625 0.716796875 0.8515625 0.46875 1:19.0 2:15.0 3:1.2666667 4:0.7894737 5:0.21052632 6:3.8421052 7:1.1538461 8:3.3157895 9:1.5263158 10:1.1578947 11:1.0526316 12:0.7894737 13:645102.2 14:296477.1 15:293487.6 16:292627.6 17:261277.8 18:2.2449846E-4 19:1.6880546E-4 20:1.4421417E-4 21:1.3133006E-4 22:9.09986E-5 23:0.0 24:0.0 25:0.0 26:1.0 27:0.0 28:0.11111111 29:0.055555556 30:0.8333333 31:0.0 32:0.0 33:0.05882353 34:0.64705884 35:1.0 36:1.0 37:0.7058824 38:291892.16 39:0.0 40:0.0 41:0.0 42:0.0 43:0.0 44:0.0 45:0.0 46:0.0 47:0.0 48:0.0 49:0.0 50:0.0 51:0.0 52:0.0 53:0.0 54:0.10526316 55:0.13333334 56:0.0 57:0.36842105 58:0.46666667 59:0.78947365 
0.5947265625 0.716796875 0.8515625 0.46875 1:31.0 2:25.0 3:1.24 4:0.8064516 5:0.19354838 6:3.580645 7:1.3888888 8:5.2580647 9:1.516129 10:1.1290323 11:0.83870965 12:0.67741936 13:3492958.0 14:668770.0 15:289085.72 16:166485.94 17:163121.67 18:0.0011594812 19:0.0011042 20:0.0010983809 21:0.001076308 22:6.837325E-4 23:0.0 24:0.0 25:0.0 26:1.0 27:0.0 28:0.0 29:0.0 30:0.8666667 31:0.03448276 32:0.0 33:0.03448276 34:0.7241379 35:1.0 36:0.8666667 37:0.79310346 38:407143.25 39:0.0 40:0.0 41:0.0 42:0.0 43:0.0 44:0.0 45:0.0 46:0.0 47:0.0 48:0.0 49:0.0 50:0.0 51:0.0 52:0.0 53:0.0 54:0.09677419 55:0.12 56:0.0 57:0.32258064 58:0.4 59:0.80645156 
0.5947265625 0.716796875 0.8515625 0.46875 1:24.0 2:22.0 3:1.0909091 4:0.9166667 5:0.083333336 6:6.0 7:1.2941177 8:6.9166665 9:3.25 10:1.8333334 11:1.2916666 12:0.41666666 13:2811023.2 14:589537.06 15:201497.33 16:178547.95 17:139443.55 18:7.2104105E-4 19:6.3258124E-4 20:5.2334944E-4 21:3.961498E-4 22:1.8877705E-4 23:0.0 24:0.0 25:0.0 26:1.0 27:0.0 28:0.0 29:0.0 30:1.0 31:0.045454547 32:0.0 33:0.0 34:0.6363636 35:1.0 36:1.0 37:0.71428573 38:348614.16 39:0.0 40:0.0 41:0.0 42:0.0 43:0.0 44:0.0 45:0.0 46:0.0 47:0.0 48:0.0 49:0.0 50:0.0 51:0.0 52:0.0 53:0.0 54:0.0 55:0.0 56:0.0 57:0.041666668 58:0.09090909 59:0.45833334 
0.5947265625 0.716796875 0.8515625 0.46875 1:31.0 2:25.0 3:1.24 4:0.8064516 5:0.19354838 6:4.193548 7:1.25 8:2.483871 9:1.451613 10:1.1935484 11:0.9032258 12:0.6451613 13:794375.7 14:494831.38 15:492135.84 16:311837.66 17:271473.03 18:5.058291E-4 19:4.1822085E-4 20:3.7501735E-4 21:3.648614E-4 22:3.4048865E-4 23:0.0 24:0.0 25:0.0 26:0.9677419 27:0.06666667 28:0.0 29:0.06666667 30:0.6 31:0.03448276 32:0.0 33:0.0 34:0.2413793 35:0.9444444 36:0.7916667 37:0.30769232 38:311016.72 39:0.0 40:0.0 41:5.0 42:5.0 43:0.0 44:0.0 45:0.0 46:0.0 47:0.0 48:0.0 49:0.0 50:0.0 51:5.0 52:0.0 53:0.2 54:0.0 55:0.0 56:0.0 57:0.16129032 58:0.16 59:1.0080645 
0.5947265625 0.716796875 0.8515625 0.46875 1:24.0 2:21.0 3:1.1428572 4:0.875 5:0.125 6:4.2083335 7:1.1052631 8:9.25 9:2.9166667 10:1.6666666 11:0.75 12:0.20833333 13:4310719.5 14:776327.3 15:194093.62 16:90264.875 17:57574.207 18:0.0012531244 19:9.0621755E-4 20:8.210764E-4 21:7.389062E-4 22:6.881135E-4 23:0.0 24:0.0 25:0.0 26:1.0 27:0.0 28:0.04347826 29:0.0 30:0.82608694 31:0.0 32:0.045454547 33:0.045454547 34:0.54545456 35:1.0 36:0.8636364 37:0.6363636 38:422033.12 39:0.0 40:0.0 41:0.0 42:0.0 43:0.0 44:0.0 45:0.0 46:0.0 47:0.0 48:0.0 49:0.0 50:0.0 51:0.0 52:0.0 53:0.0 54:0.0 55:0.0 56:0.0 57:0.041666668 58:0.0952381 59:0.4375 
0.5947265625 0.716796875 0.8515625 0.46875 1:31.0 2:22.0 3:1.4090909 4:0.7096774 5:0.29032257 6:5.129032 7:1.2222222 8:6.612903 9:2.2580645 10:1.1612903 11:0.67741936 12:0.38709676 13:5475125.5 14:1136903.0 15:261228.58 16:136482.12 17:116114.09 18:5.629919E-4 19:5.0240813E-4 20:4.6288394E-4 21:4.359668E-4 22:3.475732E-4 23:0.0 24:0.0 25:0.0 26:1.0 27:0.1 28:0.0 29:0.0 30:0.8666667 31:0.0 32:0.0 33:0.03448276 34:0.62068963 35:1.0 36:0.96428573 37:0.6551724 38:576806.5 39:0.0 40:0.0 41:2.0 42:2.0 43:0.0 44:0.0 45:0.0 46:0.0 47:0.0 48:0.0 49:0.0 50:0.0 51:2.0 52:0.0 53:0.09090909 54:0.0 55:0.0 56:0.0 57:0.12903225 58:0.18181819 59:0.7096774 
0.5947265625 0.716796875 0.8515625 0.46875 1:23.0 2:21.0 3:1.0952381 4:0.9130435 5:0.08695652 6:2.5217392 7:1.3125 8:4.869565 9:2.173913 10:1.5217391 11:0.73913044 12:0.65217394 13:2670823.0 14:834597.5 15:495907.4 16:367714.66 17:342668.03 18:3.8498838E-4 19:2.496273E-4 20:1.9515477E-4 21:1.1796898E-4 22:6.881894E-5 23:0.0 24:0.0 25:0.0 26:1.0 27:0.045454547 28:0.0 29:0.0 30:0.90909094 31:0.0 32:0.0 33:0.0 34:0.85714287 35:1.0 36:0.95238096 37:0.85714287 38:535805.06 39:0.0 40:0.0 41:3.0 42:3.0 43:0.0 44:0.0 45:0.0 46:0.0 47:0.0 48:0.0 49:0.0 50:0.0 51:3.0 52:0.0 53:0.14285715 54:0.13043478 55:0.14285715 56:0.0 57:0.5217391 58:0.52380955 59:0.9960474 
0.5947265625 0.716796875 0.8515625 0.46875 1:17.0 2:12.0 3:1.4166666 4:0.7058824 5:0.29411766 6:4.7647057 7:1.2 8:7.7647057 9:2.2941177 10:0.88235295 11:0.7647059 12:0.3529412 13:2210328.0 14:628679.44 15:268726.25 16:261882.6 17:180566.0 18:0.008180876 19:0.006999055 20:0.0066651185 21:0.0066630957 22:0.00657997 23:0.0 24:0.0 25:0.0 26:1.0 27:0.0 28:0.0 29:0.125 30:0.6875 31:0.0 32:0.0 33:0.06666667 34:0.4 35:1.0 36:0.85714287 37:0.5 38:369961.53 39:0.0 40:0.0 41:0.0 42:0.0 43:0.0 44:0.0 45:0.0 46:0.0 47:0.0 48:0.0 49:0.0 50:0.0 51:0.0 52:0.0 53:0.0 54:0.0 55:0.0 56:0.0 57:0.05882353 58:0.083333336 59:0.7058823 
0.5947265625 0.716796875 0.8515625 0.46875 1:28.0 2:22.0 3:1.2727273 4:0.78571427 5:0.21428572 6:4.785714 7:1.375 8:7.821429 9:3.2142856 10:1.75 11:0.75 12:0.35714287 13:3020036.8 14:598669.06 15:176809.22 16:164868.5 17:101276.43 18:6.4457196E-4 19:3.9406176E-4 20:1.9475541E-4 21:7.218578E-5 22:3.709785E-5 23:0.0 24:0.0 25:0.0 26:1.0 27:0.0 28:0.0 29:0.0 30:0.8148148 31:0.0 32:0.0 33:0.0 34:0.30769232 35:1.0 36:0.82608694 37:0.32 38:373285.3 39:0.0 40:0.0 41:0.0 42:0.0 43:0.0 44:0.0 45:0.0 46:0.0 47:0.0 48:0.0 49:0.0 50:0.0 51:2.0 52:2.0 53:0.0 54:0.0 55:0.0 56:0.0 57:0.10714286 58:0.09090909 59:1.1785715 
0.5947265625 0.716796875 0.8515625 0.46875 1:21.0 2:21.0 3:1.0 4:1.0 5:0.0 6:4.952381 7:1.1666666 8:7.142857 9:2.5238094 10:1.0 11:0.71428573 12:0.2857143 13:3420498.2 14:794285.5 15:296166.25 16:207142.86 17:151995.67 18:0.0031859225 19:0.0030289902 20:0.0028914663 21:0.0028787497 22:0.0028608728 23:0.0 24:0.0 25:0.0 26:1.0 27:0.05 28:0.0 29:0.0 30:0.75 31:0.0 32:0.0 33:0.05263158 34:0.42105263 35:1.0 36:0.8 37:0.47368422 38:410119.72 39:0.0 40:0.0 41:2.0 42:2.0 43:0.0 44:0.0 45:0.0 46:0.0 47:0.0 48:0.0 49:0.0 50:0.0 51:2.0 52:0.0 53:0.0952381 54:0.0 55:0.0 56:0.0 57:0.0952381 58:0.14285715 59:0.6666666 
0.5947265625 0.716796875 0.8515625 0.46875 1:37.0 2:34.0 3:1.0882353 4:0.9189189 5:0.08108108 6:4.5135136 7:1.36 8:6.891892 9:2.8108108 10:1.4324324 11:0.6486486 12:0.3783784 13:4090169.0 14:884514.6 15:264665.16 16:140767.97 17:106174.375 18:9.881388E-4 19:7.9894083E-4 20:4.8031638E-4 21:2.853356E-4 22:2.287053E-4 23:0.0 24:0.0 25:0.0 26:1.0 27:0.0 28:0.0 29:0.0 30:0.9166667 31:0.0 32:0.028571429 33:0.08571429 34:0.54285717 35:1.0 36:0.9117647 37:0.64705884 38:439526.3 39:0.0 40:0.0 41:3.0 42:3.0 43:0.0 44:0.0 45:0.0 46:0.0 47:0.0 48:0.0 49:0.0 50:0.0 51:3.0 52:0.0 53:0.0882353 54:0.0 55:0.0 56:0.0 57:0.10810811 58:0.0882353 59:1.2252252 
0.5947265625 0.716796875 0.8515625 0.46875 1:33.0 2:30.0 3:1.1 4:0.90909094 5:0.09090909 6:5.0 7:1.25 8:5.3030305 9:2.090909 10:1.4545455 11:1.030303 12:0.6666667 13:2152945.0 14:458099.44 15:183531.78 16:165751.03 17:154604.22 18:5.513679E-4 19:4.5845265E-4 20:4.2974093E-4 21:2.8728895E-4 22:1.5933318E-4 23:0.0 24:0.0 25:0.0 26:0.93939394 27:0.0 28:0.0 29:0.0 30:0.8125 31:0.0 32:0.032258064 33:0.06451613 34:0.41935483 35:0.9583333 36:0.8518519 37:0.5555556 38:296101.8 39:0.0 40:0.0 41:0.0 42:0.0 43:0.0 44:0.0 45:0.0 46:0.0 47:0.0 48:0.0 49:0.0 50:0.0 51:0.0 52:0.0 53:0.0 54:0.0 55:0.06666667 56:0.06666667 57:0.21212122 58:0.33333334 59:0.6363636 
0.5947265625 0.716796875 0.8515625 0.46875 1:30.0 2:19.0 3:1.5789474 4:0.6333333 5:0.36666667 6:4.6666665 7:1.117647 8:7.5666666 9:3.5666666 10:1.5666667 11:0.6333333 12:0.36666667 13:2668252.2 14:770378.9 15:339693.28 16:229775.73 17:216771.1 18:9.826763E-4 19:8.104525E-4 20:6.5409E-4 21:2.9492067E-4 22:2.699497E-4 23:0.0 24:0.0 25:0.0 26:1.0 27:0.0 28:0.0 29:0.06896552 30:0.9310345 31:0.035714287 32:0.071428575 33:0.035714287 34:0.6785714 35:1.0 36:1.0 37:0.8214286 38:428406.0 39:0.0 40:0.0 41:3.0 42:3.0 43:0.0 44:0.0 45:0.0 46:0.0 47:0.0 48:0.0 49:0.0 50:0.0 51:3.0 52:0.0 53:0.15789473 54:0.0 55:0.0 56:0.0 57:0.13333334 58:0.15789473 59:0.8444445 
0.5947265625 0.716796875 0.8515625 0.46875 1:25.0 2:21.0 3:1.1904762 4:0.84 5:0.16 6:3.12 7:1.1052631 8:9.96 9:2.12 10:0.96 11:0.6 12:0.44 13:4943958.5 14:945908.9 15:345259.44 16:203752.92 17:176964.92 18:8.3947426E-4 19:3.0870282E-4 20:2.6462105E-4 21:2.596407E-4 22:2.5438424E-4 23:0.0 24:0.0 25:0.0 26:1.0 27:0.0 28:0.0 29:0.0 30:1.0 31:0.04347826 32:0.04347826 33:0.04347826 34:0.7826087 35:1.0 36:1.0 37:0.9130435 38:520157.1 39:0.0 40:0.0 41:2.0 42:2.0 43:0.0 44:0.0 45:0.0 46:0.0 47:0.0 48:0.0 49:0.0 50:0.0 51:2.0 52:0.0 53:0.0952381 54:0.08 55:0.0952381 56:0.0 57:0.32 58:0.3809524 59:0.84 
0.5947265625 0.716796875 0.8515625 0.46875 1:25.0 2:25.0 3:1.0 4:1.0 5:0.0 6:3.88 7:1.1904762 8:3.96 9:1.68 10:1.08 11:0.96 12:0.8 13:1214869.8 14:464496.62 15:426047.16 16:353860.97 17:328304.03 18:7.7056326E-4 19:6.340139E-4 20:4.5222376E-4 21:4.4001295E-4 22:4.151002E-4 23:0.0 24:0.0 25:0.0 26:0.96 27:0.0 28:0.0 29:0.083333336 30:0.8333333 31:0.0 32:0.04347826 33:0.08695652 34:0.6956522 35:0.9444444 36:0.9166667 37:0.82608694 38:369209.25 39:0.0 40:0.0 41:2.0 42:2.0 43:0.0 44:0.0 45:0.0 46:0.0 47:0.0 48:0.0 49:0.0 50:0.0 51:2.0 52:0.0 53:0.08 54:0.12 55:0.12 56:0.0 57:0.44 58:0.44 59:1.0 
0.5947265625 0.716796875 0.8515625 0.46875 1:20.0 2:13.0 3:1.5384616 4:0.65 5:0.35 6:4.75 7:1.0833334 8:7.75 9:2.6 10:1.45 11:0.7 12:0.35 13:3911440.8 14:856704.8 15:259689.5 16:193654.9 17:110696.1 18:4.5705997E-4 19:3.661174E-4 20:2.9351114E-4 21:1.9341339E-4 22:1.5995014E-4 23:0.0 24:0.0 25:0.0 26:1.0 27:0.0 28:0.0 29:0.0 30:0.8947368 31:0.055555556 32:0.0 33:0.055555556 34:0.6666667 35:1.0 36:0.8888889 37:0.7777778 38:438462.25 39:0.0 40:0.0 41:0.0 42:0.0 43:0.0 44:0.0 45:0.0 46:0.0 47:0.0 48:0.0 49:0.0 50:0.0 51:0.0 52:0.0 53:0.0 54:0.0 55:0.0 56:0.0 57:0.05 58:0.15384616 59:0.325 
0.5947265625 0.716796875 0.8515625 0.46875 1:27.0 2:21.0 3:1.2857143 4:0.7777778 5:0.22222222 6:3.3333333 7:1.3125 8:6.3703704 9:1.2592592 10:0.8518519 11:0.7037037 12:0.5555556 13:3224320.2 14:616197.7 15:254151.6 16:192589.81 17:184088.67 18:3.4133194E-4 19:2.9132148E-4 20:2.7020584E-4 21:2.4921403E-4 22:1.9815534E-4 23:0.0 24:0.0 25:0.0 26:1.0 27:0.0 28:0.0 29:0.03846154 30:0.96153843 31:0.0 32:0.0 33:0.24 34:0.68 35:1.0 36:1.0 37:0.92 38:402830.16 39:0.0 40:0.0 41:0.0 42:0.0 43:0.0 44:0.0 45:0.0 46:0.0 47:0.0 48:0.0 49:0.0 50:0.0 51:0.0 52:0.0 53:0.0 54:0.11111111 55:0.14285715 56:0.0 57:0.37037036 58:0.47619048 59:0.77777773 
0.5947265625 0.716796875 0.8515625 0.46875 1:28.0 2:25.0 3:1.12 4:0.89285713 5:0.10714286 6:3.892857 7:1.0869565 8:3.5 9:1.9642857 10:1.5357143 11:1.0714285 12:0.53571427 13:664341.56 14:333943.4 15:316041.56 16:261003.92 17:226050.14 18:5.383307E-4 19:4.7284778E-4 20:4.4282543E-4 21:2.5853055E-4 22:5.7830188E-5 23:0.0 24:0.0 25:0.0 26:1.0 27:0.0 28:0.0 29:0.0 30:0.9259259 31:0.0 32:0.07692308 33:0.0 34:0.5769231 35:1.0 36:0.9230769 37:0.65384614 38:259575.11 39:0.0 40:0.0 41:2.0 42:2.0 43:0.0 44:0.0 45:0.0 46:0.0 47:0.0 48:0.0 49:0.0 50:0.0 51:2.0 52:0.0 53:0.08 54:0.071428575 55:0.08 56:0.0 57:0.2857143 58:0.32 59:0.8928572 
0.5947265625 0.716796875 0.8515625 0.46875 1:12.0 2:12.0 3:1.0 4:1.0 5:0.0 6:6.8333335 7:1.0 8:6.3333335 9:3.25 10:2.0833333 11:1.4166666 12:0.41666666 13:959569.06 14:448842.4 15:400573.1 16:267094.5 17:210585.5 18:5.674244E-4 19:4.8295353E-4 20:3.538046E-4 21:2.9682342E-4 22:1.5285461E-4 23:0.0 24:0.0 25:0.0 26:0.9166667 27:0.0 28:0.0 29:0.0 30:0.8181818 31:0.0 32:0.0 33:0.2 34:0.4 35:0.9166667 36:0.8181818 37:0.6 38:269974.34 39:0.0 40:0.0 41:2.0 42:2.0 43:0.0 44:0.0 45:0.0 46:0.0 47:0.0 48:0.0 49:0.0 50:0.0 51:2.0 52:0.0 53:0.16666667 54:0.0 55:0.0 56:0.0 57:0.16666667 58:0.083333336 59:2.0 
0.5947265625 0.716796875 0.8515625 0.46875 1:12.0 2:12.0 3:1.0 4:1.0 5:0.0 6:5.4166665 7:1.0 8:6.5833335 9:2.3333333 10:1.25 11:1.0 12:0.41666666 13:1705360.5 14:346895.4 15:260679.25 16:222782.67 17:171347.17 18:0.0023111615 19:0.0022549757 20:0.0018690499 21:0.0018049419 22:0.0016258731 23:0.0 24:0.0 25:0.0 26:1.0 27:0.09090909 28:0.18181819 29:0.09090909 30:0.45454547 31:0.1 32:0.0 33:0.0 34:0.2 35:1.0 36:0.8181818 37:0.3 38:259364.17 39:0.0 40:0.0 41:0.0 42:0.0 43:0.0 44:0.0 45:0.0 46:0.0 47:0.0 48:0.0 49:0.0 50:0.0 51:0.0 52:0.0 53:0.0 54:0.0 55:0.0 56:0.0 57:0.083333336 58:0.083333336 59:1.0 
0.5947265625 0.716796875 0.8515625 0.46875 1:38.0 2:32.0 3:1.1875 4:0.84210527 5:0.15789473 6:3.5526316 7:1.3913044 8:5.5263157 9:1.6842105 10:1.2894737 11:0.9736842 12:0.6052632 13:1896188.9 14:447296.75 15:290578.9 16:247038.88 17:213464.69 18:0.0017657867 19:0.001711321 20:0.0012494497 21:0.0012261186 22:2.9559006E-4 23:0.0 24:0.0 25:0.0 26:1.0 27:0.0 28:0.0 29:0.054054055 30:0.8648649 31:0.027777778 32:0.0 33:0.0 34:0.75 35:1.0 36:0.9117647 37:0.7647059 38:329272.6 39:0.0 40:0.0 41:0.0 42:0.0 43:0.0 44:0.0 45:0.0 46:0.0 47:0.0 48:0.0 49:0.0 50:0.0 51:0.0 52:0.0 53:0.0 54:0.10526316 55:0.125 56:0.0 57:0.34210527 58:0.4375 59:0.7819549 
0.5947265625 0.716796875 0.8515625 0.46875 1:12.0 2:11.0 3:1.0909091 4:0.9166667 5:0.083333336 6:6.5833335 7:1.0 8:7.6666665 9:2.5 10:0.9166667 11:0.5 12:0.33333334 13:3617962.0 14:692420.3 15:255854.17 16:159494.67 17:109008.914 18:2.1600182E-4 19:1.09629116E-4 20:4.629769E-5 21:2.4604671E-5 22:2.202359E-5 23:0.0 24:0.0 25:0.0 26:1.0 27:0.0 28:0.0 29:0.09090909 30:0.90909094 31:0.0 32:0.0 33:0.0 34:0.8 35:1.0 36:1.0 37:0.8 38:408952.16 39:0.0 40:0.0 41:0.0 42:0.0 43:0.0 44:0.0 45:0.0 46:0.0 47:0.0 48:0.0 49:0.0 50:0.0 51:0.0 52:0.0 53:0.0 54:0.0 55:0.0 56:0.0 57:0.083333336 58:0.09090909 59:0.9166667 
0.5947265625 0.716796875 0.8515625 0.46875 1:24.0 2:23.0 3:1.0434783 4:0.9583333 5:0.041666668 6:5.25 7:1.2777778 8:8.0 9:2.625 10:1.375 11:0.5833333 12:0.20833333 13:2239936.8 14:400704.47 15:152959.75 16:77806.914 17:48910.25 18:0.002659681 19:0.0025600402 20:0.0025079804 21:0.0024287382 22:0.0020875516 23:0.0 24:0.0 25:0.0 26:0.875 27:0.04347826 28:0.0 29:0.0 30:0.6956522 31:0.0 32:0.045454547 33:0.0 34:0.4090909 35:0.875 36:0.73913044 37:0.45454547 38:220317.45 39:0.0 40:0.0 41:0.0 42:0.0 43:0.0 44:0.0 45:0.0 46:0.0 47:0.0 48:0.0 49:0.0 50:0.0 51:0.0 52:0.0 53:0.0 54:0.0 55:0.0 56:0.0 57:0.083333336 58:0.04347826 59:1.9166667 
0.5947265625 0.716796875 0.8515625 0.46875 1:14.0 2:9.0 3:1.5555556 4:0.64285713 5:0.35714287 6:6.714286 7:1.0 8:4.357143 9:1.6428572 10:1.0714285 11:0.64285713 12:0.42857143 13:3253449.2 14:694770.2 15:145103.72 16:142582.58 17:141126.64 18:6.5132027E-4 19:5.8052066E-4 20:5.646409E-4 21:4.8862625E-4 22:4.5571878E-4 23:0.0 24:0.0 25:0.0 26:1.0 27:0.0 28:0.07692308 29:0.07692308 30:0.7692308 31:0.083333336 32:0.0 33:0.0 34:0.5833333 35:1.0 36:0.9230769 37:0.6666667 38:422040.56 39:0.0 40:0.0 41:0.0 42:0.0 43:0.0 44:0.0 45:0.0 46:0.0 47:0.0 48:0.0 49:0.0 50:0.0 51:0.0 52:0.0 53:0.0 54:0.0 55:0.0 56:0.0 57:0.071428575 58:0.11111111 59:0.6428572 
0.5947265625 0.716796875 0.8515625 0.46875 1:27.0 2:21.0 3:1.2857143 4:0.7777778 5:0.22222222 6:4.5555553 7:1.05 8:7.5555553 9:2.0 10:1.2592592 11:0.7037037 12:0.2962963 13:4117662.0 14:707399.94 15:189034.33 16:125407.89 17:91211.516 18:5.7456526E-4 19:5.198392E-4 20:4.926923E-4 21:2.830792E-4 22:1.6509819E-4 23:0.0 24:0.0 25:0.0 26:1.0 27:0.0 28:0.0 29:0.03846154 30:0.88461536 31:0.04 32:0.08 33:0.04 34:0.6 35:1.0 36:0.9230769 37:0.76 38:401130.16 39:0.0 40:0.0 41:0.0 42:0.0 43:0.0 44:0.0 45:0.0 46:0.0 47:0.0 48:0.0 49:0.0 50:0.0 51:0.0 52:0.0 53:0.0 54:0.037037037 55:0.04761905 56:0.0 57:0.18518518 58:0.23809524 59:0.77777773 
0.5947265625 0.716796875 0.8515625 0.46875 1:15.0 2:15.0 3:1.0 4:1.0 5:0.0 6:4.133333 7:1.1538461 8:7.8 9:3.0 10:1.4 11:0.73333335 12:0.46666667 13:3203050.2 14:721136.7 15:345397.6 16:256157.06 17:202087.33 18:7.8815164E-4 19:6.378545E-4 20:5.383357E-4 21:4.5988028E-4 22:4.4066386E-4 23:0.0 24:0.0 25:0.0 26:1.0 27:0.0 28:0.0 29:0.0 30:0.9285714 31:0.0 32:0.07692308 33:0.0 34:0.7692308 35:1.0 36:0.9285714 37:0.84615386 38:461380.94 39:0.0 40:0.0 41:0.0 42:0.0 43:0.0 44:0.0 45:0.0 46:0.0 47:0.0 48:0.0 49:0.0 50:0.0 51:0.0 52:0.0 53:0.0 54:0.0 55:0.0 56:0.0 57:0.06666667 58:0.13333334 59:0.5 
0.5947265625 0.716796875 0.8515625 0.46875 1:19.0 2:15.0 3:1.2666667 4:0.7894737 5:0.21052632 6:3.8421052 7:1.3636364 8:5.105263 9:1.4736842 10:0.94736844 11:0.84210527 12:0.5263158 13:1945462.8 14:502810.25 15:280352.84 16:271973.78 17:226639.84 18:1.7004448E-4 19:1.1120106E-4 20:8.030192E-5 21:7.008158E-5 22:4.6486693E-5 23:0.0 24:0.0 25:0.0 26:1.0 27:0.0 28:0.0 29:0.0 30:0.9444444 31:0.0 32:0.0 33:0.05882353 34:0.7647059 35:1.0 36:0.9444444 37:0.8235294 38:374020.4 39:0.0 40:0.0 41:0.0 42:0.0 43:0.0 44:0.0 45:0.0 46:0.0 47:0.0 48:0.0 49:0.0 50:0.0 51:0.0 52:0.0 53:0.0 54:0.10526316 55:0.13333334 56:0.0 57:0.36842105 58:0.46666667 59:0.78947365 
0.5947265625 0.716796875 0.8515625 0.46875 1:26.0 2:21.0 3:1.2380953 4:0.8076923 5:0.1923077 6:4.1153846 7:1.5 8:6.769231 9:2.3461537 10:1.0769231 11:0.96153843 12:0.5769231 13:3609972.0 14:755562.56 15:198630.61 16:179665.47 17:150216.27 18:6.075383E-4 19:3.6683804E-4 20:1.2504491E-4 21:1.09133936E-4 22:9.01501E-5 23:0.0 24:0.0 25:0.0 26:1.0 27:0.0 28:0.0 29:0.0 30:0.96 31:0.041666668 32:0.0 33:0.041666668 34:0.7916667 35:1.0 36:0.9583333 37:0.875 38:418649.38 39:0.0 40:0.0 41:0.0 42:0.0 43:0.0 44:0.0 45:0.0 46:0.0 47:0.0 48:0.0 49:0.0 50:0.0 51:0.0 52:0.0 53:0.0 54:0.07692308 55:0.0952381 56:0.0 57:0.26923078 58:0.33333334 59:0.80769235 
0.5947265625 0.716796875 0.8515625 0.46875 1:57.0 2:38.0 3:1.5 4:0.6666667 5:0.33333334 6:4.2807016 7:1.4074074 8:8.754386 9:2.6666667 10:1.5964912 11:0.9122807 12:0.3508772 13:4107330.5 14:789441.4 15:250435.86 16:140296.44 17:102149.56 18:0.0018975153 19:0.001626663 20:0.0015254933 21:0.001352834 22:1.1724724E-4 23:0.0 24:0.0 25:0.0 26:1.0 27:0.0 28:0.017857144 29:0.017857144 30:0.9285714 31:0.036363635 32:0.07272727 33:0.018181818 34:0.54545456 35:1.0 36:0.95555556 37:0.6458333 38:438040.1 39:0.0 40:0.0 41:3.0 42:3.0 43:0.0 44:0.0 45:0.0 46:0.0 47:0.0 48:0.0 49:0.0 50:0.0 51:3.0 52:0.0 53:0.078947365 54:0.0 55:0.0 56:0.0 57:0.05263158 58:0.10526316 59:0.5 
0.5947265625 0.716796875 0.8515625 0.46875 1:27.0 2:23.0 3:1.173913 4:0.8518519 5:0.14814815 6:3.3703704 7:1.3529412 8:5.962963 9:1.7777778 10:1.1111112 11:0.8888889 12:0.5925926 13:3115224.0 14:618801.7 15:266144.38 16:231966.0 17:208671.4 18:3.8138378E-4 19:3.2891173E-4 20:2.986565E-4 21:1.8697428E-4 22:6.027661E-5 23:0.0 24:0.0 25:0.0 26:1.0 27:0.0 28:0.0 29:0.0 30:1.0 31:0.0 32:0.04 33:0.0 34:0.84 35:1.0 36:1.0 37:0.88 38:405865.25 39:0.0 40:0.0 41:0.0 42:0.0 43:0.0 44:0.0 45:0.0 46:0.0 47:0.0 48:0.0 49:0.0 50:0.0 51:0.0 52:0.0 53:0.0 54:0.11111111 55:0.13043478 56:0.0 57:0.37037036 58:0.4347826 59:0.8518519 
0.5947265625 0.716796875 0.8515625 0.46875 1:28.0 2:20.0 3:1.4 4:0.71428573 5:0.2857143 6:4.285714 7:1.25 8:8.25 9:2.25 10:1.0714285 11:0.60714287 12:0.2857143 13:5069335.0 14:1041777.2 15:372928.56 16:173884.72 17:139022.97 18:0.0012906744 19:5.6199136E-4 20:3.493259E-4 21:2.3113002E-4 22:1.720594E-4 23:0.0 24:0.0 25:0.0 26:1.0 27:0.0 28:0.0 29:0.0 30:0.8518519 31:0.03846154 32:0.03846154 33:0.03846154 34:0.5769231 35:1.0 36:0.9130435 37:0.7826087 38:539100.06 39:0.0 40:0.0 41:3.0 42:3.0 43:0.0 44:0.0 45:0.0 46:0.0 47:0.0 48:0.0 49:0.0 50:0.0 51:3.0 52:0.0 53:0.15 54:0.0 55:0.0 56:0.0 57:0.10714286 58:0.15 59:0.7142857 
0.5947265625 0.716796875 0.8515625 0.46875 1:27.0 2:26.0 3:1.0384616 4:0.962963 5:0.037037037 6:6.037037 7:1.0 8:4.4074073 9:2.3333333 10:1.6296296 11:1.1111112 12:0.33333334 13:1613708.8 14:379329.4 15:172747.86 16:124262.22 17:104229.484 18:0.0024598567 19:0.0022677428 20:0.0020447853 21:0.0017018073 22:5.6822837E-4 23:0.0 24:0.0 25:0.0 26:0.962963 27:0.0 28:0.0 29:0.03846154 30:0.7307692 31:0.04 32:0.0 33:0.0 34:0.48 35:0.962963 36:0.7692308 37:0.52 38:231461.4 39:0.0 40:0.0 41:0.0 42:0.0 43:0.0 44:0.0 45:0.0 46:0.0 47:0.0 48:0.0 49:0.0 50:0.0 51:0.0 52:0.0 53:0.0 54:0.0 55:0.0 56:0.0 57:0.074074075 58:0.07692308 59:0.9629629 
0.5947265625 0.716796875 0.8515625 0.46875 1:20.0 2:17.0 3:1.1764706 4:0.85 5:0.15 6:4.05 7:1.0625 8:7.6 9:2.0 10:1.15 11:0.9 12:0.7 13:961132.0 14:289297.6 15:258507.75 16:254367.3 17:251526.5 18:5.1674724E-4 19:3.7863496E-4 20:1.9270305E-4 21:1.2877498E-4 22:1.11590154E-4 23:0.0 24:0.0 25:0.0 26:1.0 27:0.0 28:0.05263158 29:0.0 30:0.94736844 31:0.0 32:0.0 33:0.055555556 34:0.7777778 35:1.0 36:1.0 37:0.8333333 38:272986.5 39:0.0 40:0.0 41:0.0 42:0.0 43:0.0 44:0.0 45:0.0 46:0.0 47:0.0 48:0.0 49:0.0 50:0.0 51:0.0 52:0.0 53:0.0 54:0.05 55:0.05882353 56:0.0 57:0.2 58:0.23529412 59:0.85 
0.5947265625 0.716796875 0.8515625 0.46875 1:19.0 2:15.0 3:1.2666667 4:0.7894737 5:0.21052632 6:4.8421054 7:1.0 8:11.421053 9:3.1578948 10:2.0526316 11:0.84210527 12:0.10526316 13:5615364.0 14:876166.7 15:270121.25 16:126404.31 17:62045.05 18:0.0011348474 19:6.8459054E-4 20:5.7009E-4 21:3.8822522E-4 22:4.7055255E-5 23:0.0 24:0.0 25:0.0 26:1.0 27:0.0 28:0.0 29:0.0 30:1.0 31:0.0 32:0.11764706 33:0.05882353 34:0.7647059 35:1.0 36:1.0 37:0.9411765 38:454062.4 39:0.0 40:0.0 41:0.0 42:0.0 43:0.0 44:0.0 45:0.0 46:0.0 47:0.0 48:0.0 49:0.0 50:0.0 51:0.0 52:0.0 53:0.0 54:0.0 55:0.0 56:0.0 57:0.05263158 58:0.13333334 59:0.39473683 
0.5947265625 0.716796875 0.8515625 0.46875 1:20.0 2:18.0 3:1.1111112 4:0.9 5:0.1 6:4.55 7:1.2 8:8.25 9:2.95 10:1.6 11:1.05 12:0.25 13:3009703.2 14:589278.3 15:133445.5 16:70182.0 17:59550.55 18:6.494653E-4 19:4.2744254E-4 20:3.4490976E-4 21:3.0153495E-4 22:1.748846E-4 23:0.0 24:0.0 25:0.0 26:1.0 27:0.0 28:0.0 29:0.0 30:0.8947368 31:0.0 32:0.0 33:0.055555556 34:0.44444445 35:1.0 36:0.88235295 37:0.47058824 38:317024.34 39:0.0 40:0.0 41:0.0 42:0.0 43:0.0 44:0.0 45:0.0 46:0.0 47:0.0 48:0.0 49:0.0 50:0.0 51:0.0 52:0.0 53:0.0 54:0.0 55:0.0 56:0.0 57:0.05 58:0.055555556 59:0.90000004 
0.5947265625 0.716796875 0.8515625 0.46875 1:19.0 2:21.0 3:0.9047619 4:1.1052631 5:0.10526316 6:4.736842 7:1.1052631 8:6.2105265 9:2.6842105 10:1.4210526 11:0.6315789 12:0.2631579 13:3297777.2 14:636155.7 15:232697.62 16:118887.69 17:61463.844 18:0.0017215919 19:0.0012340831 20:7.95593E-4 21:4.5520734E-4 22:2.7077226E-4 23:0.0 24:0.0 25:0.0 26:1.0 27:0.055555556 28:0.0 29:0.055555556 30:0.5 31:0.0 32:0.0 33:0.0 34:0.11764706 35:1.0 36:0.6111111 37:0.11764706 38:332246.94 39:0.0 40:0.0 41:0.0 42:0.0 43:0.0 44:0.0 45:0.0 46:0.0 47:0.0 48:0.0 49:0.0 50:0.0 51:0.0 52:0.0 53:0.0 54:0.0 55:0.0 56:0.0 57:0.10526316 58:0.0952381 59:1.1052631 
0.5947265625 0.716796875 0.8515625 0.46875 1:20.0 2:13.0 3:1.5384616 4:0.65 5:0.35 6:4.65 7:1.0833334 8:3.3 9:1.9 10:1.3 11:1.15 12:0.7 13:736822.7 14:501231.66 15:497595.2 16:361964.6 17:331663.44 18:3.734089E-4 19:3.233544E-4 20:2.3495143E-4 21:2.2549318E-4 22:1.3080964E-4 23:0.0 24:0.0 25:0.0 26:1.0 27:0.0 28:0.0 29:0.21052632 30:0.68421054 31:0.11111111 32:0.0 33:0.0 34:0.44444445 35:1.0 36:0.88235295 37:0.5882353 38:360903.2 39:0.0 40:0.0 41:3.0 42:3.0 43:0.0 44:0.0 45:0.0 46:0.0 47:0.0 48:0.0 49:0.0 50:0.0 51:3.0 52:0.0 53:0.23076923 54:0.0 55:0.0 56:0.0 57:0.15 58:0.15384616 59:0.975 
0.5947265625 0.716796875 0.8515625 0.46875 1:21.0 2:17.0 3:1.2352941 4:0.8095238 5:0.1904762 6:2.7619047 7:1.2142857 8:6.4761906 9:1.7142857 10:1.1428572 11:0.85714287 12:0.5714286 13:2815798.5 14:637157.56 15:286822.34 16:238932.28 17:201694.62 18:6.109847E-4 19:5.2530476E-4 20:5.192358E-4 21:2.643608E-4 22:1.265785E-4 23:0.0 24:0.0 25:0.0 26:1.0 27:0.0 28:0.0 29:0.0 30:0.95 31:0.0 32:0.05263158 33:0.05263158 34:0.68421054 35:1.0 36:0.94736844 37:0.7894737 38:368684.06 39:0.0 40:0.0 41:0.0 42:0.0 43:0.0 44:0.0 45:0.0 46:0.0 47:0.0 48:0.0 49:0.0 50:0.0 51:0.0 52:0.0 53:0.0 54:0.0952381 55:0.11764706 56:0.0 57:0.33333334 58:0.4117647 59:0.8095238 
0.5947265625 0.716796875 0.8515625 0.46875 1:30.0 2:24.0 3:1.25 4:0.8 5:0.2 6:4.1 7:1.1428572 8:7.6666665 9:1.6666666 10:1.0 11:0.6333333 12:0.36666667 13:3051666.8 14:517663.16 15:263313.06 16:175338.56 17:140497.36 18:3.785081E-4 19:3.17129E-4 20:2.7365712E-4 21:1.8072329E-4 22:8.177408E-5 23:0.0 24:0.0 25:0.0 26:1.0 27:0.0 28:0.03448276 29:0.0 30:0.9310345 31:0.035714287 32:0.035714287 33:0.071428575 34:0.5 35:1.0 36:0.9655172 37:0.64285713 38:333718.03 39:0.0 40:0.0 41:0.0 42:0.0 43:0.0 44:0.0 45:0.0 46:0.0 47:0.0 48:0.0 49:0.0 50:0.0 51:0.0 52:0.0 53:0.0 54:0.033333335 55:0.041666668 56:0.0 57:0.16666667 58:0.20833333 59:0.8000001 
0.5947265625 0.716796875 0.8515625 0.46875 1:29.0 2:23.0 3:1.2608696 4:0.79310346 5:0.20689656 6:4.8965516 7:1.2777778 8:6.3448277 9:2.310345 10:1.4137931 11:0.82758623 12:0.2413793 13:3425116.5 14:678851.94 15:128048.586 16:107513.9 17:78096.414 18:6.2307925E-4 19:5.444096E-4 20:5.064248E-4 21:4.32672E-4 22:2.903221E-4 23:0.0 24:0.0 25:0.0 26:0.9310345 27:0.0 28:0.0 29:0.035714287 30:0.8214286 31:0.0 32:0.0 33:0.037037037 34:0.5185185 35:0.94736844 36:0.8636364 37:0.5217391 38:376932.53 39:0.0 40:0.0 41:0.0 42:0.0 43:0.0 44:0.0 45:0.0 46:0.0 47:0.0 48:0.0 49:0.0 50:0.0 51:0.0 52:0.0 53:0.0 54:0.0 55:0.0 56:0.0 57:0.03448276 58:0.04347826 59:0.79310346 
0.5947265625 0.716796875 0.8515625 0.46875 1:15.0 2:14.0 3:1.0714285 4:0.93333334 5:0.06666667 6:4.133333 7:1.4 8:8.466666 9:2.4666667 10:1.5333333 11:0.93333334 12:0.4 13:1342089.5 14:366428.8 15:316047.47 16:284371.6 17:201958.47 18:3.2147896E-4 19:1.871802E-4 20:1.3518201E-4 21:9.492763E-5 22:4.7979618E-5 23:0.0 24:0.0 25:0.0 26:1.0 27:0.0 28:0.0 29:0.071428575 30:0.9285714 31:0.0 32:0.07692308 33:0.0 34:0.53846157 35:1.0 36:1.0 37:0.61538464 38:299746.28 39:0.0 40:0.0 41:0.0 42:0.0 43:0.0 44:0.0 45:0.0 46:0.0 47:0.0 48:0.0 49:0.0 50:0.0 51:0.0 52:0.0 53:0.0 54:0.0 55:0.0 56:0.0 57:0.06666667 58:0.071428575 59:0.93333334 
0.5947265625 0.716796875 0.8515625 0.46875 1:19.0 2:17.0 3:1.117647 4:0.8947368 5:0.10526316 6:4.0526314 7:1.2142857 8:3.631579 9:1.6842105 10:1.1578947 11:0.8947368 12:0.68421054 13:699807.75 14:311246.7 15:308841.0 16:306408.38 17:274759.84 18:4.260489E-4 19:3.1830175E-4 20:1.7006292E-4 21:7.824901E-5 22:5.501309E-5 23:0.0 24:0.0 25:0.0 26:1.0 27:0.0 28:0.0 29:0.055555556 30:0.8333333 31:0.0 32:0.0 33:0.05882353 34:0.5294118 35:1.0 36:0.8888889 37:0.5882353 38:307375.1 39:0.0 40:0.0 41:0.0 42:0.0 43:0.0 44:0.0 45:0.0 46:0.0 47:0.0 48:0.0 49:0.0 50:0.0 51:0.0 52:0.0 53:0.0 54:0.10526316 55:0.11764706 56:0.0 57:0.42105263 58:0.4117647 59:1.0225564 
0.5947265625 0.716796875 0.8515625 0.46875 1:28.0 2:21.0 3:1.3333334 4:0.75 5:0.25 6:2.9642856 7:1.2352941 8:8.607142 9:1.8571428 10:0.85714287 11:0.5714286 12:0.42857143 13:4046198.5 14:743793.4 15:237661.25 16:174835.03 17:150730.08 18:2.38196E-4 19:7.284691E-5 20:3.0983836E-5 21:2.5078083E-5 22:2.0851274E-5 23:0.0 24:0.0 25:0.0 26:1.0 27:0.037037037 28:0.0 29:0.0 30:0.962963 31:0.0 32:0.07692308 33:0.07692308 34:0.7692308 35:1.0 36:1.0 37:0.9230769 38:441219.44 39:0.0 40:0.0 41:0.0 42:0.0 43:0.0 44:0.0 45:0.0 46:0.0 47:0.0 48:0.0 49:0.0 50:0.0 51:0.0 52:0.0 53:0.0 54:0.10714286 55:0.14285715 56:0.0 57:0.35714287 58:0.47619048 59:0.75 
0.5947265625 0.716796875 0.8515625 0.46875 1:9.0 2:13.0 3:0.6923077 4:1.4444444 5:0.44444445 6:5.6666665 7:1.0 8:6.5555553 9:2.6666667 10:1.5555556 11:0.7777778 12:0.22222222 13:742001.1 14:377121.88 15:200942.44 16:196692.33 17:133897.78 18:0.0014515065 19:6.56872E-4 20:3.9710663E-4 21:1.9745187E-4 22:2.8024433E-6 23:0.0 24:0.0 25:0.0 26:0.7777778 27:0.0 28:0.0 29:0.0 30:0.625 31:0.0 32:0.0 33:0.0 34:0.2857143 35:0.7777778 36:0.625 37:0.2857143 38:192954.22 39:0.0 40:0.0 41:0.0 42:0.0 43:0.0 44:0.0 45:0.0 46:0.0 47:0.0 48:0.0 49:0.0 50:0.0 51:0.0 52:0.0 53:0.0 54:0.0 55:0.07692308 56:0.07692308 57:0.22222222 58:0.23076923 59:0.962963 
0.5947265625 0.716796875 0.8515625 0.46875 1:25.0 2:23.0 3:1.0869565 4:0.92 5:0.08 6:5.32 7:1.0 8:8.04 9:2.96 10:1.72 11:0.84 12:0.2 13:1906279.6 14:488159.9 15:250610.08 16:175118.12 17:101347.04 18:0.0023658671 19:0.0013196693 20:9.508212E-4 21:8.61162E-4 22:3.4089643E-4 23:0.0 24:0.0 25:0.0 26:1.0 27:0.0 28:0.0 29:0.0 30:0.9166667 31:0.04347826 32:0.0 33:0.04347826 34:0.26086956 35:1.0 36:0.9166667 37:0.3478261 38:259862.88 39:0.0 40:0.0 41:2.0 42:2.0 43:0.0 44:0.0 45:0.0 46:0.0 47:0.0 48:0.0 49:0.0 50:0.0 51:2.0 52:0.0 53:0.08695652 54:0.0 55:0.0 56:0.0 57:0.12 58:0.08695652 59:1.38 
0.5947265625 0.716796875 0.8515625 0.46875 1:22.0 2:16.0 3:1.375 4:0.72727275 5:0.27272728 6:5.0454545 7:1.0666667 8:4.3636365 9:2.6363637 10:1.5454545 11:1.0454545 12:0.6363636 13:694781.8 14:474302.22 15:460390.7 16:330413.53 17:301716.12 18:4.194578E-4 19:3.4118898E-4 20:2.4085613E-4 21:2.0834873E-4 22:1.4499096E-4 23:0.0 24:0.045454547 25:0.0 26:0.95454544 27:0.0 28:0.0 29:0.0952381 30:0.7619048 31:0.05 32:0.0 33:0.0 34:0.55 35:1.0 36:0.84210527 37:0.57894737 38:330672.72 39:0.0 40:0.0 41:3.0 42:3.0 43:0.0 44:0.0 45:0.0 46:0.0 47:0.0 48:0.0 49:0.0 50:0.0 51:3.0 52:0.0 53:0.1875 54:0.0 55:0.0 56:0.0 57:0.18181819 58:0.125 59:1.4545455 
0.5947265625 0.716796875 0.8515625 0.46875 1:30.0 2:25.0 3:1.2 4:0.8333333 5:0.16666667 6:3.9333334 7:1.3888888 8:7.6 9:2.2666667 10:1.0666667 11:0.7 12:0.33333334 13:4750523.0 14:867134.06 15:228541.0 16:135568.4 17:115977.336 18:0.0055211387 19:0.0040890384 20:0.0027079668 21:0.0013841492 22:0.0013060495 23:0.0 24:0.0 25:0.0 26:1.0 27:0.0 28:0.0 29:0.03448276 30:0.9655172 31:0.0 32:0.035714287 33:0.071428575 34:0.5714286 35:1.0 36:1.0 37:0.68 38:475968.3 39:0.0 40:0.0 41:0.0 42:0.0 43:0.0 44:0.0 45:0.0 46:0.0 47:0.0 48:0.0 49:0.0 50:0.0 51:0.0 52:0.0 53:0.0 54:0.06666667 55:0.08 56:0.0 57:0.23333333 58:0.32 59:0.7291667 
0.5947265625 0.716796875 0.8515625 0.46875 1:15.0 2:15.0 3:1.0 4:1.0 5:0.0 6:5.9333334 7:1.0 8:6.5333333 9:2.5333333 10:1.6 11:0.8 12:0.4 13:752625.25 14:181506.86 15:158446.8 16:132346.27 17:89298.13 18:0.0010587838 19:9.028819E-4 20:6.837667E-4 21:4.8008468E-4 22:1.5926176E-4 23:0.0 24:0.0 25:0.0 26:1.0 27:0.071428575 28:0.071428575 29:0.0 30:0.71428573 31:0.0 32:0.0 33:0.07692308 34:0.23076923 35:1.0 36:0.85714287 37:0.30769232 38:143444.73 39:0.0 40:0.0 41:0.0 42:0.0 43:0.0 44:0.0 45:0.0 46:0.0 47:0.0 48:0.0 49:0.0 50:0.0 51:0.0 52:0.0 53:0.0 54:0.0 55:0.0 56:0.0 57:0.06666667 58:0.06666667 59:1.0 
0.5947265625 0.716796875 0.8515625 0.46875 1:24.0 2:20.0 3:1.2 4:0.8333333 5:0.16666667 6:3.25 7:1.25 8:5.6666665 9:1.375 10:0.875 11:0.7083333 12:0.5833333 13:3296839.2 14:646939.44 15:246345.05 16:202550.67 17:194754.38 18:1.96333E-4 19:1.8574756E-4 20:1.8438984E-4 21:1.6053785E-4 22:1.3267099E-4 23:0.0 24:0.0 25:0.0 26:1.0 27:0.0 28:0.0 29:0.0 30:0.95652175 31:0.0 32:0.0 33:0.09090909 34:0.72727275 35:1.0 36:0.95652175 37:0.8181818 38:401515.47 39:0.0 40:0.0 41:0.0 42:0.0 43:0.0 44:0.0 45:0.0 46:0.0 47:0.0 48:0.0 49:0.0 50:0.0 51:0.0 52:0.0 53:0.0 54:0.125 55:0.15 56:0.0 57:0.41666666 58:0.55 59:0.75757575 
0.5947265625 0.716796875 0.8515625 0.46875 1:16.0 2:12.0 3:1.3333334 4:0.75 5:0.25 6:5.6875 7:1.0 8:6.5 9:3.1875 10:1.875 11:0.875 12:0.375 13:124901.56 14:124040.625 15:124038.19 16:62427.75 17:62427.75 18:0.0705561 19:0.069912985 20:0.06831041 21:0.06830984 22:0.06830984 23:0.0 24:0.0625 25:0.0625 26:0.75 27:0.06666667 28:0.0 29:0.06666667 30:0.13333334 31:0.0 32:0.0 33:0.0 34:0.0 35:0.85714287 36:0.26666668 37:0.0 38:62429.938 39:0.0 40:0.0 41:0.0 42:0.0 43:0.0 44:0.0 45:0.0 46:0.0 47:0.0 48:0.0 49:0.0 50:0.0 51:0.0 52:0.0 53:0.0 54:0.0 55:0.0 56:0.0 57:0.1875 58:0.0 59:0.0 
0.5947265625 0.716796875 0.8515625 0.46875 1:12.0 2:11.0 3:1.0909091 4:0.9166667 5:0.083333336 6:6.25 7:1.0 8:3.5833333 9:2.25 10:1.5833334 11:1.0833334 12:0.5833333 13:66146.664 14:58886.668 15:55256.082 16:27419.916 17:27419.916 18:0.024380758 19:0.024135886 20:0.0121086845 21:0.012093127 22:0.012093127 23:0.083333336 24:0.0 25:0.33333334 26:0.5833333 27:0.0 28:0.0 29:0.09090909 30:0.09090909 31:0.0 32:0.0 33:0.0 34:0.0 35:1.0 36:0.18181819 37:0.0 38:27875.084 39:0.0 40:0.0 41:0.0 42:0.0 43:0.0 44:0.0 45:0.0 46:0.0 47:0.0 48:0.0 49:0.0 50:0.0 51:0.0 52:0.0 53:0.0 54:0.0 55:0.0 56:0.0 57:0.083333336 58:0.0 59:0.0 
0.5947265625 0.716796875 0.8515625 0.46875 1:17.0 2:18.0 3:0.9444444 4:1.0588236 5:0.05882353 6:5.529412 7:1.6363636 8:6.7058825 9:3.0 10:1.5882353 11:0.8235294 12:0.23529412 13:167571.0 14:162294.17 15:159731.83 16:79785.53 17:79785.53 18:0.013734292 19:0.006923463 20:0.006837038 21:0.0068261917 22:0.0068261917 23:0.0 24:0.0 25:0.0 26:0.9411765 27:0.0 28:0.0 29:0.0625 30:0.375 31:0.0 32:0.0 33:0.06666667 34:0.0 35:0.9230769 36:0.46153846 37:0.07692308 38:80110.18 39:0.0 40:0.0 41:2.0 42:2.0 43:0.0 44:0.0 45:0.0 46:0.0 47:0.0 48:0.0 49:0.0 50:0.0 51:2.0 52:0.0 53:0.11111111 54:0.0 55:0.0 56:0.0 57:0.05882353 58:0.11111111 59:0.52941173 
0.5947265625 0.716796875 0.8515625 0.46875 1:19.0 2:20.0 3:0.95 4:1.0526316 5:0.05263158 6:5.9473686 7:1.1111112 8:4.3157897 9:1.9473684 10:1.1578947 11:0.42105263 12:0.10526316 13:34922.156 14:34728.05 15:34727.156 16:17433.0 17:17432.79 18:0.060359616 19:0.059581883 20:0.05648591 21:0.056485754 22:0.043327853 23:0.0 24:0.0 25:0.0 26:0.57894737 27:0.0 28:0.0 29:0.0 30:0.11111111 31:0.0 32:0.0 33:0.0 34:0.0 35:0.5882353 36:0.11111111 37:0.0 38:17434.79 39:0.0 40:0.0 41:0.0 42:0.0 43:0.0 44:0.0 45:0.0 46:0.0 47:0.0 48:0.0 49:0.0 50:0.0 51:0.0 52:0.0 53:0.0 54:0.0 55:0.0 56:0.0 57:0.10526316 58:0.05 59:2.1052632 
0.5947265625 0.716796875 0.8515625 0.46875 1:23.0 2:19.0 3:1.2105263 4:0.82608694 5:0.17391305 6:4.7391305 7:1.2666667 8:6.9565215 9:2.7826087 10:1.8695652 11:0.8695652 12:0.39130434 13:86061.13 14:85862.83 15:85861.56 16:43002.13 17:43002.13 18:0.04500925 19:0.028895471 20:0.02739622 21:0.027395826 22:0.027395826 23:0.0 24:0.0 25:0.17391305 26:0.7826087 27:0.0 28:0.045454547 29:0.0 30:0.18181819 31:0.04761905 32:0.0 33:0.0 34:0.0 35:0.93333334 36:0.2 37:0.05 38:43002.523 39:0.0 40:0.0 41:0.0 42:0.0 43:0.0 44:0.0 45:0.0 46:0.0 47:0.0 48:0.0 49:0.0 50:0.0 51:0.0 52:0.0 53:0.0 54:0.0 55:0.0 56:0.0 57:0.13043478 58:0.0 59:0.0 
0.5947265625 0.716796875 0.8515625 0.46875 1:12.0 2:12.0 3:1.0 4:1.0 5:0.0 6:8.0 7:1.0 8:8.916667 9:2.8333333 10:2.0 11:0.8333333 12:0.25 13:7.4166665 14:4.25 15:4.25 16:4.25 17:4.25 18:0.040497076 19:0.038304094 20:0.038304094 21:0.038304094 22:0.038304094 23:0.083333336 24:0.083333336 25:0.16666667 26:0.5833333 27:0.0 28:0.0 29:0.0 30:0.0 31:0.0 32:0.0 33:0.0 34:0.0 35:0.9166667 36:0.0 37:0.0 38:9.833333 39:0.0 40:0.0 41:0.0 42:0.0 43:0.0 44:0.0 45:0.0 46:0.0 47:0.0 48:0.0 49:0.0 50:0.0 51:0.0 52:0.0 53:0.0 54:0.0 55:0.0 56:0.0 57:0.0 58:0.0 59:0.0 
0.5947265625 0.716796875 0.8515625 0.46875 1:15.0 2:15.0 3:1.0 4:1.0 5:0.0 6:5.0666666 7:1.0 8:4.8 9:2.4 10:1.4 11:0.8 12:0.46666667 13:146611.47 14:138779.33 15:135875.33 16:67773.266 17:67773.266 18:0.07279594 19:0.071047455 20:0.07094951 21:0.07093445 22:0.07093445 23:0.0 24:0.06666667 25:0.06666667 26:0.73333335 27:0.0 28:0.0 29:0.0 30:0.35714287 31:0.0 32:0.0 33:0.07692308 34:0.0 35:0.84615386 36:0.35714287 37:0.07692308 38:68137.336 39:0.0 40:0.0 41:0.0 42:0.0 43:0.0 44:0.0 45:0.0 46:0.0 47:0.0 48:0.0 49:0.0 50:0.0 51:0.0 52:0.0 53:0.0 54:0.0 55:0.0 56:0.0 57:0.26666668 58:0.2 59:1.3333334 
0.5947265625 0.716796875 0.8515625 0.46875 1:8.0 2:13.0 3:0.61538464 4:1.625 5:0.625 6:9.125 7:1.0 8:6.75 9:3.125 10:1.625 11:0.375 12:0.0 13:3.0 14:3.0 15:3.0 16:3.0 17:3.0 18:0.0234375 19:0.0234375 20:0.0234375 21:0.0234375 22:0.0234375 23:0.0 24:0.0 25:0.125 26:0.5 27:0.0 28:0.0 29:0.0 30:0.14285715 31:0.0 32:0.0 33:0.0 34:0.0 35:0.625 36:0.14285715 37:0.0 38:7.375 39:0.0 40:0.0 41:0.0 42:0.0 43:0.0 44:0.0 45:0.0 46:0.0 47:0.0 48:0.0 49:0.0 50:0.0 51:0.0 52:0.0 53:0.0 54:0.0 55:0.0 56:0.0 57:0.0 58:0.07692308 59:0.0 
0.5947265625 0.716796875 0.8515625 0.46875 1:14.0 2:12.0 3:1.1666666 4:0.85714287 5:0.14285715 6:6.428571 7:1.0909091 8:5.857143 9:1.3571428 10:1.0714285 11:0.71428573 12:0.2857143 13:9934.0 14:3594.7856 15:483.35715 16:94.42857 17:94.42857 18:0.009224622 19:0.008171452 20:0.008066507 21:0.008053388 22:0.008053388 23:0.0 24:0.071428575 25:0.071428575 26:0.5 27:0.0 28:0.0 29:0.07692308 30:0.0 31:0.0 32:0.0 33:0.0 34:0.0 35:0.64285713 36:0.07692308 37:0.0 38:483.85715 39:0.0 40:0.0 41:0.0 42:0.0 43:0.0 44:0.0 45:0.0 46:0.0 47:0.0 48:0.0 49:0.0 50:0.0 51:0.0 52:0.0 53:0.0 54:0.0 55:0.0 56:0.0 57:0.0 58:0.0 59:0.0 
0.5947265625 0.716796875 0.8515625 0.46875 1:19.0 2:17.0 3:1.117647 4:0.8947368 5:0.10526316 6:5.1578946 7:1.0625 8:6.105263 9:3.0526316 10:1.9473684 11:0.94736844 12:0.31578946 13:46718.684 14:40615.74 15:40615.74 16:23321.578 17:23321.578 18:0.09379992 19:0.09320461 20:0.09320461 21:0.09320445 22:0.09320445 23:0.0 24:0.05263158 25:0.15789473 26:0.6315789 27:0.0 28:0.0 29:0.0 30:0.0 31:0.0 32:0.0 33:0.0 34:0.0 35:0.8333333 36:0.0 37:0.0 38:23322.736 39:0.0 40:0.0 41:0.0 42:0.0 43:0.0 44:0.0 45:0.0 46:0.0 47:0.0 48:0.0 49:0.0 50:0.0 51:0.0 52:0.0 53:0.0 54:0.0 55:0.0 56:0.0 57:0.10526316 58:0.05882353 59:1.7894737 
0.5947265625 0.716796875 0.8515625 0.46875 1:20.0 2:14.0 3:1.4285715 4:0.7 5:0.3 6:4.75 7:1.0 8:9.05 9:2.5 10:1.3 11:0.65 12:0.35 13:166631.75 14:115202.55 15:113024.2 16:79892.3 17:79892.3 18:0.04141427 19:0.03372276 20:0.026506443 21:0.02316362 22:0.02316362 23:0.0 24:0.0 25:0.05 26:0.75 27:0.0 28:0.0 29:0.10526316 30:0.15789473 31:0.0 32:0.055555556 33:0.0 34:0.0 35:0.7777778 36:0.2631579 37:0.055555556 38:80167.35 39:0.0 40:0.0 41:0.0 42:0.0 43:0.0 44:0.0 45:0.0 46:0.0 47:0.0 48:0.0 49:0.0 50:0.0 51:0.0 52:0.0 53:0.0 54:0.0 55:0.0 56:0.0 57:0.25 58:0.21428572 59:1.1666666 
0.5947265625 0.716796875 0.8515625 0.46875 1:14.0 2:15.0 3:0.93333334 4:1.0714285 5:0.071428575 6:6.0 7:1.0714285 8:9.571428 9:4.071429 10:2.357143 11:1.4285715 12:0.21428572 13:387041.34 14:386854.84 15:386854.84 16:193477.42 17:193477.42 18:0.0153586315 19:0.012656489 20:0.012656489 21:0.012656386 22:0.012656386 23:0.0 24:0.0 25:0.0 26:1.0 27:0.0 28:0.15384616 29:0.07692308 30:0.30769232 31:0.083333336 32:0.0 33:0.16666667 34:0.083333336 35:1.0 36:0.53846157 37:0.33333334 38:193488.92 39:0.0 40:0.0 41:3.0 42:3.0 43:0.0 44:0.0 45:0.0 46:0.0 47:0.0 48:0.0 49:0.0 50:0.0 51:3.0 52:0.0 53:0.2 54:0.0 55:0.0 56:0.0 57:0.14285715 58:0.13333334 59:1.0714285 
0.5947265625 0.716796875 0.8515625 0.46875 1:13.0 2:11.0 3:1.1818181 4:0.84615386 5:0.15384616 6:5.923077 7:1.2222222 8:7.0 9:3.1538463 10:1.6923077 11:0.53846157 12:0.30769232 13:467335.53 14:467159.53 15:467159.53 16:233618.61 17:233618.61 18:0.0069801603 19:0.004259809 20:0.004259809 21:0.0037756676 22:0.0037756676 23:0.0 24:0.0 25:0.07692308 26:0.6923077 27:0.0 28:0.0 29:0.083333336 30:0.25 31:0.0 32:0.09090909 33:0.18181819 34:0.0 35:0.8888889 36:0.36363637 37:0.27272728 38:233619.31 39:0.0 40:0.0 41:3.0 42:3.0 43:0.0 44:0.0 45:0.0 46:0.0 47:0.0 48:0.0 49:0.0 50:0.0 51:3.0 52:0.0 53:0.27272728 54:0.0 55:0.0 56:0.0 57:0.23076923 58:0.09090909 59:2.5384614 
0.5947265625 0.716796875 0.8515625 0.46875 1:12.0 2:12.0 3:1.0 4:1.0 5:0.0 6:5.4166665 7:1.2 8:3.0833333 9:1.8333334 10:1.4166666 11:0.8333333 12:0.5 13:451413.66 14:451282.16 15:451282.16 16:225675.17 17:225675.17 18:0.0032027569 19:0.0015466771 20:0.0015466771 21:0.0015465538 22:0.0015465538 23:0.25 24:0.0 25:0.0 26:0.41666666 27:0.0 28:0.0 29:0.0 30:0.09090909 31:0.0 32:0.0 33:0.0 34:0.0 35:0.6666667 36:0.1 37:0.0 38:225677.25 39:0.0 40:0.0 41:3.0 42:3.0 43:0.0 44:0.0 45:0.0 46:0.0 47:0.0 48:0.0 49:0.0 50:0.0 51:3.0 52:0.0 53:0.25 54:0.0 55:0.0 56:0.0 57:0.16666667 58:0.083333336 59:2.0 
0.5947265625 0.716796875 0.8515625 0.46875 1:17.0 2:11.0 3:1.5454545 4:0.64705884 5:0.3529412 6:5.7058825 7:1.2222222 8:4.529412 9:2.4117646 10:1.8235294 11:1.0 12:0.5294118 13:396092.25 14:395913.4 15:395912.94 16:198003.23 17:198002.88 18:0.16822127 19:0.16791166 20:0.1384999 21:0.118891634 22:0.07967595 23:0.05882353 24:0.0 25:0.11764706 26:0.7058824 27:0.0 28:0.0 29:0.0625 30:0.0625 31:0.0 32:0.0 33:0.0 34:0.0 35:0.84615386 36:0.125 37:0.0 38:198003.3 39:0.0 40:0.0 41:3.0 42:3.0 43:0.0 44:0.0 45:0.0 46:0.0 47:0.0 48:0.0 49:0.0 50:0.0 51:3.0 52:0.0 53:0.27272728 54:0.0 55:0.0 56:0.0 57:0.23529412 58:0.09090909 59:2.5882351 
0.5947265625 0.716796875 0.8515625 0.46875 1:15.0 2:12.0 3:1.25 4:0.8 5:0.2 6:6.4666667 7:1.0 8:9.6 9:2.8 10:1.4 11:0.6666667 12:0.06666667 13:288.13333 14:136.33333 15:136.33333 16:136.33333 17:136.33333 18:0.014868664 19:0.013447356 20:0.013447356 21:0.013447356 22:0.013447356 23:0.2 24:0.0 25:0.13333334 26:0.6666667 27:0.071428575 28:0.0 29:0.21428572 30:0.14285715 31:0.0 32:0.15384616 33:0.0 34:0.0 35:1.0 36:0.42857143 37:0.15384616 38:138.4 39:0.0 40:0.0 41:0.0 42:0.0 43:0.0 44:0.0 45:0.0 46:0.0 47:0.0 48:0.0 49:0.0 50:0.0 51:0.0 52:0.0 53:0.0 54:0.0 55:0.0 56:0.0 57:0.0 58:0.083333336 59:0.0 
0.5947265625 0.716796875 0.8515625 0.46875 1:12.0 2:10.0 3:1.2 4:0.8333333 5:0.16666667 6:5.4166665 7:1.0 8:4.3333335 9:1.4166666 10:1.0 11:0.75 12:0.5 13:2976535.2 14:611714.0 15:218851.5 16:181462.42 17:176337.67 18:7.356084E-4 19:7.305623E-4 20:7.301027E-4 21:3.8413517E-4 22:2.7859557E-4 23:0.0 24:0.0 25:0.0 26:1.0 27:0.0 28:0.0 29:0.09090909 30:0.6363636 31:0.0 32:0.0 33:0.1 34:0.2 35:1.0 36:0.72727275 37:0.3 38:373223.84 39:0.0 40:0.0 41:0.0 42:0.0 43:0.0 44:0.0 45:0.0 46:0.0 47:0.0 48:0.0 49:0.0 50:0.0 51:0.0 52:0.0 53:0.0 54:0.0 55:0.0 56:0.0 57:0.16666667 58:0.1 59:1.6666667 
0.5947265625 0.7177734375 0.8515625 0.46875 1:21.0 2:16.0 3:1.3125 4:0.7619048 5:0.23809524 6:3.6666667 7:1.0666667 8:7.095238 9:2.5714285 10:1.6190476 11:0.85714287 12:0.47619048 13:2691946.8 14:745830.5 15:503718.0 16:316796.72 17:260158.53 18:0.0015714605 19:8.052987E-4 20:6.029274E-4 21:4.7050283E-4 22:2.0178586E-4 23:0.0 24:0.0 25:0.0 26:1.0 27:0.0 28:0.0 29:0.05 30:0.95 31:0.0 32:0.0 33:0.0 34:0.68421054 35:1.0 36:1.0 37:0.68421054 38:458414.1 39:0.0 40:0.0 41:3.0 42:3.0 43:0.0 44:0.0 45:0.0 46:0.0 47:0.0 48:0.0 49:0.0 50:0.0 51:3.0 52:0.0 53:0.1875 54:0.0 55:0.0 56:0.0 57:0.14285715 58:0.1875 59:0.7619048 
0.5947265625 0.7177734375 0.8515625 0.46875 1:16.0 2:14.0 3:1.1428572 4:0.875 5:0.125 6:5.4375 7:1.0 8:6.875 9:2.75 10:1.375 11:0.75 12:0.4375 13:2822533.5 14:708340.1 15:280424.56 16:238499.88 17:191910.69 18:4.7521127E-4 19:3.844377E-4 20:2.181989E-4 21:6.942979E-5 22:2.871839E-5 23:0.0 24:0.0 25:0.0625 26:0.9375 27:0.0 28:0.06666667 29:0.0 30:0.8 31:0.0 32:0.0 33:0.0 34:0.64285713 35:1.0 36:0.8666667 37:0.64285713 38:393238.12 39:0.0 40:0.0 41:0.0 42:0.0 43:0.0 44:0.0 45:0.0 46:0.0 47:0.0 48:0.0 49:0.0 50:0.0 51:0.0 52:0.0 53:0.0 54:0.0 55:0.0 56:0.0 57:0.0625 58:0.14285715 59:0.43749997 
0.5947265625 0.7177734375 0.8515625 0.46875 1:14.0 2:13.0 3:1.0769231 4:0.9285714 5:0.071428575 6:5.214286 7:1.1818181 8:4.142857 9:0.9285714 10:0.5714286 11:0.5 12:0.35714287 13:2559624.0 14:524883.8 15:188144.5 16:156165.58 17:151830.08 18:7.978333E-5 19:9.631346E-6 20:9.237444E-6 21:9.077899E-6 22:7.901093E-6 23:0.0 24:0.0 25:0.071428575 26:0.9285714 27:0.0 28:0.0 29:0.07692308 30:0.3846154 31:0.0 32:0.0 33:0.083333336 34:0.16666667 35:1.0 36:0.5 37:0.25 38:320596.5 39:0.0 40:0.0 41:0.0 42:0.0 43:0.0 44:0.0 45:0.0 46:0.0 47:0.0 48:0.0 49:0.0 50:0.0 51:0.0 52:0.0 53:0.0 54:0.0 55:0.0 56:0.0 57:0.14285715 58:0.07692308 59:1.8571429 
0.5947265625 0.7177734375 0.8515625 0.46875 1:16.0 2:16.0 3:1.0 4:1.0 5:0.0 6:4.4375 7:1.0 8:4.4375 9:1.5625 10:0.875 11:0.6875 12:0.4375 13:1819726.6 14:572262.0 15:443462.0 16:364703.5 17:298773.44 18:5.4280852E-5 19:3.3875982E-5 20:2.6938E-5 21:2.56373E-5 22:2.4289346E-5 23:0.0 24:0.0 25:0.0 26:1.0 27:0.0 28:0.0 29:0.06666667 30:0.8666667 31:0.0 32:0.071428575 33:0.0 34:0.5714286 35:1.0 36:0.93333334 37:0.64285713 38:429116.94 39:0.0 40:0.0 41:0.0 42:0.0 43:0.0 44:0.0 45:0.0 46:0.0 47:0.0 48:0.0 49:0.0 50:0.0 51:0.0 52:0.0 53:0.0 54:0.0 55:0.0 56:0.0 57:0.0625 58:0.125 59:0.5 
0.5947265625 0.7177734375 0.8515625 0.46875 1:32.0 2:26.0 3:1.2307693 4:0.8125 5:0.1875 6:4.65625 7:1.5294118 8:6.25 9:2.71875 10:1.71875 11:0.8125 12:0.34375 13:1286575.2 14:488381.3 15:339638.88 16:225623.31 17:204942.78 18:0.0012458079 19:9.7364245E-4 20:7.5598643E-4 21:5.5920734E-4 22:2.916222E-4 23:0.0 24:0.0 25:0.0 26:1.0 27:0.032258064 28:0.032258064 29:0.032258064 30:0.61290324 31:0.0 32:0.0 33:0.033333335 34:0.4 35:1.0 36:0.8076923 37:0.4814815 38:292993.44 39:0.0 40:0.0 41:3.0 42:3.0 43:0.0 44:0.0 45:0.0 46:0.0 47:0.0 48:0.0 49:0.0 50:0.0 51:3.0 52:0.0 53:0.115384616 54:0.0 55:0.0 56:0.0 57:0.1875 58:0.115384616 59:1.625 
0.5947265625 0.7177734375 0.8515625 0.46875 1:28.0 2:21.0 3:1.3333334 4:0.75 5:0.25 6:4.142857 7:1.1666666 8:7.714286 9:2.6785715 10:1.6428572 11:0.96428573 12:0.35714287 13:1441298.9 14:348631.22 15:281107.8 16:227623.33 17:180758.67 18:5.481587E-4 19:4.0253918E-4 20:2.625007E-4 21:1.2695586E-4 22:4.901564E-5 23:0.0 24:0.0 25:0.0 26:1.0 27:0.0 28:0.037037037 29:0.0 30:0.8888889 31:0.03846154 32:0.03846154 33:0.03846154 34:0.61538464 35:1.0 36:0.9259259 37:0.7307692 38:269001.75 39:0.0 40:0.0 41:0.0 42:0.0 43:0.0 44:0.0 45:0.0 46:0.0 47:0.0 48:0.0 49:0.0 50:0.0 51:0.0 52:0.0 53:0.0 54:0.0 55:0.0 56:0.0 57:0.035714287 58:0.04761905 59:0.75 
0.5947265625 0.7177734375 0.8515625 0.46875 1:15.0 2:10.0 3:1.5 4:0.6666667 5:0.33333334 6:4.4 7:1.0 8:6.4 9:1.8 10:0.93333334 11:0.6666667 12:0.33333334 13:2461547.8 14:537856.06 15:241985.47 16:237498.86 17:180066.6 18:0.0014611912 19:7.414085E-4 20:3.1678667E-4 21:1.6891827E-4 22:1.544081E-4 23:0.0 24:0.0 25:0.0 26:1.0 27:0.0 28:0.0 29:0.071428575 30:0.78571427 31:0.0 32:0.0 33:0.15384616 34:0.46153846 35:1.0 36:0.85714287 37:0.61538464 38:369737.0 39:0.0 40:0.0 41:0.0 42:0.0 43:0.0 44:0.0 45:0.0 46:0.0 47:0.0 48:0.0 49:0.0 50:0.0 51:0.0 52:0.0 53:0.0 54:0.0 55:0.0 56:0.0 57:0.06666667 58:0.1 59:0.6666667 
0.5947265625 0.7177734375 0.8515625 0.46875 1:22.0 2:14.0 3:1.5714285 4:0.6363636 5:0.36363637 6:4.0454545 7:1.0 8:7.7272725 9:2.3181818 10:1.2727273 11:0.6818182 12:0.3181818 13:5766954.5 14:1051587.6 15:238370.73 16:132081.1 17:88160.87 18:0.0013278495 19:7.8200863E-4 20:4.4541882E-4 21:2.7134453E-4 22:2.4900495E-4 23:0.0 24:0.045454547 25:0.0 26:0.95454544 27:0.0 28:0.0 29:0.0952381 30:0.85714287 31:0.0 32:0.0 33:0.1 34:0.6 35:1.0 36:0.95238096 37:0.7 38:569869.0 39:0.0 40:0.0 41:0.0 42:0.0 43:0.0 44:0.0 45:0.0 46:0.0 47:0.0 48:0.0 49:0.0 50:0.0 51:0.0 52:0.0 53:0.0 54:0.0 55:0.0 56:0.0 57:0.045454547 58:0.071428575 59:0.6363636 
0.5947265625 0.7177734375 0.8515625 0.46875 1:28.0 2:22.0 3:1.2727273 4:0.78571427 5:0.21428572 6:4.0 7:1.0476191 8:6.178571 9:1.7142857 10:1.1071428 11:0.78571427 12:0.5 13:2337860.0 14:448856.28 15:240375.97 16:156322.42 17:132703.78 18:0.027097981 19:0.007172262 20:0.0037337134 21:0.0018533947 22:2.330121E-4 23:0.0 24:0.0 25:0.0 26:1.0 27:0.0 28:0.0 29:0.037037037 30:0.7407407 31:0.03846154 32:0.03846154 33:0.03846154 34:0.3846154 35:1.0 36:0.7777778 37:0.5 38:263162.44 39:0.0 40:0.0 41:2.0 42:2.0 43:0.0 44:0.0 45:0.0 46:0.0 47:0.0 48:0.0 49:0.0 50:0.0 51:2.0 52:0.0 53:0.09090909 54:0.035714287 55:0.045454547 56:0.0 57:0.2857143 58:0.18181819 59:1.5714285 
0.5947265625 0.7177734375 0.8515625 0.46875 1:20.0 2:13.0 3:1.5384616 4:0.65 5:0.35 6:5.55 7:1.0 8:5.6 9:2.55 10:1.45 11:1.1 12:0.45 13:2311125.2 14:620481.7 15:277417.84 16:241477.84 17:198267.1 18:0.005966786 19:0.0059521943 20:0.0058020675 21:0.0057719448 22:0.0056328727 23:0.0 24:0.0 25:0.0 26:1.0 27:0.0 28:0.0 29:0.10526316 30:0.8947368 31:0.0 32:0.055555556 33:0.0 34:0.8333333 35:1.0 36:1.0 37:0.8888889 38:361107.94 39:0.0 40:0.0 41:0.0 42:0.0 43:0.0 44:0.0 45:0.0 46:0.0 47:0.0 48:0.0 49:0.0 50:0.0 51:0.0 52:0.0 53:0.0 54:0.0 55:0.0 56:0.0 57:0.1 58:0.07692308 59:1.3 
0.5947265625 0.7177734375 0.8515625 0.46875 1:26.0 2:22.0 3:1.1818181 4:0.84615386 5:0.15384616 6:4.0384617 7:1.1 8:3.9230769 9:1.8076923 10:1.3076923 11:1.0 12:0.65384614 13:1551341.2 14:476658.78 15:267310.62 16:263286.72 17:212149.08 18:6.1840407E-4 19:4.2941986E-4 20:3.899472E-4 21:3.4971244E-4 22:1.3913977E-4 23:0.0 24:0.0 25:0.0 26:1.0 27:0.0 28:0.0 29:0.04 30:0.92 31:0.0 32:0.041666668 33:0.0 34:0.6666667 35:1.0 36:0.9583333 37:0.7083333 38:336902.03 39:0.0 40:0.0 41:0.0 42:0.0 43:0.0 44:0.0 45:0.0 46:0.0 47:0.0 48:0.0 49:0.0 50:0.0 51:0.0 52:0.0 53:0.0 54:0.03846154 55:0.045454547 56:0.0 57:0.15384616 58:0.18181819 59:0.84615386 
0.5947265625 0.7177734375 0.8515625 0.46875 1:19.0 2:19.0 3:1.0 4:1.0 5:0.0 6:5.1578946 7:1.0555556 8:6.6842103 9:2.9473684 10:1.7368422 11:1.1052631 12:0.36842105 13:698243.2 14:408179.22 15:392526.53 16:243610.8 17:209549.84 18:0.0013837408 19:0.0010458067 20:9.0452586E-4 21:7.9121353E-4 22:2.0036481E-4 23:0.0 24:0.0 25:0.0 26:1.0 27:0.11111111 28:0.0 29:0.055555556 30:0.5 31:0.0 32:0.0 33:0.0 34:0.1764706 35:1.0 36:0.6666667 37:0.1764706 38:242404.53 39:0.0 40:0.0 41:3.0 42:3.0 43:0.0 44:0.0 45:0.0 46:0.0 47:0.0 48:0.0 49:0.0 50:0.0 51:3.0 52:0.0 53:0.15789473 54:0.0 55:0.0 56:0.0 57:0.15789473 58:0.15789473 59:1.0 
0.5947265625 0.7177734375 0.8515625 0.46875 1:17.0 2:13.0 3:1.3076923 4:0.7647059 5:0.23529412 6:4.529412 7:1.0833334 8:6.7058825 9:2.0588236 10:1.0588236 11:0.64705884 12:0.1764706 13:2483479.5 14:574490.4 15:198452.94 16:162529.3 17:121803.06 18:2.0665786E-4 19:1.0355967E-4 20:6.998334E-5 21:4.850861E-5 22:2.420058E-5 23:0.0 24:0.0 25:0.05882353 26:0.9411765 27:0.0 28:0.0625 29:0.0 30:0.75 31:0.0 32:0.0 33:0.06666667 34:0.46666667 35:1.0 36:0.8125 37:0.53333336 38:299955.75 39:0.0 40:0.0 41:0.0 42:0.0 43:0.0 44:0.0 45:0.0 46:0.0 47:0.0 48:0.0 49:0.0 50:0.0 51:0.0 52:0.0 53:0.0 54:0.0 55:0.0 56:0.0 57:0.11764706 58:0.07692308 59:1.5294117 
0.5947265625 0.7177734375 0.8515625 0.46875 1:14.0 2:14.0 3:1.0 4:1.0 5:0.0 6:4.785714 7:1.0 8:5.071429 9:1.3571428 10:1.0714285 11:1.0 12:0.42857143 13:735188.56 14:333597.28 15:325962.72 16:229274.0 17:184802.0 18:6.16197E-4 19:5.229158E-4 20:5.2024267E-4 21:5.201899E-4 22:2.7288118E-4 23:0.0 24:0.0 25:0.0 26:1.0 27:0.0 28:0.0 29:0.15384616 30:0.46153846 31:0.16666667 32:0.0 33:0.0 34:0.083333336 35:1.0 36:0.61538464 37:0.25 38:227941.86 39:0.0 40:0.0 41:2.0 42:2.0 43:0.0 44:0.0 45:0.0 46:0.0 47:0.0 48:0.0 49:0.0 50:0.0 51:2.0 52:0.0 53:0.14285715 54:0.0 55:0.0 56:0.0 57:0.14285715 58:0.14285715 59:1.0 
0.5947265625 0.7177734375 0.8515625 0.46875 1:19.0 2:17.0 3:1.117647 4:0.8947368 5:0.10526316 6:3.9473684 7:1.2142857 8:3.2105262 9:1.7368422 10:1.3684211 11:1.0526316 12:0.57894737 13:2246476.8 14:565954.0 15:287246.84 16:225215.05 17:207449.16 18:4.8397804E-4 19:4.6330784E-4 20:4.5996453E-4 21:4.4852222E-4 22:2.233516E-4 23:0.05263158 24:0.0 25:0.0 26:0.94736844 27:0.055555556 28:0.0 29:0.0 30:0.8888889 31:0.05882353 32:0.05882353 33:0.05882353 34:0.5294118 35:1.0 36:0.9444444 37:0.7058824 38:373042.75 39:0.0 40:0.0 41:0.0 42:0.0 43:0.0 44:0.0 45:0.0 46:0.0 47:0.0 48:0.0 49:0.0 50:0.0 51:0.0 52:0.0 53:0.0 54:0.10526316 55:0.11764706 56:0.0 57:0.36842105 58:0.4117647 59:0.8947368 
0.5947265625 0.7177734375 0.8515625 0.46875 1:18.0 2:12.0 3:1.5 4:0.6666667 5:0.33333334 6:4.388889 7:1.0909091 8:8.222222 9:2.7777777 10:1.6666666 11:0.9444444 12:0.16666667 13:5403852.0 14:1018253.3 15:184864.0 16:97427.164 17:66494.055 18:0.0010597062 19:8.4508886E-4 20:6.994727E-4 21:4.55514E-4 22:2.375236E-5 23:0.0 24:0.0 25:0.0 26:1.0 27:0.0 28:0.05882353 29:0.0 30:0.8235294 31:0.0 32:0.0 33:0.0625 34:0.5625 35:1.0 36:0.88235295 37:0.625 38:499212.84 39:0.0 40:0.0 41:0.0 42:0.0 43:0.0 44:0.0 45:0.0 46:0.0 47:0.0 48:0.0 49:0.0 50:0.0 51:0.0 52:0.0 53:0.0 54:0.0 55:0.0 56:0.0 57:0.055555556 58:0.083333336 59:0.6666666 
0.5947265625 0.7177734375 0.8515625 0.46875 1:20.0 2:15.0 3:1.3333334 4:0.75 5:0.25 6:3.7 7:1.1538461 8:3.4 9:1.5 10:1.25 11:1.15 12:0.8 13:607346.8 14:276294.34 15:274963.7 16:274720.8 17:245917.4 18:9.512878E-4 19:8.5312815E-4 20:8.327976E-4 21:7.080991E-4 22:3.0424312E-4 23:0.0 24:0.0 25:0.0 26:1.0 27:0.0 28:0.0 29:0.0 30:0.94736844 31:0.055555556 32:0.11111111 33:0.0 34:0.5555556 35:1.0 36:0.94736844 37:0.7222222 38:274572.2 39:0.0 40:0.0 41:0.0 42:0.0 43:0.0 44:0.0 45:0.0 46:0.0 47:0.0 48:0.0 49:0.0 50:0.0 51:0.0 52:0.0 53:0.0 54:0.1 55:0.13333334 56:0.0 57:0.35 58:0.46666667 59:0.75 
0.5947265625 0.7177734375 0.8515625 0.46875 1:23.0 2:17.0 3:1.3529412 4:0.73913044 5:0.26086956 6:3.652174 7:1.3076923 8:6.0434785 9:1.826087 10:1.0869565 11:0.8695652 12:0.6086956 13:2686267.2 14:643788.44 15:217627.17 16:212917.05 17:174357.78 18:4.0330002E-4 19:2.4906584E-4 20:2.0073022E-4 21:1.7098729E-4 22:1.6400866E-4 23:0.0 24:0.0 25:0.04347826 26:0.95652175 27:0.0 28:0.0 29:0.0 30:0.95454544 31:0.0 32:0.04761905 33:0.0 34:0.8095238 35:1.0 36:0.95454544 37:0.85714287 38:380917.66 39:0.0 40:0.0 41:0.0 42:0.0 43:0.0 44:0.0 45:0.0 46:0.0 47:0.0 48:0.0 49:0.0 50:0.0 51:0.0 52:0.0 53:0.0 54:0.13043478 55:0.1764706 56:0.0 57:0.4347826 58:0.5882353 59:0.7391304 
0.5947265625 0.7177734375 0.8515625 0.46875 1:29.0 2:23.0 3:1.2608696 4:0.79310346 5:0.20689656 6:4.8965516 7:1.15 8:7.793103 9:2.4482758 10:1.3103448 11:0.55172414 12:0.20689656 13:3979344.5 14:905538.9 15:314248.06 16:169187.14 17:143880.06 18:8.313049E-4 19:3.66198E-4 20:2.642228E-4 21:1.8320562E-4 22:1.2062466E-4 23:0.0 24:0.0 25:0.03448276 26:0.9655172 27:0.0 28:0.0 29:0.0 30:0.8214286 31:0.0 32:0.0 33:0.037037037 34:0.5185185 35:1.0 36:0.8076923 37:0.53846157 38:470679.78 39:0.0 40:0.0 41:3.0 42:3.0 43:0.0 44:0.0 45:0.0 46:0.0 47:0.0 48:0.0 49:0.0 50:0.0 51:3.0 52:0.0 53:0.13043478 54:0.0 55:0.0 56:0.0 57:0.13793103 58:0.13043478 59:1.0574713 
0.5947265625 0.7177734375 0.8515625 0.46875 1:16.0 2:13.0 3:1.2307693 4:0.8125 5:0.1875 6:3.1875 7:1.1818181 8:7.0 9:1.9375 10:1.125 11:0.5625 12:0.5625 13:1523110.5 14:350882.56 15:279880.75 16:247377.0 17:247377.0 18:4.0337918E-4 19:2.4042906E-4 20:1.6037101E-4 21:9.5181065E-5 22:9.5181065E-5 23:0.0 24:0.0 25:0.0 26:1.0 27:0.06666667 28:0.0 29:0.0 30:0.93333334 31:0.0 32:0.071428575 33:0.0 34:0.78571427 35:1.0 36:1.0 37:0.85714287 38:287788.0 39:0.0 40:0.0 41:0.0 42:0.0 43:0.0 44:0.0 45:0.0 46:0.0 47:0.0 48:0.0 49:0.0 50:0.0 51:0.0 52:0.0 53:0.0 54:0.125 55:0.15384616 56:0.0 57:0.4375 58:0.53846157 59:0.81249994 
0.5947265625 0.7177734375 0.8515625 0.46875 1:19.0 2:15.0 3:1.2666667 4:0.7894737 5:0.21052632 6:3.6842105 7:1.1538461 8:6.263158 9:1.7894737 10:1.3157895 11:0.84210527 12:0.6315789 13:2836142.8 14:555598.44 15:248976.53 16:163504.11 17:160809.0 18:6.815929E-4 19:4.706703E-4 20:4.423187E-4 21:3.9955167E-4 22:3.661326E-4 23:0.0 24:0.0 25:0.0 26:1.0 27:0.0 28:0.055555556 29:0.0 30:0.8333333 31:0.0 32:0.11764706 33:0.0 34:0.5294118 35:1.0 36:0.8888889 37:0.64705884 38:343137.4 39:0.0 40:0.0 41:0.0 42:0.0 43:0.0 44:0.0 45:0.0 46:0.0 47:0.0 48:0.0 49:0.0 50:0.0 51:0.0 52:0.0 53:0.0 54:0.10526316 55:0.13333334 56:0.0 57:0.36842105 58:0.46666667 59:0.78947365 
0.5947265625 0.7177734375 0.8515625 0.46875 1:23.0 2:19.0 3:1.2105263 4:0.82608694 5:0.17391305 6:3.347826 7:1.2666667 8:4.2608695 9:1.3913044 10:0.73913044 11:0.73913044 12:0.5652174 13:2400970.0 14:564906.8 15:212696.22 16:212696.22 17:175972.12 18:2.1073951E-4 19:1.3108861E-4 20:1.0801409E-4 21:1.0801409E-4 22:1.0360803E-4 23:0.0 24:0.0 25:0.0 26:1.0 27:0.045454547 28:0.0 29:0.0 30:0.95454544 31:0.0 32:0.04761905 33:0.14285715 34:0.6666667 35:1.0 36:1.0 37:0.85714287 38:373439.47 39:0.0 40:0.0 41:0.0 42:0.0 43:0.0 44:0.0 45:0.0 46:0.0 47:0.0 48:0.0 49:0.0 50:0.0 51:0.0 52:0.0 53:0.0 54:0.13043478 55:0.15789473 56:0.0 57:0.4347826 58:0.5263158 59:0.8260869 
0.5947265625 0.7177734375 0.8515625 0.46875 1:21.0 2:21.0 3:1.0 4:1.0 5:0.0 6:4.952381 7:1.3125 8:5.1904764 9:2.142857 10:1.4285715 11:0.9047619 12:0.42857143 13:1427144.9 14:517165.44 15:396426.16 16:244148.72 17:189706.81 18:9.853019E-4 19:8.501823E-4 20:7.453852E-4 21:6.1295193E-4 22:4.1338938E-4 23:0.0 24:0.0 25:0.0 26:1.0 27:0.05 28:0.0 29:0.2 30:0.6 31:0.0 32:0.0 33:0.0 34:0.36842105 35:1.0 36:0.85 37:0.36842105 38:263638.25 39:0.0 40:0.0 41:3.0 42:3.0 43:0.0 44:0.0 45:0.0 46:0.0 47:0.0 48:0.0 49:0.0 50:0.0 51:3.0 52:0.0 53:0.14285715 54:0.0 55:0.0 56:0.0 57:0.1904762 58:0.14285715 59:1.3333333 
0.5947265625 0.7177734375 0.8515625 0.46875 1:21.0 2:16.0 3:1.3125 4:0.7619048 5:0.23809524 6:6.428571 7:1.0 8:5.047619 9:2.8095238 10:1.8571428 11:1.2857143 12:0.42857143 13:610099.5 14:219432.81 15:189556.58 16:176717.62 17:134250.05 18:0.0015278083 19:0.0014552715 20:0.0013354884 21:0.0012494461 22:0.0011003249 23:0.0 24:0.0 25:0.0 26:1.0 27:0.0 28:0.05 29:0.05 30:0.75 31:0.0 32:0.0 33:0.10526316 34:0.31578946 35:1.0 36:0.85 37:0.42105263 38:179121.47 39:0.0 40:0.0 41:0.0 42:0.0 43:0.0 44:0.0 45:0.0 46:0.0 47:0.0 48:0.0 49:0.0 50:0.0 51:0.0 52:0.0 53:0.0 54:0.0 55:0.0 56:0.0 57:0.04761905 58:0.0625 59:0.7619048 
0.5947265625 0.7177734375 0.8515625 0.46875 1:22.0 2:19.0 3:1.1578947 4:0.8636364 5:0.13636364 6:3.6363637 7:1.2666667 8:6.7727275 9:1.3636364 10:0.90909094 11:0.77272725 12:0.45454547 13:2367687.0 14:435701.9 15:204052.1 16:183217.36 17:182086.5 18:4.3609922E-4 19:3.3099705E-4 20:3.2078233E-4 21:2.7274166E-4 22:6.198247E-5 23:0.0 24:0.0 25:0.0 26:1.0 27:0.0 28:0.0 29:0.0 30:0.95238096 31:0.0 32:0.0 33:0.0 34:0.55 35:1.0 36:0.95238096 37:0.55 38:306672.38 39:0.0 40:0.0 41:0.0 42:0.0 43:0.0 44:0.0 45:0.0 46:0.0 47:0.0 48:0.0 49:0.0 50:0.0 51:0.0 52:0.0 53:0.0 54:0.13636364 55:0.15789473 56:0.0 57:0.45454547 58:0.5263158 59:0.8636364 
0.5947265625 0.7177734375 0.8515625 0.46875 1:23.0 2:14.0 3:1.6428572 4:0.6086956 5:0.39130434 6:4.347826 7:1.0 8:7.173913 9:2.0434783 10:1.3478261 11:0.6956522 12:0.3043478 13:3717542.5 14:857502.0 15:412506.56 16:190310.34 17:174772.73 18:0.0013722107 19:9.3360327E-4 20:8.126284E-4 21:3.1862527E-4 22:2.2088389E-4 23:0.0 24:0.0 25:0.0 26:1.0 27:0.0 28:0.0 29:0.045454547 30:0.95454544 31:0.04761905 32:0.0 33:0.14285715 34:0.5714286 35:1.0 36:1.0 37:0.7619048 38:450966.8 39:0.0 40:0.0 41:3.0 42:3.0 43:0.0 44:0.0 45:0.0 46:0.0 47:0.0 48:0.0 49:0.0 50:0.0 51:3.0 52:0.0 53:0.21428572 54:0.0 55:0.0 56:0.0 57:0.13043478 58:0.14285715 59:0.91304344 
0.5947265625 0.7177734375 0.8515625 0.46875 1:23.0 2:21.0 3:1.0952381 4:0.9130435 5:0.08695652 6:5.347826 7:1.1666666 8:5.695652 9:2.2173913 10:1.6086956 11:0.95652175 12:0.4347826 13:852136.0 14:430199.75 15:424545.7 16:301838.78 17:248991.95 18:9.342904E-4 19:4.9868296E-4 20:4.01E-4 21:2.423073E-4 22:6.206661E-5 23:0.0 24:0.0 25:0.04347826 26:0.95652175 27:0.0 28:0.0 29:0.045454547 30:0.72727275 31:0.04761905 32:0.04761905 33:0.0 34:0.33333334 35:1.0 36:0.77272725 37:0.42857143 38:300426.6 39:0.0 40:0.0 41:3.0 42:3.0 43:0.0 44:0.0 45:0.0 46:0.0 47:0.0 48:0.0 49:0.0 50:0.0 51:3.0 52:0.0 53:0.14285715 54:0.0 55:0.0 56:0.0 57:0.17391305 58:0.0952381 59:1.826087 
0.5947265625 0.7177734375 0.8515625 0.46875 1:23.0 2:17.0 3:1.3529412 4:0.73913044 5:0.26086956 6:5.6086955 7:1.3076923 8:8.913043 9:2.2173913 10:1.2608696 11:0.5652174 12:0.3043478 13:4112014.5 14:643789.5 15:177536.61 16:87298.17 17:51932.523 18:5.0093845E-4 19:3.740948E-4 20:3.2096644E-4 21:2.1374691E-4 22:1.7791832E-4 23:0.0 24:0.0 25:0.0 26:1.0 27:0.0 28:0.0 29:0.0 30:0.8181818 31:0.04761905 32:0.0 33:0.0952381 34:0.3809524 35:1.0 36:0.8333333 37:0.6111111 38:346561.25 39:0.0 40:0.0 41:0.0 42:0.0 43:0.0 44:0.0 45:0.0 46:0.0 47:0.0 48:0.0 49:0.0 50:0.0 51:0.0 52:0.0 53:0.0 54:0.0 55:0.0 56:0.0 57:0.04347826 58:0.05882353 59:0.73913044 
0.5947265625 0.7177734375 0.8515625 0.46875 1:29.0 2:21.0 3:1.3809524 4:0.7241379 5:0.27586207 6:4.2413793 7:1.05 8:4.862069 9:2.310345 10:1.5862069 11:1.2068965 12:0.51724136 13:1291162.2 14:567776.9 15:474638.72 16:364794.1 17:311258.56 18:0.0012205763 19:0.0010495563 20:9.2446804E-4 21:8.754639E-4 22:5.8983586E-4 23:0.0 24:0.0 25:0.0 26:1.0 27:0.035714287 28:0.0 29:0.0 30:0.85714287 31:0.037037037 32:0.0 33:0.0 34:0.6666667 35:1.0 36:0.89285713 37:0.7037037 38:377165.53 39:0.0 40:0.0 41:3.0 42:3.0 43:0.0 44:0.0 45:0.0 46:0.0 47:0.0 48:0.0 49:0.0 50:0.0 51:3.0 52:0.0 53:0.14285715 54:0.0 55:0.0 56:0.0 57:0.10344828 58:0.14285715 59:0.7241379 
0.5947265625 0.7177734375 0.8515625 0.46875 1:21.0 2:18.0 3:1.1666666 4:0.85714287 5:0.14285715 6:4.6666665 7:1.0588236 8:2.5714285 9:1.5238096 10:1.2857143 11:1.2380953 12:0.7619048 13:487535.2 14:223387.05 15:223277.05 16:221537.58 17:190285.1 18:0.0012584483 19:0.0010261195 20:8.405908E-4 21:8.3928724E-4 22:4.5150044E-4 23:0.0 24:0.0 25:0.0 26:1.0 27:0.0 28:0.0 29:0.05 30:0.75 31:0.0 32:0.05263158 33:0.0 34:0.36842105 35:1.0 36:0.8 37:0.42105263 38:219275.77 39:0.0 40:0.0 41:0.0 42:0.0 43:0.0 44:0.0 45:0.0 46:0.0 47:0.0 48:0.0 49:0.0 50:0.0 51:0.0 52:0.0 53:0.0 54:0.04761905 55:0.055555556 56:0.0 57:0.1904762 58:0.22222222 59:0.85714287 
0.5947265625 0.7177734375 0.8515625 0.46875 1:20.0 2:18.0 3:1.1111112 4:0.9 5:0.1 6:3.75 7:1.125 8:6.1 9:1.7 10:1.05 11:0.95 12:0.65 13:3875125.2 14:722384.9 15:239220.9 16:162380.0 17:161379.3 18:6.239608E-4 19:5.7291106E-4 20:5.472534E-4 21:5.454454E-4 22:2.49138E-4 23:0.0 24:0.0 25:0.0 26:1.0 27:0.0 28:0.0 29:0.05263158 30:0.94736844 31:0.0 32:0.055555556 33:0.16666667 34:0.6111111 35:1.0 36:1.0 37:0.8333333 38:428390.7 39:0.0 40:0.0 41:0.0 42:0.0 43:0.0 44:0.0 45:0.0 46:0.0 47:0.0 48:0.0 49:0.0 50:0.0 51:0.0 52:0.0 53:0.0 54:0.1 55:0.11111111 56:0.0 57:0.35 58:0.3888889 59:0.9 
0.5947265625 0.7177734375 0.8515625 0.46875 1:16.0 2:15.0 3:1.0666667 4:0.9375 5:0.0625 6:4.8125 7:1.0714285 8:4.1875 9:2.0625 10:1.4375 11:1.0625 12:0.3125 13:1824136.8 14:388692.7 15:294922.3 16:226526.31 17:133454.31 18:0.015898291 19:0.015855623 20:0.01579975 21:0.015724799 22:0.015659252 23:0.0 24:0.0 25:0.0 26:1.0 27:0.0 28:0.0 29:0.0 30:0.93333334 31:0.071428575 32:0.071428575 33:0.071428575 34:0.71428573 35:1.0 36:0.93333334 37:0.9285714 38:282348.94 39:0.0 40:0.0 41:0.0 42:0.0 43:0.0 44:0.0 45:0.0 46:0.0 47:0.0 48:0.0 49:0.0 50:0.0 51:0.0 52:0.0 53:0.0 54:0.0 55:0.0 56:0.0 57:0.1875 58:0.2 59:0.9375 
0.5947265625 0.7177734375 0.8515625 0.46875 1:24.0 2:19.0 3:1.2631578 4:0.7916667 5:0.20833333 6:4.125 7:1.0555556 8:7.0416665 9:2.2083333 10:0.9166667 11:0.625 12:0.375 13:5548466.5 14:1074553.6 15:152832.55 16:101860.96 17:51738.668 18:0.003506954 19:0.003374594 20:0.00327411 21:0.0032041862 22:0.0031887267 23:0.0 24:0.0 25:0.0 26:1.0 27:0.04347826 28:0.0 29:0.0 30:0.8695652 31:0.045454547 32:0.0 33:0.13636364 34:0.36363637 35:1.0 36:0.9047619 37:0.52380955 38:543693.8 39:0.0 40:0.0 41:0.0 42:0.0 43:0.0 44:0.0 45:0.0 46:0.0 47:0.0 48:0.0 49:0.0 50:0.0 51:0.0 52:0.0 53:0.0 54:0.0 55:0.0 56:0.0 57:0.041666668 58:0.05263158 59:0.7916667 
0.5947265625 0.7177734375 0.8515625 0.46875 1:26.0 2:19.0 3:1.3684211 4:0.7307692 5:0.26923078 6:2.8846154 7:1.2666667 8:7.0 9:1.9230769 10:1.1153846 11:0.7307692 12:0.53846157 13:4002049.2 14:771190.9 15:247766.5 16:181630.92 17:154785.81 18:4.9223687E-4 19:2.7207972E-4 20:2.2735084E-4 21:1.9770318E-4 22:1.8996364E-4 23:0.0 24:0.0 25:0.0 26:1.0 27:0.0 28:0.04 29:0.0 30:0.96 31:0.0 32:0.083333336 33:0.0 34:0.75 35:1.0 36:1.0 37:0.8333333 38:460414.38 39:0.0 40:0.0 41:0.0 42:0.0 43:0.0 44:0.0 45:0.0 46:0.0 47:0.0 48:0.0 49:0.0 50:0.0 51:0.0 52:0.0 53:0.0 54:0.115384616 55:0.15789473 56:0.0 57:0.3846154 58:0.5263158 59:0.7307692 
0.5947265625 0.7177734375 0.8515625 0.46875 1:22.0 2:20.0 3:1.1 4:0.90909094 5:0.09090909 6:4.409091 7:1.25 8:3.5454545 9:1.2272727 10:0.8181818 11:0.77272725 12:0.5 13:1891077.9 14:439900.0 15:199887.05 16:151738.95 17:139199.95 18:0.0015625713 19:0.0011027739 20:0.0010483501 21:6.564576E-4 22:4.4054695E-4 23:0.0 24:0.0 25:0.0 26:1.0 27:0.04761905 28:0.0 29:0.0952381 30:0.85714287 31:0.05 32:0.0 33:0.0 34:0.35 35:1.0 36:1.0 37:0.4 38:282997.5 39:0.0 40:0.0 41:0.0 42:0.0 43:0.0 44:0.0 45:0.0 46:0.0 47:0.0 48:0.0 49:0.0 50:0.0 51:0.0 52:0.0 53:0.0 54:0.045454547 55:0.05 56:0.0 57:0.27272728 58:0.3 59:0.9090909 
0.5947265625 0.7177734375 0.8515625 0.46875 1:25.0 2:23.0 3:1.0869565 4:0.92 5:0.08 6:5.4 7:1.0454545 8:4.64 9:2.04 10:1.28 11:0.56 12:0.28 13:2638193.5 14:633759.7 15:279220.47 16:171554.69 17:169202.31 18:0.0011970801 19:0.0010267008 20:8.7205425E-4 21:7.694794E-4 22:6.210068E-4 23:0.0 24:0.0 25:0.0 26:1.0 27:0.0 28:0.041666668 29:0.083333336 30:0.7083333 31:0.04347826 32:0.0 33:0.08695652 34:0.3043478 35:1.0 36:0.8333333 37:0.4347826 38:367862.16 39:0.0 40:0.0 41:2.0 42:2.0 43:0.0 44:0.0 45:0.0 46:0.0 47:0.0 48:0.0 49:0.0 50:0.0 51:2.0 52:0.0 53:0.08695652 54:0.0 55:0.0 56:0.0 57:0.12 58:0.08695652 59:1.38 
0.5947265625 0.7177734375 0.8515625 0.46875 1:18.0 2:17.0 3:1.0588236 4:0.9444444 5:0.055555556 6:5.4444447 7:1.0 8:5.3333335 9:2.6111112 10:1.5 11:1.1666666 12:0.3888889 13:760404.3 14:350515.72 15:290588.72 16:277028.78 17:213074.5 18:0.007781217 19:0.0077098384 20:0.007552021 21:0.007518103 22:0.007435922 23:0.0 24:0.0 25:0.0 26:1.0 27:0.0 28:0.05882353 29:0.0 30:0.7647059 31:0.0 32:0.0625 33:0.0625 34:0.3125 35:1.0 36:0.8235294 37:0.4375 38:273410.34 39:0.0 40:0.0 41:0.0 42:0.0 43:0.0 44:0.0 45:0.0 46:0.0 47:0.0 48:0.0 49:0.0 50:0.0 51:0.0 52:0.0 53:0.0 54:0.0 55:0.0 56:0.0 57:0.055555556 58:0.05882353 59:0.9444445 
0.5947265625 0.7177734375 0.8515625 0.46875 1:30.0 2:21.0 3:1.4285715 4:0.7 5:0.3 6:5.3 7:1.1666666 8:6.4666667 9:2.1 10:0.93333334 11:0.6 12:0.4 13:3794699.0 14:824333.0 15:274408.5 16:191332.9 17:138674.9 18:0.004018551 19:0.0039236783 20:0.0039039298 21:0.0038961223 22:0.0038911654 23:0.0 24:0.0 25:0.0 26:1.0 27:0.0 28:0.0 29:0.06896552 30:0.7586207 31:0.0 32:0.0 33:0.0 34:0.64285713 35:1.0 36:0.8518519 37:0.64285713 38:454012.66 39:0.0 40:0.0 41:0.0 42:0.0 43:0.0 44:0.0 45:0.0 46:0.0 47:0.0 48:0.0 49:0.0 50:0.0 51:0.0 52:0.0 53:0.0 54:0.0 55:0.0 56:0.0 57:0.06666667 58:0.14285715 59:0.46666667 
0.5947265625 0.7177734375 0.8515625 0.46875 1:26.0 2:23.0 3:1.1304348 4:0.88461536 5:0.115384616 6:4.269231 7:1.2105263 8:6.4615383 9:1.6153846 10:1.1923077 11:0.9230769 12:0.65384614 13:1984140.6 14:440797.66 15:355857.2 16:265927.88 17:240278.03 18:4.787301E-4 19:4.5955757E-4 20:4.2111095E-4 21:4.1918425E-4 22:3.8941606E-4 23:0.0 24:0.0 25:0.0 26:1.0 27:0.0 28:0.0 29:0.0 30:0.96 31:0.041666668 32:0.041666668 33:0.083333336 34:0.5833333 35:1.0 36:0.95238096 37:0.71428573 38:313246.53 39:0.0 40:0.0 41:2.0 42:2.0 43:0.0 44:0.0 45:0.0 46:0.0 47:0.0 48:0.0 49:0.0 50:0.0 51:2.0 52:0.0 53:0.08695652 54:0.07692308 55:0.08695652 56:0.0 57:0.30769232 58:0.3478261 59:0.8846154 
0.5947265625 0.7177734375 0.8515625 0.46875 1:35.0 2:29.0 3:1.2068965 4:0.82857144 5:0.17142858 6:4.0285716 7:1.16 8:5.8285713 9:1.9428571 10:1.5428572 11:0.94285715 12:0.4857143 13:2860035.8 14:586037.4 15:283258.88 16:180070.83 17:157290.69 18:5.7269115E-4 19:5.1215553E-4 20:5.0160714E-4 21:3.8816946E-4 22:1.6742859E-4 23:0.0 24:0.0 25:0.0 26:1.0 27:0.029411765 28:0.0 29:0.029411765 30:0.85294116 31:0.030303031 32:0.030303031 33:0.060606062 34:0.6666667 35:1.0 36:0.90909094 37:0.7878788 38:344009.22 39:0.0 40:0.0 41:2.0 42:2.0 43:0.0 44:0.0 45:0.0 46:0.0 47:0.0 48:0.0 49:0.0 50:0.0 51:2.0 52:0.0 53:0.06896552 54:0.057142857 55:0.06896552 56:0.0 57:0.25714287 58:0.27586207 59:0.9321429 
0.5947265625 0.7177734375 0.8515625 0.46875 1:21.0 2:18.0 3:1.1666666 4:0.85714287 5:0.14285715 6:4.3809524 7:1.0588236 8:6.142857 9:2.1904762 10:1.2380953 11:0.95238096 12:0.3809524 13:1502727.4 14:334651.38 15:266651.47 16:238454.72 17:180833.0 18:8.834698E-4 19:6.5526017E-4 20:5.643868E-4 21:4.883121E-4 22:2.0673487E-4 23:0.0 24:0.0 25:0.0 26:1.0 27:0.0 28:0.0 29:0.0 30:0.9 31:0.05263158 32:0.0 33:0.0 34:0.36842105 35:1.0 36:0.9 37:0.42105263 38:260682.62 39:0.0 40:0.0 41:0.0 42:0.0 43:0.0 44:0.0 45:0.0 46:0.0 47:0.0 48:0.0 49:0.0 50:0.0 51:0.0 52:0.0 53:0.0 54:0.0 55:0.0 56:0.0 57:0.0952381 58:0.11111111 59:0.85714287 
0.5947265625 0.7177734375 0.8515625 0.46875 1:30.0 2:24.0 3:1.25 4:0.8 5:0.2 6:3.7666667 7:1.2631578 8:5.4333334 9:1.7333333 10:1.1 11:0.8333333 12:0.5 13:2471951.8 14:558378.25 15:238434.73 16:196852.4 17:155493.23 18:2.94153E-4 19:1.9287765E-4 20:1.7891191E-4 21:1.531865E-4 22:1.4204452E-4 23:0.0 24:0.0 25:0.0 26:1.0 27:0.0 28:0.0 29:0.03448276 30:0.9655172 31:0.0 32:0.10714286 33:0.035714287 34:0.6785714 35:1.0 36:1.0 37:0.84 38:351266.34 39:0.0 40:0.0 41:0.0 42:0.0 43:0.0 44:0.0 45:0.0 46:0.0 47:0.0 48:0.0 49:0.0 50:0.0 51:0.0 52:0.0 53:0.0 54:0.1 55:0.125 56:0.0 57:0.33333334 58:0.41666666 59:0.8000001 
0.5947265625 0.7177734375 0.8515625 0.46875 1:28.0 2:20.0 3:1.4 4:0.71428573 5:0.2857143 6:4.214286 7:1.1111112 8:7.25 9:2.357143 10:1.6785715 11:0.96428573 12:0.4642857 13:1903460.0 14:497580.75 15:423691.3 16:284518.9 17:218289.97 18:8.766832E-4 19:6.594359E-4 20:6.0596067E-4 21:5.0679495E-4 22:1.8694263E-4 23:0.0 24:0.0 25:0.0 26:1.0 27:0.037037037 28:0.0 29:0.074074075 30:0.8518519 31:0.03846154 32:0.0 33:0.03846154 34:0.5769231 35:1.0 36:0.962963 37:0.65384614 38:314887.34 39:0.0 40:0.0 41:3.0 42:3.0 43:0.0 44:0.0 45:0.0 46:0.0 47:0.0 48:0.0 49:0.0 50:0.0 51:3.0 52:0.0 53:0.15 54:0.0 55:0.0 56:0.0 57:0.10714286 58:0.2 59:0.53571427 
0.5947265625 0.7177734375 0.8515625 0.46875 1:24.0 2:18.0 3:1.3333334 4:0.75 5:0.25 6:4.4583335 7:1.125 8:8.291667 9:3.125 10:2.0416667 11:1.0416666 12:0.33333334 13:2419444.2 14:663957.6 15:418098.03 16:244302.7 17:199493.67 18:5.1209965E-4 19:3.8763133E-4 20:3.1711825E-4 21:1.9291112E-4 22:6.220262E-5 23:0.0 24:0.0 25:0.0 26:1.0 27:0.0 28:0.0 29:0.08695652 30:0.9130435 31:0.045454547 32:0.0 33:0.09090909 34:0.54545456 35:1.0 36:1.0 37:0.6818182 38:369183.25 39:0.0 40:0.0 41:3.0 42:3.0 43:0.0 44:0.0 45:0.0 46:0.0 47:0.0 48:0.0 49:0.0 50:0.0 51:3.0 52:0.0 53:0.16666667 54:0.0 55:0.0 56:0.0 57:0.125 58:0.16666667 59:0.75 
0.5947265625 0.7177734375 0.8515625 0.46875 1:24.0 2:17.0 3:1.4117647 4:0.7083333 5:0.29166666 6:5.0833335 7:1.1333333 8:6.5 9:2.4166667 10:1.2916666 11:0.9583333 12:0.41666666 13:4647221.5 14:1073805.6 15:363808.12 16:210919.38 17:171079.88 18:4.4845408E-4 19:2.8472126E-4 20:1.8227073E-4 21:1.7608439E-4 22:4.0352537E-5 23:0.0 24:0.0 25:0.0 26:1.0 27:0.0 28:0.0 29:0.0 30:0.95652175 31:0.0 32:0.0 33:0.045454547 34:0.6363636 35:1.0 36:0.95652175 37:0.6818182 38:543004.2 39:0.0 40:0.0 41:3.0 42:3.0 43:0.0 44:0.0 45:0.0 46:0.0 47:0.0 48:0.0 49:0.0 50:0.0 51:3.0 52:0.0 53:0.1764706 54:0.0 55:0.0 56:0.0 57:0.125 58:0.1764706 59:0.7083333 
0.5947265625 0.7177734375 0.8515625 0.46875 1:17.0 2:14.0 3:1.2142857 4:0.8235294 5:0.1764706 6:4.0588236 7:1.1666666 8:5.7058825 9:2.0588236 10:1.1764706 11:0.8235294 12:0.5294118 13:2228655.0 14:584560.8 15:232059.53 16:227775.12 17:180203.94 18:6.024725E-4 19:5.828324E-4 20:5.615726E-4 21:5.321622E-4 22:5.2347325E-4 23:0.0 24:0.0 25:0.0 26:1.0 27:0.0 28:0.0 29:0.0 30:0.9375 31:0.0 32:0.06666667 33:0.0 34:0.53333336 35:1.0 36:0.9375 37:0.6 38:342874.28 39:0.0 40:0.0 41:0.0 42:0.0 43:0.0 44:0.0 45:0.0 46:0.0 47:0.0 48:0.0 49:0.0 50:0.0 51:0.0 52:0.0 53:0.0 54:0.11764706 55:0.14285715 56:0.0 57:0.4117647 58:0.5 59:0.8235294 
0.5947265625 0.7177734375 0.8515625 0.46875 1:27.0 2:25.0 3:1.08 4:0.9259259 5:0.074074075 6:4.037037 7:1.25 8:4.6296296 9:1.962963 10:1.2962962 11:0.9259259 12:0.7037037 13:489063.94 14:238688.81 15:230113.48 16:226154.4 17:224987.81 18:7.4047636E-4 19:6.3542934E-4 20:5.650676E-4 21:5.132776E-4 22:2.5486707E-4 23:0.0 24:0.037037037 25:0.0 26:0.962963 27:0.0 28:0.0 29:0.0 30:0.84615386 31:0.0 32:0.04 33:0.04 34:0.68 35:1.0 36:0.84615386 37:0.76 38:227236.08 39:0.0 40:0.0 41:0.0 42:0.0 43:0.0 44:0.0 45:0.0 46:0.0 47:0.0 48:0.0 49:0.0 50:0.0 51:0.0 52:0.0 53:0.0 54:0.11111111 55:0.12 56:0.0 57:0.4074074 58:0.4 59:1.0185184 
0.5947265625 0.7177734375 0.8515625 0.46875 1:20.0 2:14.0 3:1.4285715 4:0.7 5:0.3 6:4.55 7:1.0769231 8:6.8 9:2.05 10:1.1 11:0.5 12:0.2 13:4440986.0 14:765388.7 15:223736.4 16:86935.3 17:69036.45 18:2.6302965E-4 19:1.9998846E-4 20:1.3420076E-4 21:4.83946E-5 22:3.4696342E-5 23:0.0 24:0.05 25:0.0 26:0.95 27:0.0 28:0.0 29:0.0 30:0.8947368 31:0.055555556 32:0.0 33:0.0 34:0.6111111 35:1.0 36:0.8888889 37:0.6666667 38:404378.8 39:0.0 40:0.0 41:0.0 42:0.0 43:0.0 44:0.0 45:0.0 46:0.0 47:0.0 48:0.0 49:0.0 50:0.0 51:0.0 52:0.0 53:0.0 54:0.0 55:0.0 56:0.0 57:0.05 58:0.071428575 59:0.7 
0.5947265625 0.7177734375 0.8515625 0.46875 1:18.0 2:14.0 3:1.2857143 4:0.7777778 5:0.22222222 6:4.5 7:1.0769231 8:7.7222223 9:2.4444444 10:1.1666666 11:0.7777778 12:0.33333334 13:4769574.0 14:868105.94 15:165936.44 16:104025.555 17:101966.28 18:4.4147702E-4 19:3.4863898E-4 20:2.2283137E-4 21:1.8680896E-4 22:5.0034912E-5 23:0.0 24:0.0 25:0.0 26:1.0 27:0.05882353 28:0.0 29:0.1764706 30:0.7647059 31:0.0625 32:0.0 33:0.0625 34:0.4375 35:1.0 36:1.0 37:0.5625 38:488825.72 39:0.0 40:0.0 41:0.0 42:0.0 43:0.0 44:0.0 45:0.0 46:0.0 47:0.0 48:0.0 49:0.0 50:0.0 51:0.0 52:0.0 53:0.0 54:0.0 55:0.0 56:0.0 57:0.055555556 58:0.071428575 59:0.77777773 
0.5947265625 0.7177734375 0.8515625 0.46875 1:23.0 2:16.0 3:1.4375 4:0.6956522 5:0.3043478 6:5.173913 7:1.2307693 8:4.173913 9:1.7826087 10:1.0869565 11:0.82608694 12:0.47826087 13:647874.5 14:411766.66 15:400247.53 16:279397.9 17:248288.95 18:3.6376787E-4 19:2.7582285E-4 20:2.1779898E-4 21:2.0252638E-4 22:1.7643152E-4 23:0.0 24:0.0 25:0.0 26:1.0 27:0.09090909 28:0.045454547 29:0.045454547 30:0.6363636 31:0.04761905 32:0.0 33:0.0 34:0.42857143 35:1.0 36:0.8947368 37:0.5263158 38:277646.47 39:0.0 40:0.0 41:3.0 42:3.0 43:0.0 44:0.0 45:0.0 46:0.0 47:0.0 48:0.0 49:0.0 50:0.0 51:3.0 52:0.0 53:0.1875 54:0.0 55:0.0 56:0.0 57:0.2173913 58:0.125 59:1.7391304 
0.5947265625 0.7177734375 0.8515625 0.46875 1:15.0 2:15.0 3:1.0 4:1.0 5:0.0 6:5.6666665 7:1.0714285 8:5.266667 9:1.9333333 10:1.2666667 11:0.8666667 12:0.33333334 13:296.93332 14:144.4 15:143.93333 16:131.86667 17:131.4 18:0.12205533 19:0.1196977 20:0.11017389 21:0.10672429 22:0.09720048 23:0.06666667 24:0.13333334 25:0.13333334 26:0.6666667 27:0.21428572 28:0.071428575 29:0.0 30:0.14285715 31:0.0 32:0.0 33:0.0 34:0.0 35:1.0 36:0.42857143 37:0.0 38:131.8 39:0.0 40:0.0 41:0.0 42:0.0 43:0.0 44:0.0 45:0.0 46:0.0 47:0.0 48:0.0 49:0.0 50:0.0 51:0.0 52:0.0 53:0.0 54:0.0 55:0.0 56:0.0 57:0.0 58:0.0 59:0.0 
0.5947265625 0.7177734375 0.8515625 0.46875 1:15.0 2:11.0 3:1.3636364 4:0.73333335 5:0.26666668 6:5.6 7:1.375 8:7.0666666 9:4.2 10:2.4666667 11:0.8666667 12:0.33333334 13:131603.0 14:131494.94 15:131494.94 16:65777.13 17:65777.13 18:0.043997336 19:0.04112208 20:0.04112208 21:0.04112147 22:0.04112147 23:0.0 24:0.0 25:0.06666667 26:0.8666667 27:0.0 28:0.0 29:0.0 30:0.21428572 31:0.0 32:0.0 33:0.0 34:0.07692308 35:0.90909094 36:0.25 37:0.083333336 38:65778.93 39:0.0 40:0.0 41:0.0 42:0.0 43:0.0 44:0.0 45:0.0 46:0.0 47:0.0 48:0.0 49:0.0 50:0.0 51:0.0 52:0.0 53:0.0 54:0.0 55:0.0 56:0.0 57:0.2 58:0.18181819 59:1.1 
0.5947265625 0.7177734375 0.8515625 0.46875 1:14.0 2:9.0 3:1.5555556 4:0.64285713 5:0.35714287 6:5.0 7:1.0 8:6.785714 9:4.357143 10:2.2142856 11:1.3571428 12:0.42857143 13:47084.0 14:47003.715 15:47003.715 16:23533.072 17:23533.072 18:0.07232804 19:0.06027311 20:0.06027311 21:0.060272895 22:0.060272895 23:0.0 24:0.0 25:0.35714287 26:0.64285713 27:0.07692308 28:0.0 29:0.0 30:0.07692308 31:0.0 32:0.0 33:0.0 34:0.0 35:1.0 36:0.15384616 37:0.0 38:23533.643 39:0.0 40:0.0 41:0.0 42:0.0 43:0.0 44:0.0 45:0.0 46:0.0 47:0.0 48:0.0 49:0.0 50:0.0 51:0.0 52:0.0 53:0.0 54:0.0 55:0.0 56:0.0 57:0.071428575 58:0.0 59:0.0 
0.5947265625 0.7177734375 0.8515625 0.46875 1:17.0 2:14.0 3:1.2142857 4:0.8235294 5:0.1764706 6:5.4117646 7:1.2727273 8:5.2941175 9:1.7647059 10:1.2352941 11:0.64705884 12:0.47058824 13:85511.3 14:80278.12 15:77715.766 16:38737.94 17:38737.94 18:0.014394692 19:0.002591997 20:0.002505571 21:0.0024944101 22:0.0024944101 23:0.11764706 24:0.0 25:0.29411766 26:0.47058824 27:0.0 28:0.0 29:0.0 30:0.125 31:0.0 32:0.0 33:0.0 34:0.06666667 35:0.84615386 36:0.13333334 37:0.06666667 38:39058.94 39:0.0 40:0.0 41:0.0 42:0.0 43:0.0 44:0.0 45:0.0 46:0.0 47:0.0 48:0.0 49:0.0 50:0.0 51:0.0 52:0.0 53:0.0 54:0.0 55:0.0 56:0.0 57:0.11764706 58:0.071428575 59:1.6470587 
0.5947265625 0.7177734375 0.8515625 0.46875 1:14.0 2:14.0 3:1.0 4:1.0 5:0.0 6:7.428571 7:1.0769231 8:4.428571 9:1.9285715 10:0.78571427 11:0.5 12:0.21428572 13:347.85715 14:120.92857 15:120.92857 16:120.92857 17:120.57143 18:0.059265215 19:0.044062432 20:0.044062432 21:0.044062432 22:0.029776718 23:0.071428575 24:0.071428575 25:0.0 26:0.5 27:0.0 28:0.0 29:0.0 30:0.07692308 31:0.0 32:0.0 33:0.0 34:0.0 35:0.61538464 36:0.07692308 37:0.0 38:120.78571 39:0.0 40:0.0 41:0.0 42:0.0 43:0.0 44:0.0 45:0.0 46:0.0 47:0.0 48:0.0 49:0.0 50:0.0 51:0.0 52:0.0 53:0.0 54:0.0 55:0.0 56:0.0 57:0.0 58:0.0 59:0.0 
0.5947265625 0.7177734375 0.8515625 0.46875 1:8.0 2:8.0 3:1.0 4:1.0 5:0.0 6:7.125 7:1.0 8:10.125 9:3.0 10:1.375 11:0.5 12:0.125 13:17179.25 14:6208.25 15:763.25 16:82.625 17:82.625 18:0.012567742 19:0.011011215 20:0.01082756 21:0.010804603 22:0.010804603 23:0.0 24:0.0 25:0.0 26:0.625 27:0.0 28:0.0 29:0.0 30:0.14285715 31:0.0 32:0.0 33:0.0 34:0.0 35:0.625 36:0.14285715 37:0.0 38:768.625 39:0.0 40:0.0 41:0.0 42:0.0 43:0.0 44:0.0 45:0.0 46:0.0 47:0.0 48:0.0 49:0.0 50:0.0 51:0.0 52:0.0 53:0.0 54:0.0 55:0.0 56:0.0 57:0.0 58:0.0 59:0.0 
0.5947265625 0.7177734375 0.8515625 0.46875 1:14.0 2:12.0 3:1.1666666 4:0.85714287 5:0.14285715 6:6.214286 7:1.3333334 8:4.928571 9:2.0714285 10:1.3571428 11:0.71428573 12:0.5714286 13:287460.56 14:287334.28 15:287333.72 16:143703.14 17:143703.14 18:0.095577 19:0.09238485 20:0.05667057 21:0.04774151 22:0.04774151 23:0.0 24:0.0 25:0.0 26:0.85714287 27:0.0 28:0.0 29:0.0 30:0.30769232 31:0.0 32:0.0 33:0.083333336 34:0.0 35:0.9 36:0.4 37:0.1 38:143704.22 39:0.0 40:0.0 41:2.0 42:2.0 43:0.0 44:0.0 45:0.0 46:0.0 47:0.0 48:0.0 49:0.0 50:0.0 51:2.0 52:0.0 53:0.16666667 54:0.0 55:0.0 56:0.0 57:0.21428572 58:0.083333336 59:2.5714285 
0.5947265625 0.7177734375 0.8515625 0.46875 1:15.0 2:13.0 3:1.1538461 4:0.8666667 5:0.13333334 6:5.8 7:1.0 8:7.133333 9:3.2666667 10:1.8666667 11:0.8666667 12:0.13333334 13:44111.4 14:43957.0 15:43957.0 16:22040.467 17:22040.467 18:0.12506157 19:0.11318014 20:0.11318014 21:0.11276065 22:0.11276065 23:0.0 24:0.0 25:0.13333334 26:0.73333335 27:0.0 28:0.0 29:0.0 30:0.21428572 31:0.0 32:0.0 33:0.0 34:0.15384616 35:0.85714287 36:0.21428572 37:0.15384616 38:22040.8 39:0.0 40:0.0 41:0.0 42:0.0 43:0.0 44:0.0 45:0.0 46:0.0 47:0.0 48:0.0 49:0.0 50:0.0 51:0.0 52:0.0 53:0.0 54:0.0 55:0.0 56:0.0 57:0.06666667 58:0.0 59:0.0 
